<?xml version="1.0"?>
<opencv_storage>
<cascade>
  <stageType>BOOST</stageType>
  <featureType>HAAR</featureType>
  <height>20</height>
  <width>20</width>
  <stageParams>
    <boostType>GAB</boostType>
    <minHitRate>9.9500000476837158e-01</minHitRate>
    <maxFalseAlarm>5.0000000000000000e-01</maxFalseAlarm>
    <weightTrimRate>9.4999999999999996e-01</weightTrimRate>
    <maxDepth>1</maxDepth>
    <maxWeakCount>100</maxWeakCount></stageParams>
  <featureParams>
    <maxCatCount>0</maxCatCount>
    <featSize>1</featSize>
    <mode>BASIC</mode></featureParams>
  <stageNum>15</stageNum>
  <stages>
    <!-- stage 0 -->
    <_>
      <maxWeakCount>16</maxWeakCount>
      <stageThreshold>-1.1437636613845825e+00</stageThreshold>
      <weakClassifiers>
        <_>
          <internalNodes>
            0 -1 278 -1.3247644528746605e-02</internalNodes>
          <leafValues>
            6.6211360692977905e-01 -1.1992071568965912e-01</leafValues></_>
        <_>
          <internalNodes>
            0 -1 424 -2.4216338060796261e-03</internalNodes>
          <leafValues>
            5.8534669876098633e-01 -2.2774055600166321e-01</leafValues></_>
        <_>
          <internalNodes>
            0 -1 526 -4.8065483570098877e-03</internalNodes>
          <leafValues>
            3.8930329680442810e-01 -3.1473892927169800e-01</leafValues></_>
        <_>
          <internalNodes>
            0 -1 354 5.4338593035936356e-03</internalNodes>
          <leafValues>
            -1.8334618210792542e-01 6.0888046026229858e-01</leafValues></_>
        <_>
          <internalNodes>
            0 -1 66 5.8587170206010342e-03</internalNodes>
          <leafValues>
            -2.3491296172142029e-01 3.7588986754417419e-01</leafValues></_>
        <_>
          <internalNodes>
            0 -1 235 6.9947787560522556e-03</internalNodes>
          <leafValues>
            -1.9984741508960724e-01 5.2441662549972534e-01</leafValues></_>
        <_>
          <internalNodes>
            0 -1 320 -6.4784707501530647e-03</internalNodes>
          <leafValues>
            6.8460756540298462e-01 -1.4142777025699615e-01</leafValues></_>
        <_>
          <internalNodes>
            0 -1 219 -4.1420519351959229e-02</internalNodes>
          <leafValues>
            -7.5408542156219482e-01 1.3173009455204010e-01</leafValues></_>
        <_>
          <internalNodes>
            0 -1 263 -3.6120694130659103e-02</internalNodes>
          <leafValues>
            5.2592450380325317e-01 -1.7511054873466492e-01</leafValues></_>
        <_>
          <internalNodes>
            0 -1 447 -2.1895118989050388e-03</internalNodes>
          <leafValues>
            3.9035111665725708e-01 -1.9774082303047180e-01</leafValues></_>
        <_>
          <internalNodes>
            0 -1 479 -6.0689765959978104e-03</internalNodes>
          <leafValues>
            3.4220170974731445e-01 -2.5751549005508423e-01</leafValues></_>
        <_>
          <internalNodes>
            0 -1 83 -4.3252939358353615e-03</internalNodes>
          <leafValues>
            3.1275886297225952e-01 -2.6215395331382751e-01</leafValues></_>
        <_>
          <internalNodes>
            0 -1 323 -3.1996553298085928e-03</internalNodes>
          <leafValues>
            4.5958426594734192e-01 -1.7193715274333954e-01</leafValues></_>
        <_>
          <internalNodes>
            0 -1 473 -7.2019961662590504e-03</internalNodes>
          <leafValues>
            -4.4825387001037598e-01 1.8305096030235291e-01</leafValues></_>
        <_>
          <internalNodes>
            0 -1 53 -2.0227622240781784e-02</internalNodes>
          <leafValues>
            5.1579451560974121e-01 -1.5904729068279266e-01</leafValues></_>
        <_>
          <internalNodes>
            0 -1 76 3.8574934005737305e-03</internalNodes>
          <leafValues>
            -2.0594204962253571e-01 4.1679820418357849e-01</leafValues></_></weakClassifiers></_>
    <!-- stage 1 -->
    <_>
      <maxWeakCount>25</maxWeakCount>
      <stageThreshold>-9.8248195648193359e-01</stageThreshold>
      <weakClassifiers>
        <_>
          <internalNodes>
            0 -1 246 3.1191059388220310e-03</internalNodes>
          <leafValues>
            -4.7311827540397644e-02 5.7414966821670532e-01</leafValues></_>
        <_>
          <internalNodes>
            0 -1 114 -8.6779762059450150e-03</internalNodes>
          <leafValues>
            4.8650258779525757e-01 -1.6671781241893768e-01</leafValues></_>
        <_>
          <internalNodes>
            0 -1 14 -1.7978049814701080e-02</internalNodes>
          <leafValues>
            3.7664002180099487e-01 -2.3446008563041687e-01</leafValues></_>
        <_>
          <internalNodes>
            0 -1 416 7.3355687782168388e-03</internalNodes>
          <leafValues>
            -2.3254597187042236e-01 3.8796108961105347e-01</leafValues></_>
        <_>
          <internalNodes>
            0 -1 446 -1.3234023936092854e-03</internalNodes>
          <leafValues>
            3.5919809341430664e-01 -2.3304744064807892e-01</leafValues></_>
        <_>
          <internalNodes>
            0 -1 546 1.5431107953190804e-02</internalNodes>
          <leafValues>
            -1.2438080459833145e-01 5.4399788379669189e-01</leafValues></_>
        <_>
          <internalNodes>
            0 -1 534 -1.0641988366842270e-02</internalNodes>
          <leafValues>
            4.3131938576698303e-01 -1.5808217227458954e-01</leafValues></_>
        <_>
          <internalNodes>
            0 -1 183 -4.3250079033896327e-04</internalNodes>
          <leafValues>
            1.7920501530170441e-01 -3.7248492240905762e-01</leafValues></_>
        <_>
          <internalNodes>
            0 -1 271 3.7569878622889519e-04</internalNodes>
          <leafValues>
            -1.8781153857707977e-01 2.9384925961494446e-01</leafValues></_>
        <_>
          <internalNodes>
            0 -1 87 6.1153073329478502e-04</internalNodes>
          <leafValues>
            -2.7736282348632812e-01 1.9692830741405487e-01</leafValues></_>
        <_>
          <internalNodes>
            0 -1 528 -3.3518343698233366e-03</internalNodes>
          <leafValues>
            -5.8244878053665161e-01 8.4830611944198608e-02</leafValues></_>
        <_>
          <internalNodes>
            0 -1 253 -2.0225683692842722e-03</internalNodes>
          <leafValues>
            5.1698327064514160e-01 -1.0792792588472366e-01</leafValues></_>
        <_>
          <internalNodes>
            0 -1 296 -6.5163988620042801e-04</internalNodes>
          <leafValues>
            3.2237738370895386e-01 -1.7279757559299469e-01</leafValues></_>
        <_>
          <internalNodes>
            0 -1 163 -1.6801469027996063e-03</internalNodes>
          <leafValues>
            2.9848718643188477e-01 -1.5958239138126373e-01</leafValues></_>
        <_>
          <internalNodes>
            0 -1 164 -6.3277187291532755e-04</internalNodes>
          <leafValues>
            2.7714976668357849e-01 -2.2064067423343658e-01</leafValues></_>
        <_>
          <internalNodes>
            0 -1 160 -1.7949890345335007e-02</internalNodes>
          <leafValues>
            -4.6954143047332764e-01 9.9007077515125275e-02</leafValues></_>
        <_>
          <internalNodes>
            0 -1 121 -6.9336757063865662e-02</internalNodes>
          <leafValues>
            -5.9540510177612305e-01 9.7267821431159973e-02</leafValues></_>
        <_>
          <internalNodes>
            0 -1 533 1.0417785961180925e-03</internalNodes>
          <leafValues>
            1.3960711658000946e-01 -3.8043227791786194e-01</leafValues></_>
        <_>
          <internalNodes>
            0 -1 538 -4.8501025885343552e-03</internalNodes>
          <leafValues>
            -5.9931409358978271e-01 8.1643342971801758e-02</leafValues></_>
        <_>
          <internalNodes>
            0 -1 352 1.2347141280770302e-02</internalNodes>
          <leafValues>
            -1.9314274191856384e-01 2.6179653406143188e-01</leafValues></_>
        <_>
          <internalNodes>
            0 -1 207 -2.9706410132348537e-03</internalNodes>
          <leafValues>
            3.4747630357742310e-01 -1.4190953969955444e-01</leafValues></_>
        <_>
          <internalNodes>
            0 -1 372 1.5198127366602421e-02</internalNodes>
          <leafValues>
            -9.1865345835685730e-02 5.0409084558486938e-01</leafValues></_>
        <_>
          <internalNodes>
            0 -1 490 -8.8071860373020172e-03</internalNodes>
          <leafValues>
            2.5809761881828308e-01 -2.1386991441249847e-01</leafValues></_>
        <_>
          <internalNodes>
            0 -1 373 4.8693348071537912e-04</internalNodes>
          <leafValues>
            -1.9586288928985596e-01 2.3096379637718201e-01</leafValues></_>
        <_>
          <internalNodes>
            0 -1 318 3.9020832628011703e-03</internalNodes>
          <leafValues>
            -1.1824554204940796e-01 4.0627145767211914e-01</leafValues></_></weakClassifiers></_>
    <!-- stage 2 -->
    <_>
      <maxWeakCount>30</maxWeakCount>
      <stageThreshold>-8.7658339738845825e-01</stageThreshold>
      <weakClassifiers>
        <_>
          <internalNodes>
            0 -1 239 -1.9136110786348581e-03</internalNodes>
          <leafValues>
            5.4169094562530518e-01 -1.8832117319107056e-01</leafValues></_>
        <_>
          <internalNodes>
            0 -1 204 -5.6422002613544464e-02</internalNodes>
          <leafValues>
            6.2273174524307251e-01 -1.0464030504226685e-01</leafValues></_>
        <_>
          <internalNodes>
            0 -1 7 -3.7334885448217392e-02</internalNodes>
          <leafValues>
            4.0737655758857727e-01 -1.8392549455165863e-01</leafValues></_>
        <_>
          <internalNodes>
            0 -1 229 -4.9615325406193733e-03</internalNodes>
          <leafValues>
            3.0975103378295898e-01 -2.0726485550403595e-01</leafValues></_>
        <_>
          <internalNodes>
            0 -1 88 6.6679413430392742e-03</internalNodes>
          <leafValues>
            -3.3519545197486877e-01 1.7331585288047791e-01</leafValues></_>
        <_>
          <internalNodes>
            0 -1 559 2.6133477222174406e-03</internalNodes>
          <leafValues>
            1.0079547017812729e-01 -5.9731054306030273e-01</leafValues></_>
        <_>
          <internalNodes>
            0 -1 569 1.3910993002355099e-02</internalNodes>
          <leafValues>
            -1.6901077330112457e-01 3.4985345602035522e-01</leafValues></_>
        <_>
          <internalNodes>
            0 -1 549 5.9570890152826905e-04</internalNodes>
          <leafValues>
            -2.7579408884048462e-01 2.1935172379016876e-01</leafValues></_>
        <_>
          <internalNodes>
            0 -1 319 3.2879891805350780e-03</internalNodes>
          <leafValues>
            -1.7308405041694641e-01 3.2109338045120239e-01</leafValues></_>
        <_>
          <internalNodes>
            0 -1 257 -1.5283497981727123e-02</internalNodes>
          <leafValues>
            -5.4578232765197754e-01 9.7120039165019989e-02</leafValues></_>
        <_>
          <internalNodes>
            0 -1 314 -1.2543118791654706e-03</internalNodes>
          <leafValues>
            3.8002267479896545e-01 -1.4501589536666870e-01</leafValues></_>
        <_>
          <internalNodes>
            0 -1 242 -1.5285339206457138e-02</internalNodes>
          <leafValues>
            -4.7459921240806580e-01 1.1899957060813904e-01</leafValues></_>
        <_>
          <internalNodes>
            0 -1 259 -3.6277067847549915e-03</internalNodes>
          <leafValues>
            4.2036330699920654e-01 -1.1015100032091141e-01</leafValues></_>
        <_>
          <internalNodes>
            0 -1 254 2.6541252154856920e-03</internalNodes>
          <leafValues>
            -1.8622614443302155e-01 2.9872226715087891e-01</leafValues></_>
        <_>
          <internalNodes>
            0 -1 40 -2.2517774254083633e-02</internalNodes>
          <leafValues>
            3.6387044191360474e-01 -1.2373799085617065e-01</leafValues></_>
        <_>
          <internalNodes>
            0 -1 560 -1.9516553729772568e-03</internalNodes>
          <leafValues>
            -6.0894435644149780e-01 8.0833852291107178e-02</leafValues></_>
        <_>
          <internalNodes>
            0 -1 152 4.2742519872263074e-04</internalNodes>
          <leafValues>
            -2.1682983636856079e-01 2.1869832277297974e-01</leafValues></_>
        <_>
          <internalNodes>
            0 -1 470 -1.2272244784981012e-03</internalNodes>
          <leafValues>
            1.7783579230308533e-01 -2.3392903804779053e-01</leafValues></_>
        <_>
          <internalNodes>
            0 -1 471 -2.0324527285993099e-03</internalNodes>
          <leafValues>
            2.9428949952125549e-01 -1.5541481971740723e-01</leafValues></_>
        <_>
          <internalNodes>
            0 -1 498 -3.7421146407723427e-03</internalNodes>
          <leafValues>
            -5.4696017503738403e-01 7.9170219600200653e-02</leafValues></_>
        <_>
          <internalNodes>
            0 -1 59 -1.5667598694562912e-02</internalNodes>
          <leafValues>
            3.5208445787429810e-01 -1.2265113741159439e-01</leafValues></_>
        <_>
          <internalNodes>
            0 -1 519 3.1430050730705261e-03</internalNodes>
          <leafValues>
            1.2890766561031342e-01 -3.5629278421401978e-01</leafValues></_>
        <_>
          <internalNodes>
            0 -1 72 -5.6333276443183422e-03</internalNodes>
          <leafValues>
            4.4622626900672913e-01 -1.0075446218252182e-01</leafValues></_>
        <_>
          <internalNodes>
            0 -1 316 -1.2987371534109116e-02</internalNodes>
          <leafValues>
            -7.8180539608001709e-01 6.2633894383907318e-02</leafValues></_>
        <_>
          <internalNodes>
            0 -1 367 -2.4860880803316832e-03</internalNodes>
          <leafValues>
            3.1045344471931458e-01 -1.4995718002319336e-01</leafValues></_>
        <_>
          <internalNodes>
            0 -1 294 6.1586564406752586e-03</internalNodes>
          <leafValues>
            -1.3508997857570648e-01 3.6769756674766541e-01</leafValues></_>
        <_>
          <internalNodes>
            0 -1 25 -1.0099912993609905e-02</internalNodes>
          <leafValues>
            3.5392990708351135e-01 -1.2689411640167236e-01</leafValues></_>
        <_>
          <internalNodes>
            0 -1 516 3.3572733402252197e-02</internalNodes>
          <leafValues>
            -1.1126857250928879e-01 4.0240278840065002e-01</leafValues></_>
        <_>
          <internalNodes>
            0 -1 499 -2.6437371969223022e-02</internalNodes>
          <leafValues>
            4.3607363104820251e-01 -1.1813707649707794e-01</leafValues></_>
        <_>
          <internalNodes>
            0 -1 165 1.9513124600052834e-02</internalNodes>
          <leafValues>
            5.7018753141164780e-02 -7.6498454809188843e-01</leafValues></_></weakClassifiers></_>
    <!-- stage 3 -->
    <_>
      <maxWeakCount>33</maxWeakCount>
      <stageThreshold>-7.9977154731750488e-01</stageThreshold>
      <weakClassifiers>
        <_>
          <internalNodes>
            0 -1 182 -1.3778527267277241e-02</internalNodes>
          <leafValues>
            5.9330546855926514e-01 7.5518675148487091e-02</leafValues></_>
        <_>
          <internalNodes>
            0 -1 365 2.8003204613924026e-02</internalNodes>
          <leafValues>
            -1.2482698261737823e-01 5.2798175811767578e-01</leafValues></_>
        <_>
          <internalNodes>
            0 -1 455 8.9334574295207858e-04</internalNodes>
          <leafValues>
            -1.7703375220298767e-01 3.1846570968627930e-01</leafValues></_>
        <_>
          <internalNodes>
            0 -1 33 -6.4936401322484016e-03</internalNodes>
          <leafValues>
            2.0371563732624054e-01 -2.6713487505912781e-01</leafValues></_>
        <_>
          <internalNodes>
            0 -1 118 -3.8040741346776485e-03</internalNodes>
          <leafValues>
            3.5352757573127747e-01 -1.6343995928764343e-01</leafValues></_>
        <_>
          <internalNodes>
            0 -1 171 -3.1907530501484871e-03</internalNodes>
          <leafValues>
            4.0690988302230835e-01 -1.4679582417011261e-01</leafValues></_>
        <_>
          <internalNodes>
            0 -1 440 -7.0397392846643925e-04</internalNodes>
          <leafValues>
            3.0256238579750061e-01 -1.6199512779712677e-01</leafValues></_>
        <_>
          <internalNodes>
            0 -1 458 -8.0240862444043159e-03</internalNodes>
          <leafValues>
            -6.9157701730728149e-01 7.3651701211929321e-02</leafValues></_>
        <_>
          <internalNodes>
            0 -1 96 6.2605142593383789e-03</internalNodes>
          <leafValues>
            -1.1185373365879059e-01 4.4675108790397644e-01</leafValues></_>
        <_>
          <internalNodes>
            0 -1 74 5.0426791422069073e-03</internalNodes>
          <leafValues>
            -9.9110014736652374e-02 4.2777389287948608e-01</leafValues></_>
        <_>
          <internalNodes>
            0 -1 339 3.0368736479431391e-03</internalNodes>
          <leafValues>
            -1.2750330567359924e-01 3.8983589410781860e-01</leafValues></_>
        <_>
          <internalNodes>
            0 -1 199 1.3452112674713135e-02</internalNodes>
          <leafValues>
            1.0092772543430328e-01 -4.8772126436233521e-01</leafValues></_>
        <_>
          <internalNodes>
            0 -1 74 -3.0607641674578190e-03</internalNodes>
          <leafValues>
            3.1645667552947998e-01 -1.3627989590167999e-01</leafValues></_>
        <_>
          <internalNodes>
            0 -1 369 -9.4437034567818046e-04</internalNodes>
          <leafValues>
            2.8492343425750732e-01 -1.4850629866123199e-01</leafValues></_>
        <_>
          <internalNodes>
            0 -1 554 4.3571311980485916e-03</internalNodes>
          <leafValues>
            8.5414379835128784e-02 -5.3074079751968384e-01</leafValues></_>
        <_>
          <internalNodes>
            0 -1 140 -1.9497428089380264e-02</internalNodes>
          <leafValues>
            -6.1695075035095215e-01 6.7720808088779449e-02</leafValues></_>
        <_>
          <internalNodes>
            0 -1 270 -3.5183751024305820e-03</internalNodes>
          <leafValues>
            2.1612495183944702e-01 -2.0725555717945099e-01</leafValues></_>
        <_>
          <internalNodes>
            0 -1 355 4.8598404973745346e-03</internalNodes>
          <leafValues>
            -1.2825018167495728e-01 3.6840212345123291e-01</leafValues></_>
        <_>
          <internalNodes>
            0 -1 472 -3.5575311630964279e-03</internalNodes>
          <leafValues>
            2.2416667640209198e-01 -2.1396942436695099e-01</leafValues></_>
        <_>
          <internalNodes>
            0 -1 330 -1.3131706509739161e-03</internalNodes>
          <leafValues>
            1.6614715754985809e-01 -2.7920618653297424e-01</leafValues></_>
        <_>
          <internalNodes>
            0 -1 466 3.1551527790725231e-03</internalNodes>
          <leafValues>
            7.0958733558654785e-02 -5.5077165365219116e-01</leafValues></_>
        <_>
          <internalNodes>
            0 -1 425 1.1466829106211662e-02</internalNodes>
          <leafValues>
            -1.4713968336582184e-01 3.3504486083984375e-01</leafValues></_>
        <_>
          <internalNodes>
            0 -1 481 -1.4269650913774967e-02</internalNodes>
          <leafValues>
            -5.7229572534561157e-01 7.5371012091636658e-02</leafValues></_>
        <_>
          <internalNodes>
            0 -1 138 2.5936383754014969e-03</internalNodes>
          <leafValues>
            -1.2318011373281479e-01 3.6859703063964844e-01</leafValues></_>
        <_>
          <internalNodes>
            0 -1 323 -6.4800847321748734e-03</internalNodes>
          <leafValues>
            5.4530739784240723e-01 -7.1442887187004089e-02</leafValues></_>
        <_>
          <internalNodes>
            0 -1 274 1.4568423852324486e-02</internalNodes>
          <leafValues>
            8.8477149605751038e-02 -5.4438358545303345e-01</leafValues></_>
        <_>
          <internalNodes>
            0 -1 66 5.2802497521042824e-03</internalNodes>
          <leafValues>
            -2.2659111022949219e-01 1.9383081793785095e-01</leafValues></_>
        <_>
          <internalNodes>
            0 -1 571 2.7268489357084036e-03</internalNodes>
          <leafValues>
            -1.7849275469779968e-01 2.3720844089984894e-01</leafValues></_>
        <_>
          <internalNodes>
            0 -1 279 7.3632993735373020e-03</internalNodes>
          <leafValues>
            -1.1461368948221207e-01 3.6890345811843872e-01</leafValues></_>
        <_>
          <internalNodes>
            0 -1 277 -3.5987733863294125e-03</internalNodes>
          <leafValues>
            3.9518117904663086e-01 -1.3769465684890747e-01</leafValues></_>
        <_>
          <internalNodes>
            0 -1 562 -2.3064939305186272e-03</internalNodes>
          <leafValues>
            -6.6498470306396484e-01 7.5386360287666321e-02</leafValues></_>
        <_>
          <internalNodes>
            0 -1 558 3.4762483555823565e-03</internalNodes>
          <leafValues>
            4.0505226701498032e-02 -8.2863348722457886e-01</leafValues></_>
        <_>
          <internalNodes>
            0 -1 563 -2.6330687105655670e-03</internalNodes>
          <leafValues>
            2.3797608911991119e-01 -1.8837814033031464e-01</leafValues></_></weakClassifiers></_>
    <!-- stage 4 -->
    <_>
      <maxWeakCount>38</maxWeakCount>
      <stageThreshold>-7.4535655975341797e-01</stageThreshold>
      <weakClassifiers>
        <_>
          <internalNodes>
            0 -1 434 -2.0534878131002188e-03</internalNodes>
          <leafValues>
            4.9967846274375916e-01 2.7218934148550034e-02</leafValues></_>
        <_>
          <internalNodes>
            0 -1 204 -4.0937934070825577e-02</internalNodes>
          <leafValues>
            4.3482667207717896e-01 -1.3437908887863159e-01</leafValues></_>
        <_>
          <internalNodes>
            0 -1 85 4.4059320352971554e-03</internalNodes>
          <leafValues>
            -2.6608076691627502e-01 2.2217145562171936e-01</leafValues></_>
        <_>
          <internalNodes>
            0 -1 268 -2.4683088064193726e-02</internalNodes>
          <leafValues>
            3.1451278924942017e-01 -1.5190602838993073e-01</leafValues></_>
        <_>
          <internalNodes>
            0 -1 34 -4.1490353643894196e-02</internalNodes>
          <leafValues>
            4.5964717864990234e-01 -1.4537777006626129e-01</leafValues></_>
        <_>
          <internalNodes>
            0 -1 566 1.9825620576739311e-02</internalNodes>
          <leafValues>
            -1.7274630069732666e-01 2.8359293937683105e-01</leafValues></_>
        <_>
          <internalNodes>
            0 -1 89 -3.5839598625898361e-02</internalNodes>
          <leafValues>
            -5.6571549177169800e-01 1.0056985914707184e-01</leafValues></_>
        <_>
          <internalNodes>
            0 -1 119 -8.0457031726837158e-03</internalNodes>
          <leafValues>
            1.6412094235420227e-01 -2.4871748685836792e-01</leafValues></_>
        <_>
          <internalNodes>
            0 -1 223 -2.1001912653446198e-02</internalNodes>
          <leafValues>
            -6.2997674942016602e-01 4.1505776345729828e-02</leafValues></_>
        <_>
          <internalNodes>
            0 -1 477 3.2310299575328827e-03</internalNodes>
          <leafValues>
            -1.4210577309131622e-01 3.3742049336433411e-01</leafValues></_>
        <_>
          <internalNodes>
            0 -1 300 3.2283127307891846e-02</internalNodes>
          <leafValues>
            -1.0071110725402832e-01 3.9459270238876343e-01</leafValues></_>
        <_>
          <internalNodes>
            0 -1 537 -5.9580765664577484e-03</internalNodes>
          <leafValues>
            -6.3942998647689819e-01 7.2025328874588013e-02</leafValues></_>
        <_>
          <internalNodes>
            0 -1 232 6.9115036167204380e-03</internalNodes>
          <leafValues>
            -1.0494525730609894e-01 4.1286820173263550e-01</leafValues></_>
        <_>
          <internalNodes>
            0 -1 536 3.0795638449490070e-03</internalNodes>
          <leafValues>
            8.1768430769443512e-02 -4.7228452563285828e-01</leafValues></_>
        <_>
          <internalNodes>
            0 -1 340 -6.0302144847810268e-03</internalNodes>
          <leafValues>
            3.8539123535156250e-01 -1.1580245196819305e-01</leafValues></_>
        <_>
          <internalNodes>
            0 -1 408 -1.1913578957319260e-02</internalNodes>
          <leafValues>
            3.5704046487808228e-01 -1.0098589211702347e-01</leafValues></_>
        <_>
          <internalNodes>
            0 -1 387 -2.9460559599101543e-03</internalNodes>
          <leafValues>
            3.3248677849769592e-01 -1.0778773576021194e-01</leafValues></_>
        <_>
          <internalNodes>
            0 -1 39 -6.2618320807814598e-03</internalNodes>
          <leafValues>
            2.0501333475112915e-01 -1.7257802188396454e-01</leafValues></_>
        <_>
          <internalNodes>
            0 -1 461 8.9015401899814606e-03</internalNodes>
          <leafValues>
            3.8293950259685516e-02 -8.2475095987319946e-01</leafValues></_>
        <_>
          <internalNodes>
            0 -1 505 -5.4669515520799905e-05</internalNodes>
          <leafValues>
            1.7072199285030365e-01 -2.6785761117935181e-01</leafValues></_>
        <_>
          <internalNodes>
            0 -1 501 2.0860616117715836e-02</internalNodes>
          <leafValues>
            -9.0760730206966400e-02 3.6977806687355042e-01</leafValues></_>
        <_>
          <internalNodes>
            0 -1 230 -3.6858073435723782e-03</internalNodes>
          <leafValues>
            3.3033001422882080e-01 -9.9107205867767334e-02</leafValues></_>
        <_>
          <internalNodes>
            0 -1 360 -6.0714955907315016e-04</internalNodes>
          <leafValues>
            1.3970662653446198e-01 -2.4050492048263550e-01</leafValues></_>
        <_>
          <internalNodes>
            0 -1 147 7.8071560710668564e-04</internalNodes>
          <leafValues>
            -1.9592998921871185e-01 1.6193403303623199e-01</leafValues></_>
        <_>
          <internalNodes>
            0 -1 165 1.3570355251431465e-02</internalNodes>
          <leafValues>
            7.7134892344474792e-02 -5.0985234975814819e-01</leafValues></_>
        <_>
          <internalNodes>
            0 -1 187 3.7278492003679276e-02</internalNodes>
          <leafValues>
            6.0382299125194550e-02 -5.4047220945358276e-01</leafValues></_>
        <_>
          <internalNodes>
            0 -1 250 -3.5063058603554964e-03</internalNodes>
          <leafValues>
            3.5943689942359924e-01 -1.0647360235452652e-01</leafValues></_>
        <_>
          <internalNodes>
            0 -1 209 6.1761038377881050e-03</internalNodes>
          <leafValues>
            -1.2383837252855301e-01 3.0195319652557373e-01</leafValues></_>
        <_>
          <internalNodes>
            0 -1 64 2.0956089720129967e-02</internalNodes>
          <leafValues>
            1.0006280243396759e-01 -3.5466909408569336e-01</leafValues></_>
        <_>
          <internalNodes>
            0 -1 10 -1.2470117211341858e-01</internalNodes>
          <leafValues>
            6.7343997955322266e-01 -5.5422496050596237e-02</leafValues></_>
        <_>
          <internalNodes>
            0 -1 514 -1.2015107087790966e-02</internalNodes>
          <leafValues>
            -5.5859500169754028e-01 7.3431827127933502e-02</leafValues></_>
        <_>
          <internalNodes>
            0 -1 523 1.7122796270996332e-04</internalNodes>
          <leafValues>
            1.4482355117797852e-01 -2.4168172478675842e-01</leafValues></_>
        <_>
          <internalNodes>
            0 -1 224 -1.5371477231383324e-02</internalNodes>
          <leafValues>
            -7.0189571380615234e-01 4.9682594835758209e-02</leafValues></_>
        <_>
          <internalNodes>
            0 -1 108 -3.9251158013939857e-03</internalNodes>
          <leafValues>
            2.7807149291038513e-01 -1.2638451159000397e-01</leafValues></_>
        <_>
          <internalNodes>
            0 -1 60 7.0756943896412849e-03</internalNodes>
          <leafValues>
            -9.4394803047180176e-02 3.9222061634063721e-01</leafValues></_>
        <_>
          <internalNodes>
            0 -1 530 2.8635181486606598e-02</internalNodes>
          <leafValues>
            -9.8600022494792938e-02 3.3710560202598572e-01</leafValues></_>
        <_>
          <internalNodes>
            0 -1 475 1.1978547088801861e-02</internalNodes>
          <leafValues>
            1.0913696885108948e-01 -3.2372191548347473e-01</leafValues></_>
        <_>
          <internalNodes>
            0 -1 132 -9.9468464031815529e-04</internalNodes>
          <leafValues>
            2.6137346029281616e-01 -1.4100465178489685e-01</leafValues></_></weakClassifiers></_>
    <!-- stage 5 -->
    <_>
      <maxWeakCount>38</maxWeakCount>
      <stageThreshold>-6.9105678796768188e-01</stageThreshold>
      <weakClassifiers>
        <_>
          <internalNodes>
            0 -1 424 -1.8358813831582665e-03</internalNodes>
          <leafValues>
            5.3762608766555786e-01 9.6309632062911987e-02</leafValues></_>
        <_>
          <internalNodes>
            0 -1 452 2.6611566543579102e-02</internalNodes>
          <leafValues>
            -9.9586941301822662e-02 4.7406765818595886e-01</leafValues></_>
        <_>
          <internalNodes>
            0 -1 329 -1.7788056284189224e-03</internalNodes>
          <leafValues>
            1.5360365808010101e-01 -2.9785344004631042e-01</leafValues></_>
        <_>
          <internalNodes>
            0 -1 490 -8.8994447141885757e-03</internalNodes>
          <leafValues>
            1.7927190661430359e-01 -2.8921589255332947e-01</leafValues></_>
        <_>
          <internalNodes>
            0 -1 532 2.4616045411676168e-03</internalNodes>
          <leafValues>
            1.0371407121419907e-01 -6.8208652734756470e-01</leafValues></_>
        <_>
          <internalNodes>
            0 -1 532 -2.5390251539647579e-03</internalNodes>
          <leafValues>
            -6.2593704462051392e-01 5.9664443135261536e-02</leafValues></_>
        <_>
          <internalNodes>
            0 -1 43 8.1276949495077133e-03</internalNodes>
          <leafValues>
            -1.3377824425697327e-01 3.1179505586624146e-01</leafValues></_>
        <_>
          <internalNodes>
            0 -1 56 -4.1053248569369316e-03</internalNodes>
          <leafValues>
            3.0311954021453857e-01 -1.5011216700077057e-01</leafValues></_>
        <_>
          <internalNodes>
            0 -1 190 -6.8255020305514336e-03</internalNodes>
          <leafValues>
            -3.6937180161476135e-01 1.1229573190212250e-01</leafValues></_>
        <_>
          <internalNodes>
            0 -1 141 -4.3234933167695999e-02</internalNodes>
          <leafValues>
            4.0716579556465149e-01 -1.0219498723745346e-01</leafValues></_>
        <_>
          <internalNodes>
            0 -1 300 5.8289863169193268e-02</internalNodes>
          <leafValues>
            -6.6632367670536041e-02 5.9116554260253906e-01</leafValues></_>
        <_>
          <internalNodes>
            0 -1 186 3.4085512161254883e-03</internalNodes>
          <leafValues>
            7.1769550442695618e-02 -6.5300816297531128e-01</leafValues></_>
        <_>
          <internalNodes>
            0 -1 155 -5.2033304236829281e-03</internalNodes>
          <leafValues>
            -7.9349851608276367e-01 4.0460821241140366e-02</leafValues></_>
        <_>
          <internalNodes>
            0 -1 264 -1.4382641762495041e-02</internalNodes>
          <leafValues>
            2.6170456409454346e-01 -1.3343891501426697e-01</leafValues></_>
        <_>
          <internalNodes>
            0 -1 454 1.1253489181399345e-02</internalNodes>
          <leafValues>
            5.6363735347986221e-02 -7.3621088266372681e-01</leafValues></_>
        <_>
          <internalNodes>
            0 -1 142 -8.8083773851394653e-02</internalNodes>
          <leafValues>
            -7.4647414684295654e-01 4.7446396201848984e-02</leafValues></_>
        <_>
          <internalNodes>
            0 -1 35 -1.6369309276342392e-02</internalNodes>
          <leafValues>
            -4.1499063372612000e-01 7.9311609268188477e-02</leafValues></_>
        <_>
          <internalNodes>
            0 -1 568 -3.2487609423696995e-03</internalNodes>
          <leafValues>
            -6.4693868160247803e-01 4.6090893447399139e-02</leafValues></_>
        <_>
          <internalNodes>
            0 -1 502 5.3322035819292068e-03</internalNodes>
          <leafValues>
            4.1416678577661514e-02 -7.5003504753112793e-01</leafValues></_>
        <_>
          <internalNodes>
            0 -1 448 -3.8573669735342264e-03</internalNodes>
          <leafValues>
            2.7788248658180237e-01 -1.2342199683189392e-01</leafValues></_>
        <_>
          <internalNodes>
            0 -1 521 -4.7954861074686050e-03</internalNodes>
          <leafValues>
            2.6124057173728943e-01 -1.4017820358276367e-01</leafValues></_>
        <_>
          <internalNodes>
            0 -1 543 -3.0243443325161934e-03</internalNodes>
          <leafValues>
            2.6188099384307861e-01 -1.3069747388362885e-01</leafValues></_>
        <_>
          <internalNodes>
            0 -1 49 -7.6840266585350037e-02</internalNodes>
          <leafValues>
            4.4606593251228333e-01 -7.9874984920024872e-02</leafValues></_>
        <_>
          <internalNodes>
            0 -1 45 2.8582090139389038e-01</internalNodes>
          <leafValues>
            -1.0272154211997986e-01 3.6645871400833130e-01</leafValues></_>
        <_>
          <internalNodes>
            0 -1 159 1.8381584435701370e-02</internalNodes>
          <leafValues>
            1.0527439415454865e-01 -3.6570927500724792e-01</leafValues></_>
        <_>
          <internalNodes>
            0 -1 192 -3.2471694052219391e-02</internalNodes>
          <leafValues>
            -7.6543724536895752e-01 3.5601820796728134e-02</leafValues></_>
        <_>
          <internalNodes>
            0 -1 256 -5.7191617786884308e-02</internalNodes>
          <leafValues>
            4.6676388382911682e-01 -7.5583860278129578e-02</leafValues></_>
        <_>
          <internalNodes>
            0 -1 493 -2.8921396005898714e-03</internalNodes>
          <leafValues>
            3.3381000161170959e-01 -1.0741854459047318e-01</leafValues></_>
        <_>
          <internalNodes>
            0 -1 299 -1.0516151785850525e-02</internalNodes>
          <leafValues>
            -3.7716960906982422e-01 1.0211105644702911e-01</leafValues></_>
        <_>
          <internalNodes>
            0 -1 327 1.5988716855645180e-02</internalNodes>
          <leafValues>
            7.2462469339370728e-02 -4.3673634529113770e-01</leafValues></_>
        <_>
          <internalNodes>
            0 -1 383 -5.4212771356105804e-03</internalNodes>
          <leafValues>
            -7.8734660148620605e-01 3.7720393389463425e-02</leafValues></_>
        <_>
          <internalNodes>
            0 -1 205 4.2631793767213821e-03</internalNodes>
          <leafValues>
            6.2973976135253906e-02 -4.8142614960670471e-01</leafValues></_>
        <_>
          <internalNodes>
            0 -1 511 -7.6156938448548317e-03</internalNodes>
          <leafValues>
            1.9732120633125305e-01 -1.7939181625843048e-01</leafValues></_>
        <_>
          <internalNodes>
            0 -1 236 -2.2544222883880138e-03</internalNodes>
          <leafValues>
            -3.9565518498420715e-01 8.3744853734970093e-02</leafValues></_>
        <_>
          <internalNodes>
            0 -1 323 -5.0460081547498703e-03</internalNodes>
          <leafValues>
            3.8231262564659119e-01 -8.9221790432929993e-02</leafValues></_>
        <_>
          <internalNodes>
            0 -1 325 8.8554695248603821e-03</internalNodes>
          <leafValues>
            5.2380278706550598e-02 -6.8080389499664307e-01</leafValues></_>
        <_>
          <internalNodes>
            0 -1 90 4.7279745340347290e-02</internalNodes>
          <leafValues>
            4.3604478240013123e-02 -6.2318146228790283e-01</leafValues></_>
        <_>
          <internalNodes>
            0 -1 309 -8.9514935389161110e-03</internalNodes>
          <leafValues>
            2.8206011652946472e-01 -1.2191241979598999e-01</leafValues></_></weakClassifiers></_>
    <!-- stage 6 -->
    <_>
      <maxWeakCount>39</maxWeakCount>
      <stageThreshold>-6.7599421739578247e-01</stageThreshold>
      <weakClassifiers>
        <_>
          <internalNodes>
            0 -1 416 1.0427439585328102e-02</internalNodes>
          <leafValues>
            1.5339805185794830e-01 6.5847951173782349e-01</leafValues></_>
        <_>
          <internalNodes>
            0 -1 446 -1.0759669821709394e-03</internalNodes>
          <leafValues>
            3.1603726744651794e-01 -1.6423106193542480e-01</leafValues></_>
        <_>
          <internalNodes>
            0 -1 297 -1.9064246444031596e-03</internalNodes>
          <leafValues>
            4.0718719363212585e-01 -1.1106851696968079e-01</leafValues></_>
        <_>
          <internalNodes>
            0 -1 183 -4.4755553826689720e-03</internalNodes>
          <leafValues>
            1.1605039238929749e-01 -3.0204752087593079e-01</leafValues></_>
        <_>
          <internalNodes>
            0 -1 336 -9.2933163978159428e-04</internalNodes>
          <leafValues>
            2.0565707981586456e-01 -1.8165358901023865e-01</leafValues></_>
        <_>
          <internalNodes>
            0 -1 358 4.2974501848220825e-03</internalNodes>
          <leafValues>
            7.0575080811977386e-02 -6.8645751476287842e-01</leafValues></_>
        <_>
          <internalNodes>
            0 -1 462 -9.3230082711670548e-05</internalNodes>
          <leafValues>
            1.5512429177761078e-01 -2.2717589139938354e-01</leafValues></_>
        <_>
          <internalNodes>
            0 -1 467 -4.8745642416179180e-03</internalNodes>
          <leafValues>
            3.3965232968330383e-01 -1.2938733398914337e-01</leafValues></_>
        <_>
          <internalNodes>
            0 -1 149 2.9136801138520241e-02</internalNodes>
          <leafValues>
            -8.0937400460243225e-02 4.1927167773246765e-01</leafValues></_>
        <_>
          <internalNodes>
            0 -1 129 -1.0021755471825600e-02</internalNodes>
          <leafValues>
            3.1159237027168274e-01 -1.1667305231094360e-01</leafValues></_>
        <_>
          <internalNodes>
            0 -1 321 4.7482452355325222e-03</internalNodes>
          <leafValues>
            4.6980053186416626e-02 -7.1954065561294556e-01</leafValues></_>
        <_>
          <internalNodes>
            0 -1 393 4.7941617667675018e-03</internalNodes>
          <leafValues>
            1.0146618634462357e-01 -3.0767667293548584e-01</leafValues></_>
        <_>
          <internalNodes>
            0 -1 555 -8.0027114599943161e-03</internalNodes>
          <leafValues>
            2.9396259784698486e-01 -1.1427737027406693e-01</leafValues></_>
        <_>
          <internalNodes>
            0 -1 5 -1.1585123836994171e-01</internalNodes>
          <leafValues>
            3.8284510374069214e-01 -9.1006420552730560e-02</leafValues></_>
        <_>
          <internalNodes>
            0 -1 381 -9.5907424110919237e-04</internalNodes>
          <leafValues>
            1.9138818979263306e-01 -1.8434064090251923e-01</leafValues></_>
        <_>
          <internalNodes>
            0 -1 379 -4.0976852178573608e-03</internalNodes>
          <leafValues>
            -7.0045399665832520e-01 5.1136776804924011e-02</leafValues></_>
        <_>
          <internalNodes>
            0 -1 385 3.9266962558031082e-03</internalNodes>
          <leafValues>
            -1.2069401890039444e-01 2.9169487953186035e-01</leafValues></_>
        <_>
          <internalNodes>
            0 -1 384 -4.2468756437301636e-03</internalNodes>
          <leafValues>
            3.7870454788208008e-01 -8.7360300123691559e-02</leafValues></_>
        <_>
          <internalNodes>
            0 -1 135 -2.8068047016859055e-02</internalNodes>
          <leafValues>
            -4.8636478185653687e-01 6.5947882831096649e-02</leafValues></_>
        <_>
          <internalNodes>
            0 -1 579 1.1887550354003906e-03</internalNodes>
          <leafValues>
            -1.3954046368598938e-01 2.4483487010002136e-01</leafValues></_>
        <_>
          <internalNodes>
            0 -1 123 7.3528527282178402e-03</internalNodes>
          <leafValues>
            5.0718799233436584e-02 -6.8385499715805054e-01</leafValues></_>
        <_>
          <internalNodes>
            0 -1 361 -3.0973213724792004e-03</internalNodes>
          <leafValues>
            2.8381058573722839e-01 -1.1726971715688705e-01</leafValues></_>
        <_>
          <internalNodes>
            0 -1 356 -9.2793244402855635e-04</internalNodes>
          <leafValues>
            2.8923016786575317e-01 -1.2771306931972504e-01</leafValues></_>
        <_>
          <internalNodes>
            0 -1 357 3.2760167960077524e-03</internalNodes>
          <leafValues>
            -1.2781953811645508e-01 3.6356037855148315e-01</leafValues></_>
        <_>
          <internalNodes>
            0 -1 573 -3.3932658843696117e-03</internalNodes>
          <leafValues>
            -6.3424611091613770e-01 5.3688533604145050e-02</leafValues></_>
        <_>
          <internalNodes>
            0 -1 337 -2.0902291871607304e-03</internalNodes>
          <leafValues>
            3.5875073075294495e-01 -1.0088487714529037e-01</leafValues></_>
        <_>
          <internalNodes>
            0 -1 573 3.5392134450376034e-03</internalNodes>
          <leafValues>
            5.4615233093500137e-02 -6.5378987789154053e-01</leafValues></_>
        <_>
          <internalNodes>
            0 -1 281 -2.5186501443386078e-03</internalNodes>
          <leafValues>
            -4.1566306352615356e-01 7.6848141849040985e-02</leafValues></_>
        <_>
          <internalNodes>
            0 -1 428 -1.9728466868400574e-03</internalNodes>
          <leafValues>
            2.5088846683502197e-01 -1.2768933176994324e-01</leafValues></_>
        <_>
          <internalNodes>
            0 -1 51 1.1015684576705098e-03</internalNodes>
          <leafValues>
            -9.1039285063743591e-02 3.4705102443695068e-01</leafValues></_>
        <_>
          <internalNodes>
            0 -1 420 -5.6447135284543037e-03</internalNodes>
          <leafValues>
            -5.5433624982833862e-01 6.0923304408788681e-02</leafValues></_>
        <_>
          <internalNodes>
            0 -1 345 -2.7108355425298214e-03</internalNodes>
          <leafValues>
            2.1267169713973999e-01 -1.5423010289669037e-01</leafValues></_>
        <_>
          <internalNodes>
            0 -1 421 1.0003076866269112e-02</internalNodes>
          <leafValues>
            4.6733032912015915e-02 -7.0545911788940430e-01</leafValues></_>
        <_>
          <internalNodes>
            0 -1 377 -3.5587295889854431e-02</internalNodes>
          <leafValues>
            5.2925693988800049e-01 -6.7553415894508362e-02</leafValues></_>
        <_>
          <internalNodes>
            0 -1 399 3.7906127981841564e-03</internalNodes>
          <leafValues>
            -2.1899709105491638e-01 1.5625722706317902e-01</leafValues></_>
        <_>
          <internalNodes>
            0 -1 131 3.7768237292766571e-02</internalNodes>
          <leafValues>
            7.2318591177463531e-02 -5.2300637960433960e-01</leafValues></_>
        <_>
          <internalNodes>
            0 -1 127 1.3653364963829517e-02</internalNodes>
          <leafValues>
            4.7416832298040390e-02 -6.0515254735946655e-01</leafValues></_>
        <_>
          <internalNodes>
            0 -1 506 4.2526954784989357e-03</internalNodes>
          <leafValues>
            5.1244717091321945e-02 -6.2540543079376221e-01</leafValues></_>
        <_>
          <internalNodes>
            0 -1 258 -1.0681934654712677e-03</internalNodes>
          <leafValues>
            2.8989645838737488e-01 -1.2582650780677795e-01</leafValues></_></weakClassifiers></_>
    <!-- stage 7 -->
    <_>
      <maxWeakCount>49</maxWeakCount>
      <stageThreshold>-7.0359086990356445e-01</stageThreshold>
      <weakClassifiers>
        <_>
          <internalNodes>
            0 -1 300 -3.8785517215728760e-02</internalNodes>
          <leafValues>
            7.0782607793807983e-01 2.1534246206283569e-01</leafValues></_>
        <_>
          <internalNodes>
            0 -1 251 -6.1282394453883171e-03</internalNodes>
          <leafValues>
            4.9748682975769043e-01 -4.4976491481065750e-02</leafValues></_>
        <_>
          <internalNodes>
            0 -1 447 -1.8798981327563524e-03</internalNodes>
          <leafValues>
            2.0337173342704773e-01 -1.9131693243980408e-01</leafValues></_>
        <_>
          <internalNodes>
            0 -1 414 -5.0073103047907352e-03</internalNodes>
          <leafValues>
            3.2588192820549011e-01 -1.2360424548387527e-01</leafValues></_>
        <_>
          <internalNodes>
            0 -1 557 5.3383287740871310e-04</internalNodes>
          <leafValues>
            1.1948557943105698e-01 -3.0184704065322876e-01</leafValues></_>
        <_>
          <internalNodes>
            0 -1 301 8.0295996740460396e-03</internalNodes>
          <leafValues>
            -9.6837617456912994e-02 3.7516134977340698e-01</leafValues></_>
        <_>
          <internalNodes>
            0 -1 491 -1.6977198421955109e-02</internalNodes>
          <leafValues>
            -5.1882147789001465e-01 7.4931621551513672e-02</leafValues></_>
        <_>
          <internalNodes>
            0 -1 125 3.2647869084030390e-03</internalNodes>
          <leafValues>
            5.4025650024414062e-02 -5.8296096324920654e-01</leafValues></_>
        <_>
          <internalNodes>
            0 -1 52 -3.3470541238784790e-03</internalNodes>
          <leafValues>
            1.4763969182968140e-01 -2.2122827172279358e-01</leafValues></_>
        <_>
          <internalNodes>
            0 -1 146 -5.6586369872093201e-02</internalNodes>
          <leafValues>
            2.1076922118663788e-01 -1.6191741824150085e-01</leafValues></_>
        <_>
          <internalNodes>
            0 -1 368 -1.7381208017468452e-02</internalNodes>
          <leafValues>
            -4.4804033637046814e-01 7.1720868349075317e-02</leafValues></_>
        <_>
          <internalNodes>
            0 -1 101 -6.9584175944328308e-03</internalNodes>
          <leafValues>
            4.0129590034484863e-01 -7.9533100128173828e-02</leafValues></_>
        <_>
          <internalNodes>
            0 -1 102 -1.9002321641892195e-03</internalNodes>
          <leafValues>
            4.2266976833343506e-01 -8.1779457628726959e-02</leafValues></_>
        <_>
          <internalNodes>
            0 -1 295 5.9770308434963226e-03</internalNodes>
          <leafValues>
            4.8443913459777832e-02 -7.4495685100555420e-01</leafValues></_>
        <_>
          <internalNodes>
            0 -1 512 4.8556100577116013e-02</internalNodes>
          <leafValues>
            -1.1755727231502533e-01 2.7959421277046204e-01</leafValues></_>
        <_>
          <internalNodes>
            0 -1 550 -6.5959924831986427e-03</internalNodes>
          <leafValues>
            3.4245648980140686e-01 -9.3876883387565613e-02</leafValues></_>
        <_>
          <internalNodes>
            0 -1 136 -9.5146475359797478e-04</internalNodes>
          <leafValues>
            2.4800898134708405e-01 -1.1518830806016922e-01</leafValues></_>
        <_>
          <internalNodes>
            0 -1 174 7.2618685662746429e-03</internalNodes>
          <leafValues>
            -1.0441440343856812e-01 2.8921508789062500e-01</leafValues></_>
        <_>
          <internalNodes>
            0 -1 234 -8.5875578224658966e-03</internalNodes>
          <leafValues>
            1.4233292639255524e-01 -2.3029986023902893e-01</leafValues></_>
        <_>
          <internalNodes>
            0 -1 553 -2.8918713796883821e-03</internalNodes>
          <leafValues>
            2.5164330005645752e-01 -1.2897709012031555e-01</leafValues></_>
        <_>
          <internalNodes>
            0 -1 551 -1.4054294442757964e-03</internalNodes>
          <leafValues>
            -4.7745028138160706e-01 6.7082613706588745e-02</leafValues></_>
        <_>
          <internalNodes>
            0 -1 552 2.9821575153619051e-03</internalNodes>
          <leafValues>
            5.9901017695665359e-02 -5.4224807024002075e-01</leafValues></_>
        <_>
          <internalNodes>
            0 -1 438 -1.2323658447712660e-03</internalNodes>
          <leafValues>
            2.9850801825523376e-01 -1.1075881868600845e-01</leafValues></_>
        <_>
          <internalNodes>
            0 -1 397 1.4589105267077684e-03</internalNodes>
          <leafValues>
            1.6187582910060883e-01 -2.1899129450321198e-01</leafValues></_>
        <_>
          <internalNodes>
            0 -1 169 -4.6136407181620598e-03</internalNodes>
          <leafValues>
            -4.3363088369369507e-01 6.8019293248653412e-02</leafValues></_>
        <_>
          <internalNodes>
            0 -1 520 -4.0328819304704666e-03</internalNodes>
          <leafValues>
            2.2008182108402252e-01 -1.4480619132518768e-01</leafValues></_>
        <_>
          <internalNodes>
            0 -1 564 -8.2205369835719466e-04</internalNodes>
          <leafValues>
            2.2882710397243500e-01 -1.4009957015514374e-01</leafValues></_>
        <_>
          <internalNodes>
            0 -1 517 -5.9825126081705093e-03</internalNodes>
          <leafValues>
            -7.4517780542373657e-01 4.2152576148509979e-02</leafValues></_>
        <_>
          <internalNodes>
            0 -1 128 -7.5932042673230171e-03</internalNodes>
          <leafValues>
            3.4047502279281616e-01 -9.6977837383747101e-02</leafValues></_>
        <_>
          <internalNodes>
            0 -1 200 -1.3945043087005615e-02</internalNodes>
          <leafValues>
            -7.0524495840072632e-01 4.7475371509790421e-02</leafValues></_>
        <_>
          <internalNodes>
            0 -1 210 1.6762100160121918e-02</internalNodes>
          <leafValues>
            -8.5181310772895813e-02 3.8157740235328674e-01</leafValues></_>
        <_>
          <internalNodes>
            0 -1 199 1.4271626248955727e-02</internalNodes>
          <leafValues>
            7.6280556619167328e-02 -4.1485950350761414e-01</leafValues></_>
        <_>
          <internalNodes>
            0 -1 204 -6.2485828995704651e-02</internalNodes>
          <leafValues>
            3.8694757223129272e-01 -8.3308562636375427e-02</leafValues></_>
        <_>
          <internalNodes>
            0 -1 227 2.5924794375896454e-02</internalNodes>
          <leafValues>
            6.8266130983829498e-02 -4.8844802379608154e-01</leafValues></_>
        <_>
          <internalNodes>
            0 -1 269 -1.3717194087803364e-04</internalNodes>
          <leafValues>
            1.8060252070426941e-01 -1.7914687097072601e-01</leafValues></_>
        <_>
          <internalNodes>
            0 -1 271 4.7577646910212934e-04</internalNodes>
          <leafValues>
            -1.6066017746925354e-01 1.9581419229507446e-01</leafValues></_>
        <_>
          <internalNodes>
            0 -1 290 -1.6930479323491454e-03</internalNodes>
          <leafValues>
            -3.2341077923774719e-01 9.8136283457279205e-02</leafValues></_>
        <_>
          <internalNodes>
            0 -1 537 5.5375387892127037e-03</internalNodes>
          <leafValues>
            6.0811221599578857e-02 -4.9174851179122925e-01</leafValues></_>
        <_>
          <internalNodes>
            0 -1 328 -3.7310756742954254e-03</internalNodes>
          <leafValues>
            3.3677792549133301e-01 -1.0240166634321213e-01</leafValues></_>
        <_>
          <internalNodes>
            0 -1 1 7.1441126056015491e-04</internalNodes>
          <leafValues>
            1.3106130063533783e-01 -2.2627501189708710e-01</leafValues></_>
        <_>
          <internalNodes>
            0 -1 305 1.3579773949459195e-03</internalNodes>
          <leafValues>
            -1.2343476712703705e-01 2.2597447037696838e-01</leafValues></_>
        <_>
          <internalNodes>
            0 -1 220 -1.3988513499498367e-02</internalNodes>
          <leafValues>
            -4.4262298941612244e-01 6.3475146889686584e-02</leafValues></_>
        <_>
          <internalNodes>
            0 -1 181 -3.2890282571315765e-02</internalNodes>
          <leafValues>
            -2.7105847001075745e-01 1.1266271770000458e-01</leafValues></_>
        <_>
          <internalNodes>
            0 -1 409 9.5801139250397682e-03</internalNodes>
          <leafValues>
            6.1002414673566818e-02 -4.8389682173728943e-01</leafValues></_>
        <_>
          <internalNodes>
            0 -1 9 -2.5001382455229759e-02</internalNodes>
          <leafValues>
            4.2530035972595215e-01 -6.7463964223861694e-02</leafValues></_>
        <_>
          <internalNodes>
            0 -1 298 2.1318944636732340e-03</internalNodes>
          <leafValues>
            -1.0307346284389496e-01 2.8273341059684753e-01</leafValues></_>
        <_>
          <internalNodes>
            0 -1 46 -2.6283424347639084e-02</internalNodes>
          <leafValues>
            4.5559465885162354e-01 -6.0873825103044510e-02</leafValues></_>
        <_>
          <internalNodes>
            0 -1 16 1.9265420734882355e-02</internalNodes>
          <leafValues>
            -8.6022347211837769e-02 3.5224243998527527e-01</leafValues></_>
        <_>
          <internalNodes>
            0 -1 63 -1.7911411821842194e-02</internalNodes>
          <leafValues>
            3.0540522933006287e-01 -1.0506252199411392e-01</leafValues></_></weakClassifiers></_>
    <!-- stage 8 -->
    <_>
      <maxWeakCount>49</maxWeakCount>
      <stageThreshold>-5.6406646966934204e-01</stageThreshold>
      <weakClassifiers>
        <_>
          <internalNodes>
            0 -1 203 -2.0468827337026596e-02</internalNodes>
          <leafValues>
            6.6381764411926270e-01 1.9670200347900391e-01</leafValues></_>
        <_>
          <internalNodes>
            0 -1 406 -8.4830727428197861e-04</internalNodes>
          <leafValues>
            3.0974611639976501e-01 -1.1126699298620224e-01</leafValues></_>
        <_>
          <internalNodes>
            0 -1 198 -5.3189028985798359e-03</internalNodes>
          <leafValues>
            3.7427979707717896e-01 -1.1977681517601013e-01</leafValues></_>
        <_>
          <internalNodes>
            0 -1 304 5.7351617142558098e-03</internalNodes>
          <leafValues>
            -9.4010539352893829e-02 3.1134936213493347e-01</leafValues></_>
        <_>
          <internalNodes>
            0 -1 291 -1.0126644745469093e-02</internalNodes>
          <leafValues>
            -4.2006894946098328e-01 7.3945030570030212e-02</leafValues></_>
        <_>
          <internalNodes>
            0 -1 561 5.0239730626344681e-03</internalNodes>
          <leafValues>
            4.3069768697023392e-02 -7.6436161994934082e-01</leafValues></_>
        <_>
          <internalNodes>
            0 -1 453 3.3650252968072891e-02</internalNodes>
          <leafValues>
            -9.5595806837081909e-02 3.2724481821060181e-01</leafValues></_>
        <_>
          <internalNodes>
            0 -1 402 -1.1395437177270651e-03</internalNodes>
          <leafValues>
            2.3435397446155548e-01 -1.4154259860515594e-01</leafValues></_>
        <_>
          <internalNodes>
            0 -1 487 3.0793994665145874e-03</internalNodes>
          <leafValues>
            1.0347594320774078e-01 -2.5381940603256226e-01</leafValues></_>
        <_>
          <internalNodes>
            0 -1 582 -3.5567469894886017e-03</internalNodes>
          <leafValues>
            3.1618618965148926e-01 -9.0221010148525238e-02</leafValues></_>
        <_>
          <internalNodes>
            0 -1 353 -7.1099968627095222e-03</internalNodes>
          <leafValues>
            -8.6216247081756592e-01 3.6508928984403610e-02</leafValues></_>
        <_>
          <internalNodes>
            0 -1 378 2.5859607849270105e-03</internalNodes>
          <leafValues>
            -1.4609138667583466e-01 1.8397381901741028e-01</leafValues></_>
        <_>
          <internalNodes>
            0 -1 465 -2.5376433040946722e-04</internalNodes>
          <leafValues>
            1.3696941733360291e-01 -2.1720764040946960e-01</leafValues></_>
        <_>
          <internalNodes>
            0 -1 79 2.4178628809750080e-03</internalNodes>
          <leafValues>
            -9.8136514425277710e-02 3.1468483805656433e-01</leafValues></_>
        <_>
          <internalNodes>
            0 -1 167 -2.0191012881696224e-03</internalNodes>
          <leafValues>
            2.6185026764869690e-01 -1.0751074552536011e-01</leafValues></_>
        <_>
          <internalNodes>
            0 -1 179 -1.4473393093794584e-03</internalNodes>
          <leafValues>
            1.1555898189544678e-01 -2.3932334780693054e-01</leafValues></_>
        <_>
          <internalNodes>
            0 -1 282 -8.2830283790826797e-03</internalNodes>
          <leafValues>
            -5.5059897899627686e-01 5.4075740277767181e-02</leafValues></_>
        <_>
          <internalNodes>
            0 -1 356 3.3823128324002028e-03</internalNodes>
          <leafValues>
            -9.1913402080535889e-02 3.3198857307434082e-01</leafValues></_>
        <_>
          <internalNodes>
            0 -1 233 -4.3874001130461693e-03</internalNodes>
          <leafValues>
            2.9989650845527649e-01 -1.1321017891168594e-01</leafValues></_>
        <_>
          <internalNodes>
            0 -1 577 -2.4852713104337454e-03</internalNodes>
          <leafValues>
            -4.2462739348411560e-01 8.5670016705989838e-02</leafValues></_>
        <_>
          <internalNodes>
            0 -1 362 -3.0591110698878765e-03</internalNodes>
          <leafValues>
            1.2644359469413757e-01 -2.3346979916095734e-01</leafValues></_>
        <_>
          <internalNodes>
            0 -1 289 2.7107340283691883e-03</internalNodes>
          <leafValues>
            6.8945646286010742e-02 -3.9395087957382202e-01</leafValues></_>
        <_>
          <internalNodes>
            0 -1 513 -1.0691902134567499e-03</internalNodes>
          <leafValues>
            1.7186930775642395e-01 -1.6904659569263458e-01</leafValues></_>
        <_>
          <internalNodes>
            0 -1 180 9.2171123251318932e-03</internalNodes>
          <leafValues>
            -8.2267567515373230e-02 3.3460855484008789e-01</leafValues></_>
        <_>
          <internalNodes>
            0 -1 55 -2.9574828222393990e-03</internalNodes>
          <leafValues>
            1.2351357936859131e-01 -2.1663551032543182e-01</leafValues></_>
        <_>
          <internalNodes>
            0 -1 299 3.4425437450408936e-02</internalNodes>
          <leafValues>
            4.2268916964530945e-02 -6.0212397575378418e-01</leafValues></_>
        <_>
          <internalNodes>
            0 -1 427 -2.6702214963734150e-03</internalNodes>
          <leafValues>
            1.7227628827095032e-01 -1.5522758662700653e-01</leafValues></_>
        <_>
          <internalNodes>
            0 -1 359 3.9883339777588844e-03</internalNodes>
          <leafValues>
            -7.2795167565345764e-02 3.7523069977760315e-01</leafValues></_>
        <_>
          <internalNodes>
            0 -1 507 2.4614094290882349e-03</internalNodes>
          <leafValues>
            5.6605298072099686e-02 -4.9900412559509277e-01</leafValues></_>
        <_>
          <internalNodes>
            0 -1 18 6.0379501432180405e-02</internalNodes>
          <leafValues>
            -4.9386002123355865e-02 5.4772222042083740e-01</leafValues></_>
        <_>
          <internalNodes>
            0 -1 262 6.6949222236871719e-03</internalNodes>
          <leafValues>
            -9.2933222651481628e-02 2.5834497809410095e-01</leafValues></_>
        <_>
          <internalNodes>
            0 -1 343 -1.6301352530717850e-02</internalNodes>
          <leafValues>
            2.8196510672569275e-01 -1.2745426595211029e-01</leafValues></_>
        <_>
          <internalNodes>
            0 -1 150 1.9381601363420486e-02</internalNodes>
          <leafValues>
            -7.1172110736370087e-02 3.6065340042114258e-01</leafValues></_>
        <_>
          <internalNodes>
            0 -1 457 -5.6264023296535015e-03</internalNodes>
          <leafValues>
            -5.5608844757080078e-01 5.0443638116121292e-02</leafValues></_>
        <_>
          <internalNodes>
            0 -1 430 -8.8263303041458130e-04</internalNodes>
          <leafValues>
            1.9447290897369385e-01 -1.5420398116111755e-01</leafValues></_>
        <_>
          <internalNodes>
            0 -1 459 9.8694693297147751e-03</internalNodes>
          <leafValues>
            3.9421815425157547e-02 -7.6712769269943237e-01</leafValues></_>
        <_>
          <internalNodes>
            0 -1 349 1.0840724222362041e-02</internalNodes>
          <leafValues>
            -7.3194444179534912e-02 3.9725747704505920e-01</leafValues></_>
        <_>
          <internalNodes>
            0 -1 503 -4.6830573119223118e-03</internalNodes>
          <leafValues>
            -6.4938956499099731e-01 4.3782811611890793e-02</leafValues></_>
        <_>
          <internalNodes>
            0 -1 415 2.3031390737742186e-03</internalNodes>
          <leafValues>
            -9.4629809260368347e-02 2.7982738614082336e-01</leafValues></_>
        <_>
          <internalNodes>
            0 -1 482 -1.1451507452875376e-04</internalNodes>
          <leafValues>
            -2.4459998309612274e-01 1.1711729317903519e-01</leafValues></_>
        <_>
          <internalNodes>
            0 -1 91 8.6701720952987671e-02</internalNodes>
          <leafValues>
            5.1122121512889862e-02 -5.4491913318634033e-01</leafValues></_>
        <_>
          <internalNodes>
            0 -1 249 6.2239166349172592e-02</internalNodes>
          <leafValues>
            6.6345974802970886e-02 -3.7041980028152466e-01</leafValues></_>
        <_>
          <internalNodes>
            0 -1 486 -1.0304195806384087e-02</internalNodes>
          <leafValues>
            -3.0550229549407959e-01 8.8662564754486084e-02</leafValues></_>
        <_>
          <internalNodes>
            0 -1 492 1.4364731032401323e-03</internalNodes>
          <leafValues>
            -1.3394512236118317e-01 1.9487202167510986e-01</leafValues></_>
        <_>
          <internalNodes>
            0 -1 484 -1.7607434419915080e-03</internalNodes>
          <leafValues>
            3.0479070544242859e-01 -9.3631744384765625e-02</leafValues></_>
        <_>
          <internalNodes>
            0 -1 391 -2.3506440222263336e-02</internalNodes>
          <leafValues>
            -8.0354481935501099e-01 3.6290891468524933e-02</leafValues></_>
        <_>
          <internalNodes>
            0 -1 32 9.1468142345547676e-03</internalNodes>
          <leafValues>
            4.7820501029491425e-02 -5.1444780826568604e-01</leafValues></_>
        <_>
          <internalNodes>
            0 -1 478 8.1894686445593834e-03</internalNodes>
          <leafValues>
            3.0508812516927719e-02 -8.5892409086227417e-01</leafValues></_>
        <_>
          <internalNodes>
            0 -1 415 -1.8877064576372504e-03</internalNodes>
          <leafValues>
            2.6313588023185730e-01 -1.0652765631675720e-01</leafValues></_></weakClassifiers></_>
    <!-- stage 9 -->
    <_>
      <maxWeakCount>46</maxWeakCount>
      <stageThreshold>-6.5417873859405518e-01</stageThreshold>
      <weakClassifiers>
        <_>
          <internalNodes>
            0 -1 347 1.3026809319853783e-02</internalNodes>
          <leafValues>
            1.9189360737800598e-01 6.0535931587219238e-01</leafValues></_>
        <_>
          <internalNodes>
            0 -1 320 1.3434203341603279e-02</internalNodes>
          <leafValues>
            -6.4660705626010895e-02 4.7796142101287842e-01</leafValues></_>
        <_>
          <internalNodes>
            0 -1 231 1.9324213266372681e-02</internalNodes>
          <leafValues>
            3.5999253392219543e-02 -6.0199248790740967e-01</leafValues></_>
        <_>
          <internalNodes>
            0 -1 432 8.6362902075052261e-03</internalNodes>
          <leafValues>
            3.5038929432630539e-02 -8.4950900077819824e-01</leafValues></_>
        <_>
          <internalNodes>
            0 -1 300 4.4548355042934418e-02</internalNodes>
          <leafValues>
            -8.3259388804435730e-02 3.8911998271942139e-01</leafValues></_>
        <_>
          <internalNodes>
            0 -1 313 -5.1040882244706154e-03</internalNodes>
          <leafValues>
            -7.8465241193771362e-01 3.5358879715204239e-02</leafValues></_>
        <_>
          <internalNodes>
            0 -1 350 3.6863894201815128e-03</internalNodes>
          <leafValues>
            -1.2455043196678162e-01 2.3220752179622650e-01</leafValues></_>
        <_>
          <internalNodes>
            0 -1 419 -2.4150917306542397e-03</internalNodes>
          <leafValues>
            -4.1488471627235413e-01 7.3689609766006470e-02</leafValues></_>
        <_>
          <internalNodes>
            0 -1 450 1.1513553559780121e-02</internalNodes>
          <leafValues>
            -6.8243503570556641e-02 4.4996270537376404e-01</leafValues></_>
        <_>
          <internalNodes>
            0 -1 455 6.7020943388342857e-03</internalNodes>
          <leafValues>
            2.4415815249085426e-02 -9.3644511699676514e-01</leafValues></_>
        <_>
          <internalNodes>
            0 -1 409 -1.0955998674035072e-02</internalNodes>
          <leafValues>
            -6.9962328672409058e-01 3.4293264150619507e-02</leafValues></_>
        <_>
          <internalNodes>
            0 -1 189 -1.1455167084932327e-02</internalNodes>
          <leafValues>
            -2.7886393666267395e-01 9.7025148570537567e-02</leafValues></_>
        <_>
          <internalNodes>
            0 -1 308 5.3195068612694740e-03</internalNodes>
          <leafValues>
            -8.9818283915519714e-02 3.0007535219192505e-01</leafValues></_>
        <_>
          <internalNodes>
            0 -1 539 3.0311942100524902e-04</internalNodes>
          <leafValues>
            1.0979262739419937e-01 -2.3989649116992950e-01</leafValues></_>
        <_>
          <internalNodes>
            0 -1 310 -2.8728160541504622e-03</internalNodes>
          <leafValues>
            2.3828504979610443e-01 -1.2003725022077560e-01</leafValues></_>
        <_>
          <internalNodes>
            0 -1 541 -2.6225284673273563e-03</internalNodes>
          <leafValues>
            -4.0770357847213745e-01 7.3085531592369080e-02</leafValues></_>
        <_>
          <internalNodes>
            0 -1 565 -2.6390419225208461e-04</internalNodes>
          <leafValues>
            1.7100404202938080e-01 -1.6843006014823914e-01</leafValues></_>
        <_>
          <internalNodes>
            0 -1 168 7.5686816126108170e-03</internalNodes>
          <leafValues>
            -7.9600699245929718e-02 3.6524805426597595e-01</leafValues></_>
        <_>
          <internalNodes>
            0 -1 130 -4.0254577994346619e-02</internalNodes>
          <leafValues>
            -7.8902971744537354e-01 4.5063257217407227e-02</leafValues></_>
        <_>
          <internalNodes>
            0 -1 73 -6.7291520535945892e-03</internalNodes>
          <leafValues>
            3.4755113720893860e-01 -9.7286567091941833e-02</leafValues></_>
        <_>
          <internalNodes>
            0 -1 59 -9.5793846994638443e-03</internalNodes>
          <leafValues>
            2.2291068732738495e-01 -1.3859793543815613e-01</leafValues></_>
        <_>
          <internalNodes>
            0 -1 20 -4.1296340525150299e-02</internalNodes>
          <leafValues>
            2.4906396865844727e-01 -1.4242425560951233e-01</leafValues></_>
        <_>
          <internalNodes>
            0 -1 8 4.6914625167846680e-01</internalNodes>
          <leafValues>
            -4.3598037213087082e-02 6.3248425722122192e-01</leafValues></_>
        <_>
          <internalNodes>
            0 -1 110 2.0128462463617325e-02</internalNodes>
          <leafValues>
            6.2804765999317169e-02 -5.5865257978439331e-01</leafValues></_>
        <_>
          <internalNodes>
            0 -1 332 -4.3795481324195862e-03</internalNodes>
          <leafValues>
            1.4940258860588074e-01 -1.8005201220512390e-01</leafValues></_>
        <_>
          <internalNodes>
            0 -1 518 5.8653112500905991e-04</internalNodes>
          <leafValues>
            -1.2854604423046112e-01 2.1926562488079071e-01</leafValues></_>
        <_>
          <internalNodes>
            0 -1 576 -3.0353772453963757e-03</internalNodes>
          <leafValues>
            -6.2719118595123291e-01 4.8474986106157303e-02</leafValues></_>
        <_>
          <internalNodes>
            0 -1 531 1.7577179824002087e-04</internalNodes>
          <leafValues>
            1.2098151445388794e-01 -2.4375312030315399e-01</leafValues></_>
        <_>
          <internalNodes>
            0 -1 531 -1.0967093985527754e-03</internalNodes>
          <leafValues>
            -3.9086753129959106e-01 9.1617979109287262e-02</leafValues></_>
        <_>
          <internalNodes>
            0 -1 245 4.1677076369524002e-03</internalNodes>
          <leafValues>
            3.2582193613052368e-02 -7.6703017950057983e-01</leafValues></_>
        <_>
          <internalNodes>
            0 -1 361 5.7092327624559402e-03</internalNodes>
          <leafValues>
            -8.6194872856140137e-02 3.2417094707489014e-01</leafValues></_>
        <_>
          <internalNodes>
            0 -1 411 -1.4826789265498519e-03</internalNodes>
          <leafValues>
            2.4660764634609222e-01 -1.0721995681524277e-01</leafValues></_>
        <_>
          <internalNodes>
            0 -1 401 -1.0073284618556499e-02</internalNodes>
          <leafValues>
            -6.3261878490447998e-01 4.7415900975465775e-02</leafValues></_>
        <_>
          <internalNodes>
            0 -1 359 -1.3804764021188021e-03</internalNodes>
          <leafValues>
            2.4391043186187744e-01 -1.1302103847265244e-01</leafValues></_>
        <_>
          <internalNodes>
            0 -1 375 2.6996936649084091e-03</internalNodes>
          <leafValues>
            -9.0383559465408325e-02 3.1877690553665161e-01</leafValues></_>
        <_>
          <internalNodes>
            0 -1 345 8.3574801683425903e-03</internalNodes>
          <leafValues>
            -6.3956148922443390e-02 4.2797136306762695e-01</leafValues></_>
        <_>
          <internalNodes>
            0 -1 201 9.2970458790659904e-03</internalNodes>
          <leafValues>
            4.5148715376853943e-02 -6.6497921943664551e-01</leafValues></_>
        <_>
          <internalNodes>
            0 -1 117 -2.5935899466276169e-02</internalNodes>
          <leafValues>
            -3.1339633464813232e-01 8.8092423975467682e-02</leafValues></_>
        <_>
          <internalNodes>
            0 -1 488 7.6561709865927696e-03</internalNodes>
          <leafValues>
            -1.1438037455081940e-01 2.5372457504272461e-01</leafValues></_>
        <_>
          <internalNodes>
            0 -1 245 -2.8948686085641384e-03</internalNodes>
          <leafValues>
            -5.7097125053405762e-01 5.2408121526241302e-02</leafValues></_>
        <_>
          <internalNodes>
            0 -1 93 3.7600465118885040e-02</internalNodes>
          <leafValues>
            3.1981445848941803e-02 -7.7199727296829224e-01</leafValues></_>
        <_>
          <internalNodes>
            0 -1 422 4.1682533919811249e-03</internalNodes>
          <leafValues>
            4.1028805077075958e-02 -6.2107282876968384e-01</leafValues></_>
        <_>
          <internalNodes>
            0 -1 37 4.2942747473716736e-02</internalNodes>
          <leafValues>
            -5.9303339570760727e-02 5.1045787334442139e-01</leafValues></_>
        <_>
          <internalNodes>
            0 -1 54 -7.3213418945670128e-03</internalNodes>
          <leafValues>
            1.4961330592632294e-01 -2.1676716208457947e-01</leafValues></_>
        <_>
          <internalNodes>
            0 -1 389 -7.0113143883645535e-03</internalNodes>
          <leafValues>
            -3.7138009071350098e-01 7.0799998939037323e-02</leafValues></_>
        <_>
          <internalNodes>
            0 -1 223 -1.4996832236647606e-02</internalNodes>
          <leafValues>
            -4.0608277916908264e-01 6.3385225832462311e-02</leafValues></_></weakClassifiers></_>
    <!-- stage 10 -->
    <_>
      <maxWeakCount>63</maxWeakCount>
      <stageThreshold>-7.4920940399169922e-01</stageThreshold>
      <weakClassifiers>
        <_>
          <internalNodes>
            0 -1 265 2.2890873253345490e-02</internalNodes>
          <leafValues>
            1.8361954391002655e-01 5.8916479349136353e-01</leafValues></_>
        <_>
          <internalNodes>
            0 -1 133 3.7652605678886175e-03</internalNodes>
          <leafValues>
            -1.2503126263618469e-01 2.7361044287681580e-01</leafValues></_>
        <_>
          <internalNodes>
            0 -1 216 -1.6275335103273392e-02</internalNodes>
          <leafValues>
            4.6621230244636536e-01 -6.9585241377353668e-02</leafValues></_>
        <_>
          <internalNodes>
            0 -1 403 1.3213473372161388e-02</internalNodes>
          <leafValues>
            -1.0301814228296280e-01 3.6103197932243347e-01</leafValues></_>
        <_>
          <internalNodes>
            0 -1 439 -9.8478258587419987e-04</internalNodes>
          <leafValues>
            2.1698874235153198e-01 -1.7695470154285431e-01</leafValues></_>
        <_>
          <internalNodes>
            0 -1 30 -2.9362339992076159e-03</internalNodes>
          <leafValues>
            1.7309184372425079e-01 -1.5433995425701141e-01</leafValues></_>
        <_>
          <internalNodes>
            0 -1 303 -2.5022465270012617e-03</internalNodes>
          <leafValues>
            3.8592243194580078e-01 -6.3845649361610413e-02</leafValues></_>
        <_>
          <internalNodes>
            0 -1 252 1.5707306563854218e-02</internalNodes>
          <leafValues>
            4.9913354218006134e-02 -4.9980407953262329e-01</leafValues></_>
        <_>
          <internalNodes>
            0 -1 211 3.2299291342496872e-04</internalNodes>
          <leafValues>
            -1.3543124496936798e-01 2.0483410358428955e-01</leafValues></_>
        <_>
          <internalNodes>
            0 -1 74 -3.4932978451251984e-03</internalNodes>
          <leafValues>
            2.9151794314384460e-01 -1.1345900595188141e-01</leafValues></_>
        <_>
          <internalNodes>
            0 -1 469 1.2655130121856928e-03</internalNodes>
          <leafValues>
            -1.3241042196750641e-01 2.0925192534923553e-01</leafValues></_>
        <_>
          <internalNodes>
            0 -1 433 1.7096471041440964e-02</internalNodes>
          <leafValues>
            4.8844140022993088e-02 -5.3116339445114136e-01</leafValues></_>
        <_>
          <internalNodes>
            0 -1 58 6.8720979616045952e-03</internalNodes>
          <leafValues>
            -7.5789362192153931e-02 3.6265206336975098e-01</leafValues></_>
        <_>
          <internalNodes>
            0 -1 197 -6.3606626354157925e-03</internalNodes>
          <leafValues>
            -7.1252232789993286e-01 4.1835386306047440e-02</leafValues></_>
        <_>
          <internalNodes>
            0 -1 69 -3.7905471399426460e-03</internalNodes>
          <leafValues>
            -2.9809623956680298e-01 8.0860354006290436e-02</leafValues></_>
        <_>
          <internalNodes>
            0 -1 468 5.3030601702630520e-03</internalNodes>
          <leafValues>
            -7.4320785701274872e-02 3.5198226571083069e-01</leafValues></_>
        <_>
          <internalNodes>
            0 -1 267 2.2376015782356262e-02</internalNodes>
          <leafValues>
            3.8839805871248245e-02 -7.6681041717529297e-01</leafValues></_>
        <_>
          <internalNodes>
            0 -1 423 -1.3606657739728689e-03</internalNodes>
          <leafValues>
            1.6811920702457428e-01 -1.5463374555110931e-01</leafValues></_>
        <_>
          <internalNodes>
            0 -1 344 -3.3644698560237885e-02</internalNodes>
          <leafValues>
            3.9430281519889832e-01 -6.6499754786491394e-02</leafValues></_>
        <_>
          <internalNodes>
            0 -1 321 -3.0918354168534279e-03</internalNodes>
          <leafValues>
            -4.5952400565147400e-01 5.7789500802755356e-02</leafValues></_>
        <_>
          <internalNodes>
            0 -1 570 2.3415833711624146e-03</internalNodes>
          <leafValues>
            -9.8429806530475616e-02 2.3185370862483978e-01</leafValues></_>
        <_>
          <internalNodes>
            0 -1 568 2.0174188539385796e-03</internalNodes>
          <leafValues>
            7.1722693741321564e-02 -3.9364206790924072e-01</leafValues></_>
        <_>
          <internalNodes>
            0 -1 240 2.3808414116501808e-02</internalNodes>
          <leafValues>
            4.1246343404054642e-02 -5.1575773954391479e-01</leafValues></_>
        <_>
          <internalNodes>
            0 -1 371 1.3320750556886196e-02</internalNodes>
          <leafValues>
            -3.6461383104324341e-02 7.6725751161575317e-01</leafValues></_>
        <_>
          <internalNodes>
            0 -1 435 -1.1203899048268795e-03</internalNodes>
          <leafValues>
            2.5180387496948242e-01 -1.0389656573534012e-01</leafValues></_>
        <_>
          <internalNodes>
            0 -1 26 6.4312011003494263e-02</internalNodes>
          <leafValues>
            -2.9774881899356842e-02 7.5534468889236450e-01</leafValues></_>
        <_>
          <internalNodes>
            0 -1 585 1.5438911505043507e-03</internalNodes>
          <leafValues>
            7.9352430999279022e-02 -3.1988522410392761e-01</leafValues></_>
        <_>
          <internalNodes>
            0 -1 177 -1.4949922915548086e-03</internalNodes>
          <leafValues>
            1.9282156229019165e-01 -1.2635508179664612e-01</leafValues></_>
        <_>
          <internalNodes>
            0 -1 109 -4.0747998282313347e-03</internalNodes>
          <leafValues>
            2.5662305951118469e-01 -8.6352482438087463e-02</leafValues></_>
        <_>
          <internalNodes>
            0 -1 214 3.5227029584348202e-03</internalNodes>
          <leafValues>
            -9.4864264130592346e-02 2.5414091348648071e-01</leafValues></_>
        <_>
          <internalNodes>
            0 -1 418 5.4631795501336455e-04</internalNodes>
          <leafValues>
            -1.5840692818164825e-01 1.5608434379100800e-01</leafValues></_>
        <_>
          <internalNodes>
            0 -1 105 -5.1759220659732819e-03</internalNodes>
          <leafValues>
            -4.0000078082084656e-01 5.9719495475292206e-02</leafValues></_>
        <_>
          <internalNodes>
            0 -1 225 4.9748509190976620e-03</internalNodes>
          <leafValues>
            3.7905607372522354e-02 -6.3227373361587524e-01</leafValues></_>
        <_>
          <internalNodes>
            0 -1 77 -3.8853264413774014e-03</internalNodes>
          <leafValues>
            2.2787295281887054e-01 -1.1303356289863586e-01</leafValues></_>
        <_>
          <internalNodes>
            0 -1 212 -1.2552514672279358e-03</internalNodes>
          <leafValues>
            2.4279870092868805e-01 -1.0312964767217636e-01</leafValues></_>
        <_>
          <internalNodes>
            0 -1 474 8.2982713356614113e-03</internalNodes>
          <leafValues>
            -4.9521680921316147e-02 4.6483838558197021e-01</leafValues></_>
        <_>
          <internalNodes>
            0 -1 517 5.7165622711181641e-03</internalNodes>
          <leafValues>
            3.0952597036957741e-02 -8.2537060976028442e-01</leafValues></_>
        <_>
          <internalNodes>
            0 -1 398 7.1679621934890747e-02</internalNodes>
          <leafValues>
            2.0381007343530655e-02 -7.9413866996765137e-01</leafValues></_>
        <_>
          <internalNodes>
            0 -1 273 -1.3046164531260729e-03</internalNodes>
          <leafValues>
            2.2370962798595428e-01 -1.0022182017564774e-01</leafValues></_>
        <_>
          <internalNodes>
            0 -1 172 8.6119845509529114e-03</internalNodes>
          <leafValues>
            -6.2991805374622345e-02 4.1450983285903931e-01</leafValues></_>
        <_>
          <internalNodes>
            0 -1 175 7.2630204260349274e-02</internalNodes>
          <leafValues>
            4.4607792049646378e-02 -6.9821131229400635e-01</leafValues></_>
        <_>
          <internalNodes>
            0 -1 394 2.1897947881370783e-03</internalNodes>
          <leafValues>
            8.5092887282371521e-02 -2.8521916270256042e-01</leafValues></_>
        <_>
          <internalNodes>
            0 -1 584 -4.3666004203259945e-03</internalNodes>
          <leafValues>
            -6.6264504194259644e-01 3.3917050808668137e-02</leafValues></_>
        <_>
          <internalNodes>
            0 -1 411 -1.5077458228915930e-03</internalNodes>
          <leafValues>
            2.2498996555805206e-01 -1.1031015217304230e-01</leafValues></_>
        <_>
          <internalNodes>
            0 -1 412 6.3446592539548874e-03</internalNodes>
          <leafValues>
            -7.1445755660533905e-02 3.8889974355697632e-01</leafValues></_>
        <_>
          <internalNodes>
            0 -1 335 -6.6436361521482468e-04</internalNodes>
          <leafValues>
            -2.2990033030509949e-01 1.2253427505493164e-01</leafValues></_>
        <_>
          <internalNodes>
            0 -1 489 -1.9897902384400368e-02</internalNodes>
          <leafValues>
            -5.1811510324478149e-01 4.6351164579391479e-02</leafValues></_>
        <_>
          <internalNodes>
            0 -1 521 -7.5383679941296577e-03</internalNodes>
          <leafValues>
            2.5482961535453796e-01 -9.6874989569187164e-02</leafValues></_>
        <_>
          <internalNodes>
            0 -1 553 -1.4208336360752583e-03</internalNodes>
          <leafValues>
            1.6778056323528290e-01 -1.6883152723312378e-01</leafValues></_>
        <_>
          <internalNodes>
            0 -1 94 1.1177707929164171e-03</internalNodes>
          <leafValues>
            -1.0752549767494202e-01 2.3414926230907440e-01</leafValues></_>
        <_>
          <internalNodes>
            0 -1 137 -2.1475371904671192e-03</internalNodes>
          <leafValues>
            2.6130074262619019e-01 -1.0362887382507324e-01</leafValues></_>
        <_>
          <internalNodes>
            0 -1 176 2.1711229346692562e-03</internalNodes>
          <leafValues>
            7.5181424617767334e-02 -3.4301862120628357e-01</leafValues></_>
        <_>
          <internalNodes>
            0 -1 24 1.8515194533392787e-03</internalNodes>
          <leafValues>
            8.8182531297206879e-02 -2.7911889553070068e-01</leafValues></_>
        <_>
          <internalNodes>
            0 -1 195 4.9397433176636696e-03</internalNodes>
          <leafValues>
            -5.9935707598924637e-02 3.8176634907722473e-01</leafValues></_>
        <_>
          <internalNodes>
            0 -1 531 3.4106735256500542e-04</internalNodes>
          <leafValues>
            9.8478980362415314e-02 -2.2674722969532013e-01</leafValues></_>
        <_>
          <internalNodes>
            0 -1 572 -2.9152999632060528e-03</internalNodes>
          <leafValues>
            1.5660850703716278e-01 -1.5030819177627563e-01</leafValues></_>
        <_>
          <internalNodes>
            0 -1 445 7.5593139044940472e-03</internalNodes>
          <leafValues>
            6.0947205871343613e-02 -3.9786076545715332e-01</leafValues></_>
        <_>
          <internalNodes>
            0 -1 407 1.1002199724316597e-02</internalNodes>
          <leafValues>
            -4.7663111239671707e-02 6.1658829450607300e-01</leafValues></_>
        <_>
          <internalNodes>
            0 -1 248 -5.2981596440076828e-02</internalNodes>
          <leafValues>
            4.3143117427825928e-01 -5.2099753171205521e-02</leafValues></_>
        <_>
          <internalNodes>
            0 -1 552 2.3182160221040249e-03</internalNodes>
          <leafValues>
            6.6728442907333374e-02 -3.8064289093017578e-01</leafValues></_>
        <_>
          <internalNodes>
            0 -1 575 -1.3494063168764114e-02</internalNodes>
          <leafValues>
            4.4001668691635132e-01 -6.1018254607915878e-02</leafValues></_>
        <_>
          <internalNodes>
            0 -1 191 -5.2314074710011482e-03</internalNodes>
          <leafValues>
            -2.5471529364585876e-01 9.1305777430534363e-02</leafValues></_>
        <_>
          <internalNodes>
            0 -1 44 -7.9453084617853165e-03</internalNodes>
          <leafValues>
            3.4614461660385132e-01 -7.2073318064212799e-02</leafValues></_></weakClassifiers></_>
    <!-- stage 11 -->
    <_>
      <maxWeakCount>53</maxWeakCount>
      <stageThreshold>-6.1804932355880737e-01</stageThreshold>
      <weakClassifiers>
        <_>
          <internalNodes>
            0 -1 302 -3.8356803357601166e-02</internalNodes>
          <leafValues>
            6.3688760995864868e-01 2.0984759926795959e-01</leafValues></_>
        <_>
          <internalNodes>
            0 -1 317 2.8787250630557537e-03</internalNodes>
          <leafValues>
            -1.1249172687530518e-01 2.6554775238037109e-01</leafValues></_>
        <_>
          <internalNodes>
            0 -1 275 -3.1822253949940205e-03</internalNodes>
          <leafValues>
            2.9882231354713440e-01 -9.0425930917263031e-02</leafValues></_>
        <_>
          <internalNodes>
            0 -1 196 -1.2598942965269089e-02</internalNodes>
          <leafValues>
            3.5381275415420532e-01 -9.7638711333274841e-02</leafValues></_>
        <_>
          <internalNodes>
            0 -1 202 1.8252894282341003e-02</internalNodes>
          <leafValues>
            -1.5787777304649353e-01 2.3759503662586212e-01</leafValues></_>
        <_>
          <internalNodes>
            0 -1 222 -1.0479051619768143e-02</internalNodes>
          <leafValues>
            -7.0918631553649902e-01 5.2778344601392746e-02</leafValues></_>
        <_>
          <internalNodes>
            0 -1 226 -5.1147863268852234e-04</internalNodes>
          <leafValues>
            1.9442671537399292e-01 -1.7812977731227875e-01</leafValues></_>
        <_>
          <internalNodes>
            0 -1 480 -1.8295601010322571e-02</internalNodes>
          <leafValues>
            -6.0863012075424194e-01 4.9709711223840714e-02</leafValues></_>
        <_>
          <internalNodes>
            0 -1 523 1.0050798300653696e-04</internalNodes>
          <leafValues>
            1.5133418142795563e-01 -2.2080646455287933e-01</leafValues></_>
        <_>
          <internalNodes>
            0 -1 436 -9.6865976229310036e-03</internalNodes>
          <leafValues>
            -5.7014411687850952e-01 4.5623630285263062e-02</leafValues></_>
        <_>
          <internalNodes>
            0 -1 237 1.0061404667794704e-02</internalNodes>
          <leafValues>
            -6.0305777937173843e-02 5.3962236642837524e-01</leafValues></_>
        <_>
          <internalNodes>
            0 -1 148 6.0590310022234917e-03</internalNodes>
          <leafValues>
            -8.8696859776973724e-02 3.0180025100708008e-01</leafValues></_>
        <_>
          <internalNodes>
            0 -1 405 7.2201034054160118e-03</internalNodes>
          <leafValues>
            -1.7408816516399384e-01 1.5320825576782227e-01</leafValues></_>
        <_>
          <internalNodes>
            0 -1 188 1.1300686001777649e-01</internalNodes>
          <leafValues>
            3.8359913975000381e-02 -7.0782101154327393e-01</leafValues></_>
        <_>
          <internalNodes>
            0 -1 65 -1.5856585232540965e-03</internalNodes>
          <leafValues>
            1.4279237389564514e-01 -1.7927789688110352e-01</leafValues></_>
        <_>
          <internalNodes>
            0 -1 283 -5.2616549655795097e-03</internalNodes>
          <leafValues>
            -3.3086940646171570e-01 8.3895415067672729e-02</leafValues></_>
        <_>
          <internalNodes>
            0 -1 382 1.2341135181486607e-02</internalNodes>
          <leafValues>
            -1.2761496007442474e-01 1.9728881120681763e-01</leafValues></_>
        <_>
          <internalNodes>
            0 -1 567 2.0760148763656616e-02</internalNodes>
          <leafValues>
            -1.2881337106227875e-01 2.3330360651016235e-01</leafValues></_>
        <_>
          <internalNodes>
            0 -1 574 -7.2834645397961140e-03</internalNodes>
          <leafValues>
            3.0658361315727234e-01 -8.2860462367534637e-02</leafValues></_>
        <_>
          <internalNodes>
            0 -1 115 -2.4330180138349533e-02</internalNodes>
          <leafValues>
            -3.7581282854080200e-01 6.7545227706432343e-02</leafValues></_>
        <_>
          <internalNodes>
            0 -1 431 -3.3863098360598087e-03</internalNodes>
          <leafValues>
            -3.8993534445762634e-01 5.8411877602338791e-02</leafValues></_>
        <_>
          <internalNodes>
            0 -1 144 -1.2127509107813239e-03</internalNodes>
          <leafValues>
            2.1186399459838867e-01 -1.1625429987907410e-01</leafValues></_>
        <_>
          <internalNodes>
            0 -1 151 -2.1096512209624052e-03</internalNodes>
          <leafValues>
            2.2376723587512970e-01 -1.2777465581893921e-01</leafValues></_>
        <_>
          <internalNodes>
            0 -1 97 -6.0283984057605267e-03</internalNodes>
          <leafValues>
            3.5826849937438965e-01 -7.2197161614894867e-02</leafValues></_>
        <_>
          <internalNodes>
            0 -1 463 3.5397631581872702e-03</internalNodes>
          <leafValues>
            3.9411108940839767e-02 -7.0298987627029419e-01</leafValues></_>
        <_>
          <internalNodes>
            0 -1 139 -1.0526786558330059e-02</internalNodes>
          <leafValues>
            -4.0070885419845581e-01 5.8700632303953171e-02</leafValues></_>
        <_>
          <internalNodes>
            0 -1 333 7.2007076814770699e-03</internalNodes>
          <leafValues>
            -7.8800834715366364e-02 3.7299773097038269e-01</leafValues></_>
        <_>
          <internalNodes>
            0 -1 288 -5.0919204950332642e-03</internalNodes>
          <leafValues>
            2.5928261876106262e-01 -1.0634658485651016e-01</leafValues></_>
        <_>
          <internalNodes>
            0 -1 388 -4.6449052169919014e-03</internalNodes>
          <leafValues>
            -4.0955504775047302e-01 6.4892284572124481e-02</leafValues></_>
        <_>
          <internalNodes>
            0 -1 98 -3.0011270195245743e-02</internalNodes>
          <leafValues>
            -3.5787230730056763e-01 6.8914964795112610e-02</leafValues></_>
        <_>
          <internalNodes>
            0 -1 500 4.5912293717265129e-03</internalNodes>
          <leafValues>
            3.7640623748302460e-02 -6.0645443201065063e-01</leafValues></_>
        <_>
          <internalNodes>
            0 -1 348 -1.5720623778179288e-03</internalNodes>
          <leafValues>
            2.0136548578739166e-01 -1.2157693505287170e-01</leafValues></_>
        <_>
          <internalNodes>
            0 -1 438 -8.8397786021232605e-04</internalNodes>
          <leafValues>
            2.3221078515052795e-01 -1.0607551038265228e-01</leafValues></_>
        <_>
          <internalNodes>
            0 -1 483 -5.0759380683302879e-03</internalNodes>
          <leafValues>
            -7.3863005638122559e-01 3.9334483444690704e-02</leafValues></_>
        <_>
          <internalNodes>
            0 -1 464 8.8764391839504242e-03</internalNodes>
          <leafValues>
            3.9628773927688599e-02 -5.7408601045608521e-01</leafValues></_>
        <_>
          <internalNodes>
            0 -1 12 -7.5446248054504395e-02</internalNodes>
          <leafValues>
            7.6522350311279297e-01 -3.4068875014781952e-02</leafValues></_>
        <_>
          <internalNodes>
            0 -1 4 1.2656246311962605e-02</internalNodes>
          <leafValues>
            -8.0934874713420868e-02 3.2611373066902161e-01</leafValues></_>
        <_>
          <internalNodes>
            0 -1 28 -8.5623860359191895e-02</internalNodes>
          <leafValues>
            3.2400891184806824e-01 -7.8378632664680481e-02</leafValues></_>
        <_>
          <internalNodes>
            0 -1 239 -9.2780850827693939e-03</internalNodes>
          <leafValues>
            1.4290887117385864e-01 -1.9990202784538269e-01</leafValues></_>
        <_>
          <internalNodes>
            0 -1 15 -1.3312338851392269e-03</internalNodes>
          <leafValues>
            -2.7194452285766602e-01 8.9050635695457458e-02</leafValues></_>
        <_>
          <internalNodes>
            0 -1 107 -4.0376610122621059e-03</internalNodes>
          <leafValues>
            2.6425749063491821e-01 -9.9914543330669403e-02</leafValues></_>
        <_>
          <internalNodes>
            0 -1 286 -1.4179459773004055e-02</internalNodes>
          <leafValues>
            -6.8564116954803467e-01 3.6791153252124786e-02</leafValues></_>
        <_>
          <internalNodes>
            0 -1 81 -6.6228779032826424e-03</internalNodes>
          <leafValues>
            2.8110945224761963e-01 -8.7245613336563110e-02</leafValues></_>
        <_>
          <internalNodes>
            0 -1 173 -3.3514179289340973e-02</internalNodes>
          <leafValues>
            -4.2819240689277649e-01 5.7419549673795700e-02</leafValues></_>
        <_>
          <internalNodes>
            0 -1 311 -4.5919902622699738e-03</internalNodes>
          <leafValues>
            3.3809709548950195e-01 -7.5640805065631866e-02</leafValues></_>
        <_>
          <internalNodes>
            0 -1 272 -6.0934545472264290e-03</internalNodes>
          <leafValues>
            -6.9237363338470459e-01 4.0110848844051361e-02</leafValues></_>
        <_>
          <internalNodes>
            0 -1 374 -2.8348113410174847e-03</internalNodes>
          <leafValues>
            2.7800849080085754e-01 -1.0130904614925385e-01</leafValues></_>
        <_>
          <internalNodes>
            0 -1 84 3.2785646617412567e-03</internalNodes>
          <leafValues>
            -2.2130656242370605e-01 1.1204352974891663e-01</leafValues></_>
        <_>
          <internalNodes>
            0 -1 78 -6.9753355346620083e-03</internalNodes>
          <leafValues>
            3.4234279394149780e-01 -7.5331948697566986e-02</leafValues></_>
        <_>
          <internalNodes>
            0 -1 13 2.1645884960889816e-02</internalNodes>
          <leafValues>
            4.5449569821357727e-02 -6.1312532424926758e-01</leafValues></_>
        <_>
          <internalNodes>
            0 -1 11 1.2618344044312835e-04</internalNodes>
          <leafValues>
            1.2778963148593903e-01 -1.8619404733181000e-01</leafValues></_>
        <_>
          <internalNodes>
            0 -1 95 2.1524203941226006e-02</internalNodes>
          <leafValues>
            4.6142123639583588e-02 -5.6558316946029663e-01</leafValues></_>
        <_>
          <internalNodes>
            0 -1 19 5.1189991645514965e-03</internalNodes>
          <leafValues>
            -1.1932900547981262e-01 2.4124716222286224e-01</leafValues></_></weakClassifiers></_>
    <!-- stage 12 -->
    <_>
      <maxWeakCount>63</maxWeakCount>
      <stageThreshold>-7.2938239574432373e-01</stageThreshold>
      <weakClassifiers>
        <_>
          <internalNodes>
            0 -1 228 -2.1017938852310181e-02</internalNodes>
          <leafValues>
            5.2051049470901489e-01 1.7574827373027802e-01</leafValues></_>
        <_>
          <internalNodes>
            0 -1 261 -4.7787977382540703e-03</internalNodes>
          <leafValues>
            3.3826830983161926e-01 -8.4821216762065887e-02</leafValues></_>
        <_>
          <internalNodes>
            0 -1 451 1.3558212667703629e-02</internalNodes>
          <leafValues>
            -6.8742975592613220e-02 4.1882809996604919e-01</leafValues></_>
        <_>
          <internalNodes>
            0 -1 437 1.2697571888566017e-02</internalNodes>
          <leafValues>
            3.3917799592018127e-02 -4.5582854747772217e-01</leafValues></_>
        <_>
          <internalNodes>
            0 -1 243 -7.1403242647647858e-02</internalNodes>
          <leafValues>
            3.5337352752685547e-01 -3.8301426917314529e-02</leafValues></_>
        <_>
          <internalNodes>
            0 -1 106 -1.3497222214937210e-02</internalNodes>
          <leafValues>
            -3.7435355782508850e-01 5.9836663305759430e-02</leafValues></_>
        <_>
          <internalNodes>
            0 -1 442 -3.8065039552748203e-03</internalNodes>
          <leafValues>
            2.2955431044101715e-01 -1.0823158174753189e-01</leafValues></_>
        <_>
          <internalNodes>
            0 -1 524 -4.2397230863571167e-03</internalNodes>
          <leafValues>
            2.0911619067192078e-01 -1.4753943681716919e-01</leafValues></_>
        <_>
          <internalNodes>
            0 -1 535 -9.9681625142693520e-03</internalNodes>
          <leafValues>
            1.6566626727581024e-01 -1.5583786368370056e-01</leafValues></_>
        <_>
          <internalNodes>
            0 -1 504 9.3435645103454590e-03</internalNodes>
          <leafValues>
            4.3070707470178604e-02 -5.9909176826477051e-01</leafValues></_>
        <_>
          <internalNodes>
            0 -1 82 -1.0179583914577961e-02</internalNodes>
          <leafValues>
            3.5668885707855225e-01 -7.0976004004478455e-02</leafValues></_>
        <_>
          <internalNodes>
            0 -1 315 -5.1532080397009850e-03</internalNodes>
          <leafValues>
            -3.9470118284225464e-01 6.8862877786159515e-02</leafValues></_>
        <_>
          <internalNodes>
            0 -1 266 -8.4262993186712265e-03</internalNodes>
          <leafValues>
            -6.0896176099777222e-01 3.7115219980478287e-02</leafValues></_>
