<?xml version="1.0"?>
<opencv_storage>
<cascade>
  <stageType>BOOST</stageType>
  <featureType>HAAR</featureType>
  <height>48</height>
  <width>48</width>
  <stageParams>
    <boostType>GAB</boostType>
    <minHitRate>9.9500000476837158e-01</minHitRate>
    <maxFalseAlarm>5.0000000000000000e-01</maxFalseAlarm>
    <weightTrimRate>9.4999999999999996e-01</weightTrimRate>
    <maxDepth>1</maxDepth>
    <maxWeakCount>100</maxWeakCount></stageParams>
  <featureParams>
    <maxCatCount>0</maxCatCount>
    <featSize>1</featSize>
    <mode>BASIC</mode></featureParams>
  <stageNum>14</stageNum>
  <stages>
    <!-- stage 0 -->
    <_>
      <maxWeakCount>2</maxWeakCount>
      <stageThreshold>-2.4109825491905212e-01</stageThreshold>
      <weakClassifiers>
        <_>
          <internalNodes>
            0 -1 65 5.2899681031703949e-03</internalNodes>
          <leafValues>
            -8.0515760183334351e-01 8.0023503303527832e-01</leafValues></_>
        <_>
          <internalNodes>
            0 -1 32 3.5151204792782664e-04</internalNodes>
          <leafValues>
            -8.7413054704666138e-01 5.6405931711196899e-01</leafValues></_></weakClassifiers></_>
    <!-- stage 1 -->
    <_>
      <maxWeakCount>4</maxWeakCount>
      <stageThreshold>-7.2595226764678955e-01</stageThreshold>
      <weakClassifiers>
        <_>
          <internalNodes>
            0 -1 34 -3.0619748868048191e-03</internalNodes>
          <leafValues>
            6.7368990182876587e-01 -8.1420767307281494e-01</leafValues></_>
        <_>
          <internalNodes>
            0 -1 16 1.2341705150902271e-02</internalNodes>
          <leafValues>
            -7.3496299982070923e-01 5.5822765827178955e-01</leafValues></_>
        <_>
          <internalNodes>
            0 -1 68 5.9005536604672670e-04</internalNodes>
          <leafValues>
            -9.3282651901245117e-01 4.0654680132865906e-01</leafValues></_>
        <_>
          <internalNodes>
            0 -1 15 -6.0714548453688622e-04</internalNodes>
          <leafValues>
            4.1667154431343079e-01 -6.3545376062393188e-01</leafValues></_></weakClassifiers></_>
    <!-- stage 2 -->
    <_>
      <maxWeakCount>6</maxWeakCount>
      <stageThreshold>-1.2826143503189087e+00</stageThreshold>
      <weakClassifiers>
        <_>
          <internalNodes>
            0 -1 29 2.4004990700632334e-04</internalNodes>
          <leafValues>
            -8.7330317497253418e-01 6.0572010278701782e-01</leafValues></_>
        <_>
          <internalNodes>
            0 -1 64 5.8167967945337296e-03</internalNodes>
          <leafValues>
            -8.4263372421264648e-01 3.6637794971466064e-01</leafValues></_>
        <_>
          <internalNodes>
            0 -1 76 8.1492835306562483e-05</internalNodes>
          <leafValues>
            3.0305710434913635e-01 -8.6077463626861572e-01</leafValues></_>
        <_>
          <internalNodes>
            0 -1 13 -6.8939221091568470e-04</internalNodes>
          <leafValues>
            3.5063037276268005e-01 -7.2739607095718384e-01</leafValues></_>
        <_>
          <internalNodes>
            0 -1 49 -5.2541622426360846e-04</internalNodes>
          <leafValues>
            2.8414463996887207e-01 -8.3340519666671753e-01</leafValues></_>
        <_>
          <internalNodes>
            0 -1 5 -1.2157337740063667e-02</internalNodes>
          <leafValues>
            -9.1116303205490112e-01 2.4200601875782013e-01</leafValues></_></weakClassifiers></_>
    <!-- stage 3 -->
    <_>
      <maxWeakCount>5</maxWeakCount>
      <stageThreshold>-6.8279320001602173e-01</stageThreshold>
      <weakClassifiers>
        <_>
          <internalNodes>
            0 -1 26 2.6488131843507290e-03</internalNodes>
          <leafValues>
            -5.7207888364791870e-01 6.7604821920394897e-01</leafValues></_>
        <_>
          <internalNodes>
            0 -1 19 -5.0373990088701248e-03</internalNodes>
          <leafValues>
            -8.8388526439666748e-01 3.8311734795570374e-01</leafValues></_>
        <_>
          <internalNodes>
            0 -1 50 -6.9340539630502462e-04</internalNodes>
          <leafValues>
            -9.6667313575744629e-01 2.7456495165824890e-01</leafValues></_>
        <_>
          <internalNodes>
            0 -1 38 -4.1058547794818878e-03</internalNodes>
          <leafValues>
            2.1613299846649170e-01 -8.5800242424011230e-01</leafValues></_>
        <_>
          <internalNodes>
            0 -1 8 -3.7141729262657464e-04</internalNodes>
          <leafValues>
            -8.8534152507781982e-01 2.5670853257179260e-01</leafValues></_></weakClassifiers></_>
    <!-- stage 4 -->
    <_>
      <maxWeakCount>5</maxWeakCount>
      <stageThreshold>-2.8916311264038086e-01</stageThreshold>
      <weakClassifiers>
        <_>
          <internalNodes>
            0 -1 42 -6.4958602888509631e-04</internalNodes>
          <leafValues>
            -8.0927836894989014e-01 5.5367791652679443e-01</leafValues></_>
        <_>
          <internalNodes>
            0 -1 55 -8.7557607912458479e-05</internalNodes>
          <leafValues>
            -8.2349640130996704e-01 3.5964757204055786e-01</leafValues></_>
        <_>
          <internalNodes>
            0 -1 21 2.4691173806786537e-02</internalNodes>
          <leafValues>
            -3.7384897470474243e-01 7.7201974391937256e-01</leafValues></_>
        <_>
          <internalNodes>
            0 -1 25 -7.1697365492582321e-03</internalNodes>
          <leafValues>
            -9.1231554746627808e-01 3.0895090103149414e-01</leafValues></_>
        <_>
          <internalNodes>
            0 -1 12 -9.4377779169008136e-04</internalNodes>
          <leafValues>
            -9.4059187173843384e-01 2.2536575794219971e-01</leafValues></_></weakClassifiers></_>
    <!-- stage 5 -->
    <_>
      <maxWeakCount>5</maxWeakCount>
      <stageThreshold>-2.7586695551872253e-01</stageThreshold>
      <weakClassifiers>
        <_>
          <internalNodes>
            0 -1 57 9.4620074378326535e-05</internalNodes>
          <leafValues>
            5.5402749776840210e-01 -9.0109890699386597e-01</leafValues></_>
        <_>
          <internalNodes>
            0 -1 10 -1.4148657210171223e-03</internalNodes>
          <leafValues>
            4.1560399532318115e-01 -6.7696678638458252e-01</leafValues></_>
        <_>
          <internalNodes>
            0 -1 63 -7.5016440823674202e-03</internalNodes>
          <leafValues>
            3.4405684471130371e-01 -7.8756266832351685e-01</leafValues></_>
        <_>
          <internalNodes>
            0 -1 36 -3.0630459077656269e-03</internalNodes>
          <leafValues>
            6.4529198408126831e-01 -4.1789186000823975e-01</leafValues></_>
        <_>
          <internalNodes>
            0 -1 47 -4.7593642375431955e-04</internalNodes>
          <leafValues>
            -8.6712068319320679e-01 3.1284990906715393e-01</leafValues></_></weakClassifiers></_>
    <!-- stage 6 -->
    <_>
      <maxWeakCount>5</maxWeakCount>
      <stageThreshold>-6.2035769224166870e-01</stageThreshold>
      <weakClassifiers>
        <_>
          <internalNodes>
            0 -1 39 1.0391509567853063e-04</internalNodes>
          <leafValues>
            -9.3529409170150757e-01 5.4271847009658813e-01</leafValues></_>
        <_>
          <internalNodes>
            0 -1 40 -5.4707349045202136e-04</internalNodes>
          <leafValues>
            -8.8399922847747803e-01 3.1852898001670837e-01</leafValues></_>
        <_>
          <internalNodes>
            0 -1 72 7.1909962571226060e-06</internalNodes>
          <leafValues>
            -9.5105701684951782e-01 1.8964402377605438e-01</leafValues></_>
        <_>
          <internalNodes>
            0 -1 67 1.0093774471897632e-04</internalNodes>
          <leafValues>
            -6.5177768468856812e-01 3.6483430862426758e-01</leafValues></_>
        <_>
          <internalNodes>
            0 -1 52 -1.5057603013701737e-04</internalNodes>
          <leafValues>
            -9.5105683803558350e-01 1.8305680155754089e-01</leafValues></_></weakClassifiers></_>
    <!-- stage 7 -->
    <_>
      <maxWeakCount>6</maxWeakCount>
      <stageThreshold>-7.3928731679916382e-01</stageThreshold>
      <weakClassifiers>
        <_>
          <internalNodes>
            0 -1 31 2.9220938449725509e-04</internalNodes>
          <leafValues>
            -6.8127489089965820e-01 6.0168600082397461e-01</leafValues></_>
        <_>
          <internalNodes>
            0 -1 78 -2.8177944477647543e-03</internalNodes>
          <leafValues>
            6.8865805864334106e-01 -3.3917558193206787e-01</leafValues></_>
        <_>
          <internalNodes>
            0 -1 77 1.2515372873167507e-05</internalNodes>
          <leafValues>
            -5.8027184009552002e-01 4.1443863511085510e-01</leafValues></_>
        <_>
          <internalNodes>
            0 -1 27 8.9195487089455128e-04</internalNodes>
          <leafValues>
            -7.0766216516494751e-01 3.3944961428642273e-01</leafValues></_>
        <_>
          <internalNodes>
            0 -1 66 3.0373502522706985e-04</internalNodes>
          <leafValues>
            -7.4191808700561523e-01 3.3007499575614929e-01</leafValues></_>
        <_>
          <internalNodes>
            0 -1 54 -3.5979213862447068e-05</internalNodes>
          <leafValues>
            -7.4592161178588867e-01 2.4431166052818298e-01</leafValues></_></weakClassifiers></_>
    <!-- stage 8 -->
    <_>
      <maxWeakCount>7</maxWeakCount>
      <stageThreshold>-9.0686881542205811e-01</stageThreshold>
      <weakClassifiers>
        <_>
          <internalNodes>
            0 -1 71 -6.4391046180389822e-05</internalNodes>
          <leafValues>
            -7.6202529668807983e-01 5.4912716150283813e-01</leafValues></_>
        <_>
          <internalNodes>
            0 -1 60 6.9531903136521578e-04</internalNodes>
          <leafValues>
            -6.2801080942153931e-01 3.4600117802619934e-01</leafValues></_>
        <_>
          <internalNodes>
            0 -1 1 9.4783874228596687e-03</internalNodes>
          <leafValues>
            2.5692209601402283e-01 -8.3322685956954956e-01</leafValues></_>
        <_>
          <internalNodes>
            0 -1 14 8.0671124160289764e-03</internalNodes>
          <leafValues>
            -8.1183707714080811e-01 2.4344927072525024e-01</leafValues></_>
        <_>
          <internalNodes>
            0 -1 61 -1.4349125558510423e-03</internalNodes>
          <leafValues>
            3.0604332685470581e-01 -6.0570478439331055e-01</leafValues></_>
        <_>
          <internalNodes>
            0 -1 11 9.6166288130916655e-05</internalNodes>
          <leafValues>
            1.6410130262374878e-01 -9.6085333824157715e-01</leafValues></_>
        <_>
          <internalNodes>
            0 -1 9 -1.0143742838408798e-04</internalNodes>
          <leafValues>
            -8.7552219629287720e-01 2.0339587330818176e-01</leafValues></_></weakClassifiers></_>
    <!-- stage 9 -->
    <_>
      <maxWeakCount>7</maxWeakCount>
      <stageThreshold>-3.8132068514823914e-01</stageThreshold>
      <weakClassifiers>
        <_>
          <internalNodes>
            0 -1 48 -3.2093967311084270e-03</internalNodes>
          <leafValues>
            5.5040323734283447e-01 -7.0192307233810425e-01</leafValues></_>
        <_>
          <internalNodes>
            0 -1 59 -3.5668213968165219e-05</internalNodes>
          <leafValues>
            -7.2974616289138794e-01 3.0471426248550415e-01</leafValues></_>
        <_>
          <internalNodes>
            0 -1 28 6.2888637185096741e-03</internalNodes>
          <leafValues>
            2.5444447994232178e-01 -8.6654579639434814e-01</leafValues></_>
        <_>
          <internalNodes>
            0 -1 33 -5.9684463776648045e-03</internalNodes>
          <leafValues>
            6.6035646200180054e-01 -3.7105789780616760e-01</leafValues></_>
        <_>
          <internalNodes>
            0 -1 69 -4.3555516749620438e-03</internalNodes>
          <leafValues>
            5.8855348825454712e-01 -3.6402890086174011e-01</leafValues></_>
        <_>
          <internalNodes>
            0 -1 43 4.2197789298370481e-04</internalNodes>
          <leafValues>
            -7.6368254423141479e-01 2.8022375702857971e-01</leafValues></_>
        <_>
          <internalNodes>
            0 -1 4 -1.6066452488303185e-02</internalNodes>
          <leafValues>
            -8.6761170625686646e-01 2.3475435376167297e-01</leafValues></_></weakClassifiers></_>
    <!-- stage 10 -->
    <_>
      <maxWeakCount>8</maxWeakCount>
      <stageThreshold>-9.7340720891952515e-01</stageThreshold>
      <weakClassifiers>
        <_>
          <internalNodes>
            0 -1 45 -2.3830132704460993e-05</internalNodes>
          <leafValues>
            -7.1284633874893188e-01 5.4068899154663086e-01</leafValues></_>
        <_>
          <internalNodes>
            0 -1 30 1.2197228352306411e-04</internalNodes>
          <leafValues>
            -8.0677312612533569e-01 3.2555976510047913e-01</leafValues></_>
        <_>
          <internalNodes>
            0 -1 58 1.2378896586596966e-02</internalNodes>
          <leafValues>
            -3.7532693147659302e-01 6.4293807744979858e-01</leafValues></_>
        <_>
          <internalNodes>
            0 -1 46 8.5846905130892992e-04</internalNodes>
          <leafValues>
            2.5053730607032776e-01 -9.2879569530487061e-01</leafValues></_>
        <_>
          <internalNodes>
            0 -1 62 -5.6796288117766380e-03</internalNodes>
          <leafValues>
            2.7385017275810242e-01 -7.0902091264724731e-01</leafValues></_>
        <_>
          <internalNodes>
            0 -1 53 -4.0608261770103127e-05</internalNodes>
          <leafValues>
            -6.3374900817871094e-01 3.1076267361640930e-01</leafValues></_>
        <_>
          <internalNodes>
            0 -1 0 1.7244115006178617e-03</internalNodes>
          <leafValues>
            -3.2823917269706726e-01 6.7401456832885742e-01</leafValues></_>
        <_>
          <internalNodes>
            0 -1 23 -6.4082056283950806e-02</internalNodes>
          <leafValues>
            -9.1998821496963501e-01 2.2680699825286865e-01</leafValues></_></weakClassifiers></_>
    <!-- stage 11 -->
    <_>
      <maxWeakCount>7</maxWeakCount>
      <stageThreshold>-1.2416721582412720e+00</stageThreshold>
      <weakClassifiers>
        <_>
          <internalNodes>
            0 -1 44 -5.5194186279550195e-04</internalNodes>
          <leafValues>
            -9.1530942916870117e-01 5.1648354530334473e-01</leafValues></_>
        <_>
          <internalNodes>
            0 -1 41 1.6935751773416996e-03</internalNodes>
          <leafValues>
            -4.0306565165519714e-01 6.8893390893936157e-01</leafValues></_>
        <_>
          <internalNodes>
            0 -1 6 7.3187786620110273e-04</internalNodes>
          <leafValues>
            -5.2421975135803223e-01 4.3903923034667969e-01</leafValues></_>
        <_>
          <internalNodes>
            0 -1 73 1.4225390259525739e-05</internalNodes>
          <leafValues>
            -8.1963735818862915e-01 2.2169528901576996e-01</leafValues></_>
        <_>
          <internalNodes>
            0 -1 75 -7.1473908610641956e-04</internalNodes>
          <leafValues>
            -8.6385118961334229e-01 1.8129017949104309e-01</leafValues></_>
        <_>
          <internalNodes>
            0 -1 74 1.0764942271634936e-04</internalNodes>
          <leafValues>
            2.2415046393871307e-01 -8.4955942630767822e-01</leafValues></_>
        <_>
          <internalNodes>
            0 -1 22 5.1533104851841927e-04</internalNodes>
          <leafValues>
            -4.1667351126670837e-01 4.7148218750953674e-01</leafValues></_></weakClassifiers></_>
    <!-- stage 12 -->
    <_>
      <maxWeakCount>7</maxWeakCount>
      <stageThreshold>-5.7282114028930664e-01</stageThreshold>
      <weakClassifiers>
        <_>
          <internalNodes>
            0 -1 24 -6.7419471452012658e-04</internalNodes>
          <leafValues>
            -8.0564260482788086e-01 5.0792890787124634e-01</leafValues></_>
        <_>
          <internalNodes>
            0 -1 17 1.6907202079892159e-03</internalNodes>
          <leafValues>
            -4.4969269633293152e-01 4.8509573936462402e-01</leafValues></_>
        <_>
          <internalNodes>
            0 -1 18 -2.5850769132375717e-02</internalNodes>
          <leafValues>
            -8.8435477018356323e-01 2.5845226645469666e-01</leafValues></_>
        <_>
          <internalNodes>
            0 -1 20 1.2626851908862591e-02</internalNodes>
          <leafValues>
            2.3094007372856140e-01 -8.8545417785644531e-01</leafValues></_>
        <_>
          <internalNodes>
            0 -1 79 -1.6594046028330922e-03</internalNodes>
          <leafValues>
            6.5208351612091064e-01 -3.4744802117347717e-01</leafValues></_>
        <_>
          <internalNodes>
            0 -1 37 2.2947280667722225e-03</internalNodes>
          <leafValues>
            2.9109153151512146e-01 -7.7751141786575317e-01</leafValues></_>
        <_>
          <internalNodes>
            0 -1 56 -5.9243939176667482e-05</internalNodes>
          <leafValues>
            -7.7079337835311890e-01 1.8611556291580200e-01</leafValues></_></weakClassifiers></_>
    <!-- stage 13 -->
    <_>
      <maxWeakCount>6</maxWeakCount>
      <stageThreshold>-3.6085674166679382e-01</stageThreshold>
      <weakClassifiers>
        <_>
          <internalNodes>
            0 -1 3 2.2030659019947052e-02</internalNodes>
          <leafValues>
            5.2583295106887817e-01 -8.7841945886611938e-01</leafValues></_>
        <_>
          <internalNodes>
            0 -1 35 2.3467092250939459e-04</internalNodes>
          <leafValues>
            2.5068539381027222e-01 -7.9253959655761719e-01</leafValues></_>
        <_>
          <internalNodes>
            0 -1 7 4.3422725866548717e-05</internalNodes>
          <leafValues>
            2.0122125744819641e-01 -9.0159779787063599e-01</leafValues></_>
        <_>
          <internalNodes>
            0 -1 2 1.0797495488077402e-03</internalNodes>
          <leafValues>
            -6.0662335157394409e-01 3.4843784570693970e-01</leafValues></_>
        <_>
          <internalNodes>
            0 -1 51 4.1828677058219910e-04</internalNodes>
          <leafValues>
            2.2649040818214417e-01 -7.7685320377349854e-01</leafValues></_>
        <_>
          <internalNodes>
            0 -1 70 3.5132288758177310e-05</internalNodes>
          <leafValues>
            -8.5704654455184937e-01 1.9263809919357300e-01</leafValues></_></weakClassifiers></_></stages>
  <features>
    <_>
      <rects>
        <_>
          1 24 4 4 -1.</_>
        <_>
          3 24 2 4 2.</_></rects>
      <tilted>0</tilted></_>
    <_>
      <rects>
        <_>
          3 23 22 7 -1.</_>
        <_>
          14 23 11 7 2.</_></rects>
      <tilted>0</tilted></_>
    <_>
      <rects>
        <_>
          3 25 9 3 -1.</_>
        <_>
          6 25 3 3 3.</_></rects>
      <tilted>0</tilted></_>
    <_>
      <rects>
        <_>
          3 26 28 6 -1.</_>
        <_>
          17 26 14 6 2.</_></rects>
      <tilted>0</tilted></_>
    <_>
      <rects>
        <_>
          5 20 39 5 -1.</_>
        <_>
          18 20 13 5 3.</_></rects>
      <tilted>0</tilted></_>
    <_>
      <rects>
        <_>
          5 22 39 10 -1.</_>
        <_>
          18 22 13 10 3.</_></rects>
      <tilted>0</tilted></_>
    <_>
      <rects>
        <_>
          5 23 6 8 -1.</_>
        <_>
          7 23 2 8 3.</_></rects>
      <tilted>0</tilted></_>
    <_>
      <rects>
        <_>
          5 25 2 1 -1.</_>
        <_>
          6 25 1 1 2.</_></rects>
      <tilted>0</tilted></_>
    <_>
      <rects>
        <_>
          6 17 2 14 -1.</_>
        <_>
          6 24 2 7 2.</_></rects>
      <tilted>0</tilted></_>
    <_>
      <rects>
        <_>
          6 24 3 4 -1.</_>
        <_>
          7 24 1 4 3.</_></rects>
      <tilted>0</tilted></_>
    <_>
      <rects>
        <_>
          6 24 6 5 -1.</_>
        <_>
          9 24 3 5 2.</_></rects>
      <tilted>0</tilted></_>
    <_>
      <rects>
        <_>
          6 25 2 3 -1.</_>
        <_>
          7 25 1 3 2.</_></rects>
      <tilted>0</tilted></_>
    <_>
      <rects>
        <_>
          6 25 36 6 -1.</_>
        <_>
          18 25 12 6 3.</_></rects>
      <tilted>0</tilted></_>
    <_>
      <rects>
        <_>
          6 29 8 3 -1.</_>
        <_>
          10 29 4 3 2.</_></rects>
      <tilted>0</tilted></_>
    <_>
      <rects>
        <_>
          7 13 22 19 -1.</_>
        <_>
          18 13 11 19 2.</_></rects>
      <tilted>0</tilted></_>
    <_>
      <rects>
        <_>
          7 24 4 4 -1.</_>
        <_>
          9 24 2 4 2.</_></rects>
      <tilted>0</tilted></_>
    <_>
      <rects>
        <_>
          12 25 24 6 -1.</_>
        <_>
          20 25 8 6 3.</_></rects>
      <tilted>0</tilted></_>
    <_>
      <rects>
        <_>
          16 8 4 8 -1.</_>
        <_>
          16 12 4 4 2.</_></rects>
      <tilted>0</tilted></_>
    <_>
      <rects>
        <_>
          16 29 28 8 -1.</_>
        <_>
          30 29 14 8 2.</_></rects>
      <tilted>0</tilted></_>
    <_>
      <rects>
        <_>
          17 24 15 14 -1.</_>
        <_>
          17 31 15 7 2.</_></rects>
      <tilted>0</tilted></_>
    <_>
      <rects>
        <_>
          17 27 30 5 -1.</_>
        <_>
          32 27 15 5 2.</_></rects>
      <tilted>0</tilted></_>
    <_>
      <rects>
        <_>
          19 5 13 10 -1.</_>
        <_>
          19 10 13 5 2.</_></rects>
      <tilted>0</tilted></_>
    <_>
      <rects>
        <_>
          19 9 1 8 -1.</_>
        <_>
          19 13 1 4 2.</_></rects>
      <tilted>0</tilted></_>
    <_>
      <rects>
        <_>
          19 10 15 30 -1.</_>
        <_>
          19 25 15 15 2.</_></rects>
      <tilted>0</tilted></_>
    <_>
      <rects>
        <_>
          19 12 18 3 -1.</_>
        <_>
          25 12 6 3 3.</_></rects>
      <tilted>0</tilted></_>
    <_>
      <rects>
        <_>
          19 26 28 4 -1.</_>
        <_>
          33 26 14 4 2.</_></rects>
      <tilted>0</tilted></_>
    <_>
      <rects>
        <_>
          20 10 9 9 -1.</_>
        <_>
          20 13 9 3 3.</_></rects>
      <tilted>0</tilted></_>
    <_>
      <rects>
        <_>
          20 11 4 9 -1.</_>
        <_>
          20 14 4 3 3.</_></rects>
      <tilted>0</tilted></_>
    <_>
      <rects>
        <_>
          20 20 10 12 -1.</_>
        <_>
          20 26 10 6 2.</_></rects>
      <tilted>0</tilted></_>
    <_>
      <rects>
        <_>
          20 21 4 7 -1.</_>
        <_>
          22 21 2 7 2.</_></rects>
      <tilted>0</tilted></_>
    <_>
      <rects>
        <_>
          20 23 6 3 -1.</_>
        <_>
          22 23 2 3 3.</_></rects>
      <tilted>0</tilted></_>
    <_>
      <rects>
        <_>
          20 23 6 6 -1.</_>
        <_>
          22 23 2 6 3.</_></rects>
      <tilted>0</tilted></_>
    <_>
      <rects>
        <_>
          20 24 9 2 -1.</_>
        <_>
          23 24 3 2 3.</_></rects>
      <tilted>0</tilted></_>
    <_>
      <rects>
        <_>
          20 37 7 6 -1.</_>
        <_>
          20 40 7 3 2.</_></rects>
      <tilted>0</tilted></_>
    <_>
      <rects>
        <_>
          21 12 10 12 -1.</_>
        <_>
          21 18 10 6 2.</_></rects>
      <tilted>0</tilted></_>
    <_>
      <rects>
        <_>
          21 13 4 18 -1.</_>
        <_>
          21 19 4 6 3.</_></rects>
      <tilted>0</tilted></_>
    <_>
      <rects>
        <_>
          21 38 8 4 -1.</_>
        <_>
          21 40 8 2 2.</_></rects>
      <tilted>0</tilted></_>
    <_>
      <rects>
        <_>
          22 11 18 18 -1.</_>
        <_>
          22 11 9 9 2.</_>
        <_>
          31 20 9 9 2.</_></rects>
      <tilted>0</tilted></_>
    <_>
      <rects>
        <_>
          22 11 10 20 -1.</_>
        <_>
          22 21 10 10 2.</_></rects>
      <tilted>0</tilted></_>
    <_>
      <rects>
        <_>
          22 21 6 5 -1.</_>
        <_>
          24 21 2 5 3.</_></rects>
      <tilted>0</tilted></_>
    <_>
      <rects>
        <_>
          22 31 5 6 -1.</_>
        <_>
          22 34 5 3 2.</_></rects>
      <tilted>0</tilted></_>
    <_>
      <rects>
        <_>
          23 8 5 4 -1.</_>
        <_>
          23 10 5 2 2.</_></rects>
      <tilted>0</tilted></_>
    <_>
      <rects>
        <_>
          23 18 3 9 -1.</_>
        <_>
          23 21 3 3 3.</_></rects>
      <tilted>0</tilted></_>
    <_>
      <rects>
        <_>
          23 18 24 7 -1.</_>
        <_>
          35 18 12 7 2.</_></rects>
      <tilted>0</tilted></_>
    <_>
      <rects>
        <_>
          23 19 2 18 -1.</_>
        <_>
          23 25 2 6 3.</_></rects>
      <tilted>0</tilted></_>
    <_>
      <rects>
        <_>
          23 22 2 4 -1.</_>
        <_>
          24 22 1 4 2.</_></rects>
      <tilted>0</tilted></_>
    <_>
      <rects>
        <_>
          23 22 2 9 -1.</_>
        <_>
          23 25 2 3 3.</_></rects>
      <tilted>0</tilted></_>
    <_>
      <rects>
        <_>
          23 25 3 9 -1.</_>
        <_>
          23 28 3 3 3.</_></rects>
      <tilted>0</tilted></_>
    <_>
      <rects>
        <_>
          24 12 7 14 -1.</_>
        <_>
          24 19 7 7 2.</_></rects>
      <tilted>0</tilted></_>
    <_>
      <rects>
        <_>
          24 14 3 12 -1.</_>
        <_>
          24 18 3 4 3.</_></rects>
      <tilted>0</tilted></_>
    <_>
      <rects>
        <_>
          24 18 2 18 -1.</_>
        <_>
          24 24 2 6 3.</_></rects>
      <tilted>0</tilted></_>
    <_>
      <rects>
        <_>
          24 20 1 10 -1.</_>
        <_>
          24 25 1 5 2.</_></rects>
      <tilted>0</tilted></_>
    <_>
      <rects>
        <_>
          24 21 1 6 -1.</_>
        <_>
          24 23 1 2 3.</_></rects>
      <tilted>0</tilted></_>
    <_>
      <rects>
        <_>
          24 22 2 3 -1.</_>
        <_>
          25 22 1 3 2.</_></rects>
      <tilted>0</tilted></_>
    <_>
      <rects>
        <_>
          24 22 1 6 -1.</_>
        <_>
          24 25 1 3 2.</_></rects>
      <tilted>0</tilted></_>
    <_>
      <rects>
        <_>
          24 23 1 6 -1.</_>
        <_>
          24 26 1 3 2.</_></rects>
      <tilted>0</tilted></_>
    <_>
      <rects>
        <_>
          24 24 1 6 -1.</_>
        <_>
          24 27 1 3 2.</_></rects>
      <tilted>0</tilted></_>
    <_>
      <rects>
        <_>
          24 25 1 4 -1.</_>
        <_>
          24 27 1 2 2.</_></rects>
      <tilted>0</tilted></_>
    <_>
      <rects>
        <_>
          25 6 7 12 -1.</_>
        <_>
          25 10 7 4 3.</_></rects>
      <tilted>0</tilted></_>
    <_>
      <rects>
        <_>
          25 21 1 6 -1.</_>
        <_>
          25 24 1 3 2.</_></rects>
      <tilted>0</tilted></_>
    <_>
      <rects>
        <_>
          26 10 2 9 -1.</_>
        <_>
          26 13 2 3 3.</_></rects>
      <tilted>0</tilted></_>
    <_>
      <rects>
        <_>
          26 19 4 17 -1.</_>
        <_>
          28 19 2 17 2.</_></rects>
      <tilted>0</tilted></_>
    <_>
      <rects>
        <_>
          26 26 15 9 -1.</_>
        <_>
          31 26 5 9 3.</_></rects>
      <tilted>0</tilted></_>
    <_>
      <rects>
        <_>
          33 11 7 20 -1.</_>
        <_>
          33 21 7 10 2.</_></rects>
      <tilted>0</tilted></_>
    <_>
      <rects>
        <_>
          34 23 10 8 -1.</_>
        <_>
          39 23 5 8 2.</_></rects>
      <tilted>0</tilted></_>
    <_>
      <rects>
        <_>
          35 24 10 6 -1.</_>
        <_>
          40 24 5 6 2.</_></rects>
      <tilted>0</tilted></_>
    <_>
      <rects>
        <_>
          38 24 4 2 -1.</_>
        <_>
          40 24 2 2 2.</_></rects>
      <tilted>0</tilted></_>
    <_>
      <rects>
        <_>
          38 25 6 2 -1.</_>
        <_>
          40 25 2 2 3.</_></rects>
      <tilted>0</tilted></_>
    <_>
      <rects>
        <_>
          38 26 6 3 -1.</_>
        <_>
          41 26 3 3 2.</_></rects>
      <tilted>0</tilted></_>
    <_>
      <rects>
        <_>
          39 9 9 11 -1.</_>
        <_>
          42 9 3 11 3.</_></rects>
      <tilted>0</tilted></_>
    <_>
      <rects>
        <_>
          39 29 4 1 -1.</_>
        <_>
          41 29 2 1 2.</_></rects>
      <tilted>0</tilted></_>
    <_>
      <rects>
        <_>
          40 26 3 2 -1.</_>
        <_>
          41 26 1 2 3.</_></rects>
      <tilted>0</tilted></_>
    <_>
      <rects>
        <_>
          40 26 4 2 -1.</_>
        <_>
          42 26 2 2 2.</_></rects>
      <tilted>0</tilted></_>
    <_>
      <rects>
        <_>
          41 24 4 3 -1.</_>
        <_>
          43 24 2 3 2.</_></rects>
      <tilted>0</tilted></_>
    <_>
      <rects>
        <_>
          41 24 2 6 -1.</_>
        <_>
          41 27 2 3 2.</_></rects>
      <tilted>0</tilted></_>
    <_>
      <rects>
        <_>
          42 18 1 12 -1.</_>
        <_>
          42 24 1 6 2.</_></rects>
      <tilted>0</tilted></_>
    <_>
      <rects>
        <_>
          42 24 2 4 -1.</_>
        <_>
          42 26 2 2 2.</_></rects>
      <tilted>0</tilted></_>
    <_>
      <rects>
        <_>
          43 22 2 2 -1.</_>
        <_>
          44 22 1 2 2.</_></rects>
      <tilted>0</tilted></_>
    <_>
      <rects>
        <_>
          44 10 4 18 -1.</_>
        <_>
          44 10 2 9 2.</_>
        <_>
          46 19 2 9 2.</_></rects>
      <tilted>0</tilted></_>
    <_>
      <rects>
        <_>
          44 23 4 3 -1.</_>
        <_>
          46 23 2 3 2.</_></rects>
      <tilted>0</tilted></_></features></cascade>
</opencv_storage>
