<?xml version="1.0"?>
<opencv_storage>
<cascade>
  <stageType>BOOST</stageType>
  <featureType>HAAR</featureType>
  <height>48</height>
  <width>48</width>
  <stageParams>
    <boostType>GAB</boostType>
    <minHitRate>9.9500000476837158e-01</minHitRate>
    <maxFalseAlarm>5.0000000000000000e-01</maxFalseAlarm>
    <weightTrimRate>9.4999999999999996e-01</weightTrimRate>
    <maxDepth>1</maxDepth>
    <maxWeakCount>100</maxWeakCount></stageParams>
  <featureParams>
    <maxCatCount>0</maxCatCount>
    <featSize>1</featSize>
    <mode>BASIC</mode></featureParams>
  <stageNum>13</stageNum>
  <stages>
    <!-- stage 0 -->
    <_>
      <maxWeakCount>2</maxWeakCount>
      <stageThreshold>-2.3732858896255493e-01</stageThreshold>
      <weakClassifiers>
        <_>
          <internalNodes>
            0 -1 13 2.7829870581626892e-02</internalNodes>
          <leafValues>
            -9.5299649238586426e-01 8.4271752834320068e-01</leafValues></_>
        <_>
          <internalNodes>
            0 -1 51 -2.2532995790243149e-03</internalNodes>
          <leafValues>
            7.1566790342330933e-01 -8.9924049377441406e-01</leafValues></_></weakClassifiers></_>
    <!-- stage 1 -->
    <_>
      <maxWeakCount>2</maxWeakCount>
      <stageThreshold>-3.7692520022392273e-01</stageThreshold>
      <weakClassifiers>
        <_>
          <internalNodes>
            0 -1 5 8.8140498846769333e-03</internalNodes>
          <leafValues>
            -9.5827537775039673e-01 7.4046468734741211e-01</leafValues></_>
        <_>
          <internalNodes>
            0 -1 31 4.3682530522346497e-03</internalNodes>
          <leafValues>
            -8.6060410737991333e-01 5.8135020732879639e-01</leafValues></_></weakClassifiers></_>
    <!-- stage 2 -->
    <_>
      <maxWeakCount>3</maxWeakCount>
      <stageThreshold>-3.5255908966064453e-02</stageThreshold>
      <weakClassifiers>
        <_>
          <internalNodes>
            0 -1 48 -9.5057338476181030e-03</internalNodes>
          <leafValues>
            6.9105690717697144e-01 -9.2760181427001953e-01</leafValues></_>
        <_>
          <internalNodes>
            0 -1 12 -1.1855310294777155e-03</internalNodes>
          <leafValues>
            4.6205601096153259e-01 -9.3919473886489868e-01</leafValues></_>
        <_>
          <internalNodes>
            0 -1 27 -3.7586856633424759e-03</internalNodes>
          <leafValues>
            4.3028989434242249e-01 -9.0140551328659058e-01</leafValues></_></weakClassifiers></_>
    <!-- stage 3 -->
    <_>
      <maxWeakCount>3</maxWeakCount>
      <stageThreshold>1.2191419489681721e-02</stageThreshold>
      <weakClassifiers>
        <_>
          <internalNodes>
            0 -1 38 6.4925183542072773e-03</internalNodes>
          <leafValues>
            -8.2622951269149780e-01 6.2928867340087891e-01</leafValues></_>
        <_>
          <internalNodes>
            0 -1 34 4.2017088271677494e-03</internalNodes>
          <leafValues>
            -8.0201977491378784e-01 4.9336677789688110e-01</leafValues></_>
        <_>
          <internalNodes>
            0 -1 52 -8.7366075604222715e-05</internalNodes>
          <leafValues>
            3.4505414962768555e-01 -9.6120613813400269e-01</leafValues></_></weakClassifiers></_>
    <!-- stage 4 -->
    <_>
      <maxWeakCount>3</maxWeakCount>
      <stageThreshold>-2.8402721881866455e-01</stageThreshold>
      <weakClassifiers>
        <_>
          <internalNodes>
            0 -1 2 1.9220195710659027e-02</internalNodes>
          <leafValues>
            -9.2253524065017700e-01 6.2664473056793213e-01</leafValues></_>
        <_>
          <internalNodes>
            0 -1 26 -1.3928703265264630e-04</internalNodes>
          <leafValues>
            3.2863381505012512e-01 -9.8533570766448975e-01</leafValues></_>
        <_>
          <internalNodes>
            0 -1 54 -2.4997449145303108e-05</internalNodes>
          <leafValues>
            3.0987420678138733e-01 -8.5057878494262695e-01</leafValues></_></weakClassifiers></_>
    <!-- stage 5 -->
    <_>
      <maxWeakCount>4</maxWeakCount>
      <stageThreshold>-5.5388730019330978e-02</stageThreshold>
      <weakClassifiers>
        <_>
          <internalNodes>
            0 -1 24 2.0715259597636759e-04</internalNodes>
          <leafValues>
            5.9327459335327148e-01 -9.6015936136245728e-01</leafValues></_>
        <_>
          <internalNodes>
            0 -1 41 -6.4874356612563133e-03</internalNodes>
          <leafValues>
            3.2528048753738403e-01 -9.0414434671401978e-01</leafValues></_>
        <_>
          <internalNodes>
            0 -1 35 -3.5036224871873856e-03</internalNodes>
          <leafValues>
            -9.0544253587722778e-01 2.9394215345382690e-01</leafValues></_>
        <_>
          <internalNodes>
            0 -1 4 3.1566333491355181e-03</internalNodes>
          <leafValues>
            -9.1733956336975098e-01 2.8554800152778625e-01</leafValues></_></weakClassifiers></_>
    <!-- stage 6 -->
    <_>
      <maxWeakCount>5</maxWeakCount>
      <stageThreshold>-3.9748319983482361e-01</stageThreshold>
      <weakClassifiers>
        <_>
          <internalNodes>
            0 -1 9 1.4530732296407223e-03</internalNodes>
          <leafValues>
            -5.7262903451919556e-01 6.8158745765686035e-01</leafValues></_>
        <_>
          <internalNodes>
            0 -1 43 -1.3947059051133692e-04</internalNodes>
          <leafValues>
            4.8163864016532898e-01 -6.2812590599060059e-01</leafValues></_>
        <_>
          <internalNodes>
            0 -1 49 1.3048110122326761e-04</internalNodes>
          <leafValues>
            -7.9219734668731689e-01 3.4797504544258118e-01</leafValues></_>
        <_>
          <internalNodes>
            0 -1 15 1.2939150910824537e-03</internalNodes>
          <leafValues>
            2.8931644558906555e-01 -8.2999700307846069e-01</leafValues></_>
        <_>
          <internalNodes>
            0 -1 0 3.3619705587625504e-02</internalNodes>
          <leafValues>
            1.9638808071613312e-01 -9.6984499692916870e-01</leafValues></_></weakClassifiers></_>
    <!-- stage 7 -->
    <_>
      <maxWeakCount>4</maxWeakCount>
      <stageThreshold>-7.9956525564193726e-01</stageThreshold>
      <weakClassifiers>
        <_>
          <internalNodes>
            0 -1 22 -3.4282507840543985e-03</internalNodes>
          <leafValues>
            -9.7663551568984985e-01 5.5132192373275757e-01</leafValues></_>
        <_>
          <internalNodes>
            0 -1 47 5.7060383260250092e-03</internalNodes>
          <leafValues>
            -7.9486680030822754e-01 3.6158341169357300e-01</leafValues></_>
        <_>
          <internalNodes>
            0 -1 7 2.4048473685979843e-02</internalNodes>
          <leafValues>
            -8.5499912500381470e-01 3.0393034219741821e-01</leafValues></_>
        <_>
          <internalNodes>
            0 -1 11 3.4315548837184906e-03</internalNodes>
          <leafValues>
            2.9897871613502502e-01 -9.1835451126098633e-01</leafValues></_></weakClassifiers></_>
    <!-- stage 8 -->
    <_>
      <maxWeakCount>6</maxWeakCount>
      <stageThreshold>-5.8508646488189697e-01</stageThreshold>
      <weakClassifiers>
        <_>
          <internalNodes>
            0 -1 3 -4.5244949869811535e-03</internalNodes>
          <leafValues>
            -8.5877865552902222e-01 5.8562195301055908e-01</leafValues></_>
        <_>
          <internalNodes>
            0 -1 32 -2.0695507992058992e-03</internalNodes>
          <leafValues>
            3.1435284018516541e-01 -9.6404230594635010e-01</leafValues></_>
        <_>
          <internalNodes>
            0 -1 40 -1.9362269085831940e-04</internalNodes>
          <leafValues>
            -7.3824447393417358e-01 4.0507599711418152e-01</leafValues></_>
        <_>
          <internalNodes>
            0 -1 33 -2.9010374419158325e-05</internalNodes>
          <leafValues>
            2.5165674090385437e-01 -9.1330784559249878e-01</leafValues></_>
        <_>
          <internalNodes>
            0 -1 19 2.7080168365500867e-04</internalNodes>
          <leafValues>
            2.0921634137630463e-01 -9.4354796409606934e-01</leafValues></_>
        <_>
          <internalNodes>
            0 -1 28 -2.6816231547854841e-04</internalNodes>
          <leafValues>
            -9.5240610837936401e-01 2.3671075701713562e-01</leafValues></_></weakClassifiers></_>
    <!-- stage 9 -->
    <_>
      <maxWeakCount>5</maxWeakCount>
      <stageThreshold>-6.2126249074935913e-01</stageThreshold>
      <weakClassifiers>
        <_>
          <internalNodes>
            0 -1 8 -4.7412319108843803e-03</internalNodes>
          <leafValues>
            5.4980391263961792e-01 -8.9333331584930420e-01</leafValues></_>
        <_>
          <internalNodes>
            0 -1 37 8.8338647037744522e-03</internalNodes>
          <leafValues>
            3.3887389302253723e-01 -8.9624267816543579e-01</leafValues></_>
        <_>
          <internalNodes>
            0 -1 20 8.6803798330947757e-04</internalNodes>
          <leafValues>
            -7.8320592641830444e-01 2.8550970554351807e-01</leafValues></_>
        <_>
          <internalNodes>
            0 -1 6 -8.1791146658360958e-04</internalNodes>
          <leafValues>
            -7.5028270483016968e-01 3.0985718965530396e-01</leafValues></_>
        <_>
          <internalNodes>
            0 -1 44 -6.8296666722744703e-04</internalNodes>
          <leafValues>
            -9.0094888210296631e-01 1.9852502644062042e-01</leafValues></_></weakClassifiers></_>
    <!-- stage 10 -->
    <_>
      <maxWeakCount>6</maxWeakCount>
      <stageThreshold>-6.0845386981964111e-01</stageThreshold>
      <weakClassifiers>
        <_>
          <internalNodes>
            0 -1 16 5.6788017973303795e-03</internalNodes>
          <leafValues>
            -7.3026317358016968e-01 6.0367894172668457e-01</leafValues></_>
        <_>
          <internalNodes>
            0 -1 42 -2.6058766525238752e-04</internalNodes>
          <leafValues>
            -8.5434776544570923e-01 3.3742734789848328e-01</leafValues></_>
        <_>
          <internalNodes>
            0 -1 29 -6.5465763327665627e-05</internalNodes>
          <leafValues>
            2.6838552951812744e-01 -9.4444072246551514e-01</leafValues></_>
        <_>
          <internalNodes>
            0 -1 18 2.0323024364188313e-04</internalNodes>
          <leafValues>
            2.2113150358200073e-01 -8.9572900533676147e-01</leafValues></_>
        <_>
          <internalNodes>
            0 -1 50 -3.5606310120783746e-04</internalNodes>
          <leafValues>
            2.6529094576835632e-01 -7.4072343111038208e-01</leafValues></_>
        <_>
          <internalNodes>
            0 -1 21 7.6054595410823822e-04</internalNodes>
          <leafValues>
            2.4240025877952576e-01 -9.1656565666198730e-01</leafValues></_></weakClassifiers></_>
    <!-- stage 11 -->
    <_>
      <maxWeakCount>5</maxWeakCount>
      <stageThreshold>-6.7406785488128662e-01</stageThreshold>
      <weakClassifiers>
        <_>
          <internalNodes>
            0 -1 17 2.1347631700336933e-03</internalNodes>
          <leafValues>
            -6.0493826866149902e-01 6.3452225923538208e-01</leafValues></_>
        <_>
          <internalNodes>
            0 -1 14 -1.1253623233642429e-04</internalNodes>
          <leafValues>
            2.9083162546157837e-01 -9.8990160226821899e-01</leafValues></_>
        <_>
          <internalNodes>
            0 -1 39 1.0542701929807663e-03</internalNodes>
          <leafValues>
            -7.5204747915267944e-01 2.7999836206436157e-01</leafValues></_>
        <_>
          <internalNodes>
            0 -1 10 3.8700278382748365e-03</internalNodes>
          <leafValues>
            -9.1067177057266235e-01 2.4309904873371124e-01</leafValues></_>
        <_>
          <internalNodes>
            0 -1 25 1.4036618813406676e-04</internalNodes>
          <leafValues>
            1.8678766489028931e-01 -8.8305860757827759e-01</leafValues></_></weakClassifiers></_>
    <!-- stage 12 -->
    <_>
      <maxWeakCount>7</maxWeakCount>
      <stageThreshold>-1.0003643035888672e+00</stageThreshold>
      <weakClassifiers>
        <_>
          <internalNodes>
            0 -1 53 -7.9036661190912127e-05</internalNodes>
          <leafValues>
            5.3037381172180176e-01 -8.3796298503875732e-01</leafValues></_>
        <_>
          <internalNodes>
            0 -1 23 -9.1720744967460632e-04</internalNodes>
          <leafValues>
            5.9986305236816406e-01 -3.9892506599426270e-01</leafValues></_>
        <_>
          <internalNodes>
            0 -1 36 -6.1099999584257603e-04</internalNodes>
          <leafValues>
            3.1918320059776306e-01 -9.7299903631210327e-01</leafValues></_>
        <_>
          <internalNodes>
            0 -1 45 -1.3866304652765393e-04</internalNodes>
          <leafValues>
            -7.9503381252288818e-01 2.3425333201885223e-01</leafValues></_>
        <_>
          <internalNodes>
            0 -1 1 2.5446794927120209e-02</internalNodes>
          <leafValues>
            2.1840195357799530e-01 -8.8695263862609863e-01</leafValues></_>
        <_>
          <internalNodes>
            0 -1 30 -5.6271557696163654e-05</internalNodes>
          <leafValues>
            2.5486376881599426e-01 -7.7528864145278931e-01</leafValues></_>
        <_>
          <internalNodes>
            0 -1 46 5.3553911129711196e-05</internalNodes>
          <leafValues>
            -8.3414524793624878e-01 2.3910856246948242e-01</leafValues></_></weakClassifiers></_></stages>
  <features>
    <_>
      <rects>
        <_>
          12 14 30 22 -1.</_>
        <_>
          12 14 15 11 2.</_>
        <_>
          27 25 15 11 2.</_></rects>
      <tilted>0</tilted></_>
    <_>
      <rects>
        <_>
          12 17 28 20 -1.</_>
        <_>
          12 17 14 10 2.</_>
        <_>
          26 27 14 10 2.</_></rects>
      <tilted>0</tilted></_>
    <_>
      <rects>
        <_>
          12 18 21 14 -1.</_>
        <_>
          19 18 7 14 3.</_></rects>
      <tilted>0</tilted></_>
    <_>
      <rects>
        <_>
          12 18 24 6 -1.</_>
        <_>
          24 18 12 6 2.</_></rects>
      <tilted>0</tilted></_>
    <_>
      <rects>
        <_>
          12 20 6 13 -1.</_>
        <_>
          15 20 3 13 2.</_></rects>
      <tilted>0</tilted></_>
    <_>
      <rects>
        <_>
          12 20 10 11 -1.</_>
        <_>
          17 20 5 11 2.</_></rects>
      <tilted>0</tilted></_>
    <_>
      <rects>
        <_>
          13 16 1 18 -1.</_>
        <_>
          13 25 1 9 2.</_></rects>
      <tilted>0</tilted></_>
    <_>
      <rects>
        <_>
          13 18 18 18 -1.</_>
        <_>
          13 24 18 6 3.</_></rects>
      <tilted>0</tilted></_>
    <_>
      <rects>
        <_>
          13 20 8 18 -1.</_>
        <_>
          13 29 8 9 2.</_></rects>
      <tilted>0</tilted></_>
    <_>
      <rects>
        <_>
          13 21 12 6 -1.</_>
        <_>
          13 21 6 3 2.</_>
        <_>
          19 24 6 3 2.</_></rects>
      <tilted>0</tilted></_>
    <_>
      <rects>
        <_>
          15 23 8 8 -1.</_>
        <_>
          19 23 4 8 2.</_></rects>
      <tilted>0</tilted></_>
    <_>
      <rects>
        <_>
          16 16 18 7 -1.</_>
        <_>
          25 16 9 7 2.</_></rects>
      <tilted>0</tilted></_>
    <_>
      <rects>
        <_>
          18 28 11 4 -1.</_>
        <_>
          18 30 11 2 2.</_></rects>
      <tilted>0</tilted></_>
    <_>
      <rects>
        <_>
          19 12 7 30 -1.</_>
        <_>
          19 22 7 10 3.</_></rects>
      <tilted>0</tilted></_>
    <_>
      <rects>
        <_>
          19 34 7 2 -1.</_>
        <_>
          19 35 7 1 2.</_></rects>
      <tilted>0</tilted></_>
    <_>
      <rects>
        <_>
          20 14 8 11 -1.</_>
        <_>
          24 14 4 11 2.</_></rects>
      <tilted>0</tilted></_>
    <_>
      <rects>
        <_>
          20 18 11 10 -1.</_>
        <_>
          20 23 11 5 2.</_></rects>
      <tilted>0</tilted></_>
    <_>
      <rects>
        <_>
          20 22 5 9 -1.</_>
        <_>
          20 25 5 3 3.</_></rects>
      <tilted>0</tilted></_>
    <_>
      <rects>
        <_>
          20 30 9 3 -1.</_>
        <_>
          20 31 9 1 3.</_></rects>
      <tilted>0</tilted></_>
    <_>
      <rects>
        <_>
          20 34 10 3 -1.</_>
        <_>
          20 35 10 1 3.</_></rects>
      <tilted>0</tilted></_>
    <_>
      <rects>
        <_>
          21 11 6 4 -1.</_>
        <_>
          21 13 6 2 2.</_></rects>
      <tilted>0</tilted></_>
    <_>
      <rects>
        <_>
          21 17 10 15 -1.</_>
        <_>
          26 17 5 15 2.</_></rects>
      <tilted>0</tilted></_>
    <_>
      <rects>
        <_>
          21 20 18 16 -1.</_>
        <_>
          27 20 6 16 3.</_></rects>
      <tilted>0</tilted></_>
    <_>
      <rects>
        <_>
          21 25 9 4 -1.</_>
        <_>
          24 25 3 4 3.</_></rects>
      <tilted>0</tilted></_>
    <_>
      <rects>
        <_>
          21 31 8 3 -1.</_>
        <_>
          21 32 8 1 3.</_></rects>
      <tilted>0</tilted></_>
    <_>
      <rects>
        <_>
          21 32 6 3 -1.</_>
        <_>
          21 33 6 1 3.</_></rects>
      <tilted>0</tilted></_>
    <_>
      <rects>
        <_>
          21 32 8 2 -1.</_>
        <_>
          21 33 8 1 2.</_></rects>
      <tilted>0</tilted></_>
    <_>
      <rects>
        <_>
          21 33 8 8 -1.</_>
        <_>
          21 37 8 4 2.</_></rects>
      <tilted>0</tilted></_>
    <_>
      <rects>
        <_>
          21 34 9 3 -1.</_>
        <_>
          21 35 9 1 3.</_></rects>
      <tilted>0</tilted></_>
    <_>
      <rects>
        <_>
          21 36 5 2 -1.</_>
        <_>
          21 37 5 1 2.</_></rects>
      <tilted>0</tilted></_>
    <_>
      <rects>
        <_>
          21 39 4 2 -1.</_>
        <_>
          21 40 4 1 2.</_></rects>
      <tilted>0</tilted></_>
    <_>
      <rects>
        <_>
          22 11 15 6 -1.</_>
        <_>
          22 14 15 3 2.</_></rects>
      <tilted>0</tilted></_>
    <_>
      <rects>
        <_>
          22 21 14 11 -1.</_>
        <_>
          29 21 7 11 2.</_></rects>
      <tilted>0</tilted></_>
    <_>
      <rects>
        <_>
          22 38 4 2 -1.</_>
        <_>
          22 39 4 1 2.</_></rects>
      <tilted>0</tilted></_>
    <_>
      <rects>
        <_>
          23 10 12 6 -1.</_>
        <_>
          23 13 12 3 2.</_></rects>
      <tilted>0</tilted></_>
    <_>
      <rects>
        <_>
          24 9 6 18 -1.</_>
        <_>
          24 15 6 6 3.</_></rects>
      <tilted>0</tilted></_>
    <_>
      <rects>
        <_>
          24 20 12 10 -1.</_>
        <_>
          30 20 6 10 2.</_></rects>
      <tilted>0</tilted></_>
    <_>
      <rects>
        <_>
          25 11 9 18 -1.</_>
        <_>
          25 17 9 6 3.</_></rects>
      <tilted>0</tilted></_>
    <_>
      <rects>
        <_>
          25 16 10 12 -1.</_>
        <_>
          25 22 10 6 2.</_></rects>
      <tilted>0</tilted></_>
    <_>
      <rects>
        <_>
          26 13 9 4 -1.</_>
        <_>
          26 15 9 2 2.</_></rects>
      <tilted>0</tilted></_>
    <_>
      <rects>
        <_>
          26 29 6 9 -1.</_>
        <_>
          29 29 3 9 2.</_></rects>
      <tilted>0</tilted></_>
    <_>
      <rects>
        <_>
          26 30 10 10 -1.</_>
        <_>
          26 35 10 5 2.</_></rects>
      <tilted>0</tilted></_>
    <_>
      <rects>
        <_>
          27 24 2 16 -1.</_>
        <_>
          28 24 1 16 2.</_></rects>
      <tilted>0</tilted></_>
    <_>
      <rects>
        <_>
          27 39 5 2 -1.</_>
        <_>
          27 40 5 1 2.</_></rects>
      <tilted>0</tilted></_>
    <_>
      <rects>
        <_>
          28 12 1 18 -1.</_>
        <_>
          28 18 1 6 3.</_></rects>
      <tilted>0</tilted></_>
    <_>
      <rects>
        <_>
          28 28 2 12 -1.</_>
        <_>
          29 28 1 12 2.</_></rects>
      <tilted>0</tilted></_>
    <_>
      <rects>
        <_>
          29 19 2 4 -1.</_>
        <_>
          29 21 2 2 2.</_></rects>
      <tilted>0</tilted></_>
    <_>
      <rects>
        <_>
          31 20 12 14 -1.</_>
        <_>
          35 20 4 14 3.</_></rects>
      <tilted>0</tilted></_>
    <_>
      <rects>
        <_>
          31 23 12 8 -1.</_>
        <_>
          37 23 6 8 2.</_></rects>
      <tilted>0</tilted></_>
    <_>
      <rects>
        <_>
          35 13 2 4 -1.</_>
        <_>
          35 15 2 2 2.</_></rects>
      <tilted>0</tilted></_>
    <_>
      <rects>
        <_>
          37 24 2 7 -1.</_>
        <_>
          38 24 1 7 2.</_></rects>
      <tilted>0</tilted></_>
    <_>
      <rects>
        <_>
          38 21 4 11 -1.</_>
        <_>
          40 21 2 11 2.</_></rects>
      <tilted>0</tilted></_>
    <_>
      <rects>
        <_>
          38 24 2 3 -1.</_>
        <_>
          39 24 1 3 2.</_></rects>
      <tilted>0</tilted></_>
    <_>
      <rects>
        <_>
          39 27 2 3 -1.</_>
        <_>
          40 27 1 3 2.</_></rects>
      <tilted>0</tilted></_>
    <_>
      <rects>
        <_>
          40 25 2 1 -1.</_>
        <_>
          41 25 1 1 2.</_></rects>
      <tilted>0</tilted></_></features></cascade>
</opencv_storage>
