<?xml version="1.0"?>
<opencv_storage>
<cascade>
  <stageType>BOOST</stageType>
  <featureType>HAAR</featureType>
  <height>50</height>
  <width>50</width>
  <stageParams>
    <boostType>GAB</boostType>
    <minHitRate>9.9500000476837158e-01</minHitRate>
    <maxFalseAlarm>5.0000000000000000e-01</maxFalseAlarm>
    <weightTrimRate>9.4999999999999996e-01</weightTrimRate>
    <maxDepth>1</maxDepth>
    <maxWeakCount>100</maxWeakCount></stageParams>
  <featureParams>
    <maxCatCount>0</maxCatCount>
    <featSize>1</featSize>
    <mode>BASIC</mode></featureParams>
  <stageNum>19</stageNum>
  <stages>
    <!-- stage 0 -->
    <_>
      <maxWeakCount>6</maxWeakCount>
      <stageThreshold>-1.2617971897125244e+00</stageThreshold>
      <weakClassifiers>
        <_>
          <internalNodes>
            0 -1 127 -9.2683061957359314e-03</internalNodes>
          <leafValues>
            4.3513956665992737e-01 -7.4132490158081055e-01</leafValues></_>
        <_>
          <internalNodes>
            0 -1 115 5.5952528491616249e-03</internalNodes>
          <leafValues>
            -3.4090822935104370e-01 7.1162045001983643e-01</leafValues></_>
        <_>
          <internalNodes>
            0 -1 24 -3.7511168047785759e-03</internalNodes>
          <leafValues>
            6.8862950801849365e-01 -3.7296760082244873e-01</leafValues></_>
        <_>
          <internalNodes>
            0 -1 160 -1.5109738335013390e-02</internalNodes>
          <leafValues>
            5.9368693828582764e-01 -3.1147593259811401e-01</leafValues></_>
        <_>
          <internalNodes>
            0 -1 14 9.3302573077380657e-04</internalNodes>
          <leafValues>
            2.3622511327266693e-01 -9.5131897926330566e-01</leafValues></_>
        <_>
          <internalNodes>
            0 -1 39 3.9141089655458927e-04</internalNodes>
          <leafValues>
            2.6865434646606445e-01 -7.1212327480316162e-01</leafValues></_></weakClassifiers></_>
    <!-- stage 1 -->
    <_>
      <maxWeakCount>8</maxWeakCount>
      <stageThreshold>-1.3506979942321777e+00</stageThreshold>
      <weakClassifiers>
        <_>
          <internalNodes>
            0 -1 135 -7.3002213612198830e-03</internalNodes>
          <leafValues>
            4.6666666865348816e-01 -6.6183573007583618e-01</leafValues></_>
        <_>
          <internalNodes>
            0 -1 66 7.7955080196261406e-03</internalNodes>
          <leafValues>
            -3.5628131031990051e-01 6.4016389846801758e-01</leafValues></_>
        <_>
          <internalNodes>
            0 -1 189 6.1689941212534904e-03</internalNodes>
          <leafValues>
            -4.0738210082054138e-01 5.8136916160583496e-01</leafValues></_>
        <_>
          <internalNodes>
            0 -1 31 1.4973440556786954e-04</internalNodes>
          <leafValues>
            2.8641673922538757e-01 -7.0697742700576782e-01</leafValues></_>
        <_>
          <internalNodes>
            0 -1 123 1.6240602359175682e-02</internalNodes>
          <leafValues>
            -2.7335587143898010e-01 6.9609153270721436e-01</leafValues></_>
        <_>
          <internalNodes>
            0 -1 117 9.4487785827368498e-04</internalNodes>
          <leafValues>
            -2.8406164050102234e-01 5.8693021535873413e-01</leafValues></_>
        <_>
          <internalNodes>
            0 -1 48 -3.2330644316971302e-03</internalNodes>
          <leafValues>
            6.3139593601226807e-01 -2.0854221284389496e-01</leafValues></_>
        <_>
          <internalNodes>
            0 -1 79 -1.4247011858969927e-03</internalNodes>
          <leafValues>
            5.5434417724609375e-01 -2.7871233224868774e-01</leafValues></_></weakClassifiers></_>
    <!-- stage 2 -->
    <_>
      <maxWeakCount>9</maxWeakCount>
      <stageThreshold>-1.2488778829574585e+00</stageThreshold>
      <weakClassifiers>
        <_>
          <internalNodes>
            0 -1 159 1.7782308161258698e-02</internalNodes>
          <leafValues>
            -6.5903890132904053e-01 1.9825072586536407e-01</leafValues></_>
        <_>
          <internalNodes>
            0 -1 133 4.2209653183817863e-03</internalNodes>
          <leafValues>
            -3.1287047266960144e-01 5.5491477251052856e-01</leafValues></_>
        <_>
          <internalNodes>
            0 -1 7 -1.1448550503700972e-03</internalNodes>
          <leafValues>
            -7.1296560764312744e-01 2.2414515912532806e-01</leafValues></_>
        <_>
          <internalNodes>
            0 -1 9 5.7033938355743885e-04</internalNodes>
          <leafValues>
            2.7177372574806213e-01 -8.2662254571914673e-01</leafValues></_>
        <_>
          <internalNodes>
            0 -1 97 -1.1032147705554962e-01</internalNodes>
          <leafValues>
            5.6945174932479858e-01 -2.9053434729576111e-01</leafValues></_>
        <_>
          <internalNodes>
            0 -1 188 1.1984374374151230e-02</internalNodes>
          <leafValues>
            -3.7944945693016052e-01 4.9137786030769348e-01</leafValues></_>
        <_>
          <internalNodes>
            0 -1 221 -1.4325003139674664e-03</internalNodes>
          <leafValues>
            -6.6505849361419678e-01 3.0306309461593628e-01</leafValues></_>
        <_>
          <internalNodes>
            0 -1 202 2.7581938775256276e-04</internalNodes>
          <leafValues>
            1.2216846644878387e-01 -9.3068599700927734e-01</leafValues></_>
        <_>
          <internalNodes>
            0 -1 12 6.6045634448528290e-03</internalNodes>
          <leafValues>
            -3.0056622624397278e-01 5.9783869981765747e-01</leafValues></_></weakClassifiers></_>
    <!-- stage 3 -->
    <_>
      <maxWeakCount>9</maxWeakCount>
      <stageThreshold>-1.1083893775939941e+00</stageThreshold>
      <weakClassifiers>
        <_>
          <internalNodes>
            0 -1 136 -1.1176889762282372e-02</internalNodes>
          <leafValues>
            9.7323603928089142e-02 -7.0460706949234009e-01</leafValues></_>
        <_>
          <internalNodes>
            0 -1 87 -6.6442444920539856e-02</internalNodes>
          <leafValues>
            4.2763996124267578e-01 -3.8832569122314453e-01</leafValues></_>
        <_>
          <internalNodes>
            0 -1 76 5.9780548326671124e-03</internalNodes>
          <leafValues>
            -4.1452217102050781e-01 3.9509153366088867e-01</leafValues></_>
        <_>
          <internalNodes>
            0 -1 207 -7.5885551050305367e-03</internalNodes>
          <leafValues>
            6.6062170267105103e-01 -1.8562574684619904e-01</leafValues></_>
        <_>
          <internalNodes>
            0 -1 195 1.0108746588230133e-02</internalNodes>
          <leafValues>
            -2.1053412556648254e-01 6.0262060165405273e-01</leafValues></_>
        <_>
          <internalNodes>
            0 -1 26 3.0237952247262001e-02</internalNodes>
          <leafValues>
            -2.5023373961448669e-01 4.8477658629417419e-01</leafValues></_>
        <_>
          <internalNodes>
            0 -1 57 -5.8202566578984261e-03</internalNodes>
          <leafValues>
            5.8267235755920410e-01 -2.2793518006801605e-01</leafValues></_>
        <_>
          <internalNodes>
            0 -1 218 -2.3380329366773367e-04</internalNodes>
          <leafValues>
            -7.8599572181701660e-01 1.4822645485401154e-01</leafValues></_>
        <_>
          <internalNodes>
            0 -1 61 -4.9559120088815689e-03</internalNodes>
          <leafValues>
            3.6680895090103149e-01 -3.3783340454101563e-01</leafValues></_></weakClassifiers></_>
    <!-- stage 4 -->
    <_>
      <maxWeakCount>9</maxWeakCount>
      <stageThreshold>-1.0810751914978027e+00</stageThreshold>
      <weakClassifiers>
        <_>
          <internalNodes>
            0 -1 116 -2.0278897136449814e-02</internalNodes>
          <leafValues>
            6.4432986080646515e-02 -6.2500000000000000e-01</leafValues></_>
        <_>
          <internalNodes>
            0 -1 49 -3.9441436529159546e-03</internalNodes>
          <leafValues>
            4.2829188704490662e-01 -2.9024145007133484e-01</leafValues></_>
        <_>
          <internalNodes>
            0 -1 223 -8.2881291746161878e-05</internalNodes>
          <leafValues>
            2.3832216858863831e-01 -4.7564548254013062e-01</leafValues></_>
        <_>
          <internalNodes>
            0 -1 2 6.3072347984416410e-06</internalNodes>
          <leafValues>
            -4.1791072487831116e-01 2.9329699277877808e-01</leafValues></_>
        <_>
          <internalNodes>
            0 -1 36 5.2937236614525318e-04</internalNodes>
          <leafValues>
            1.7988151311874390e-01 -8.7182193994522095e-01</leafValues></_>
        <_>
          <internalNodes>
            0 -1 16 1.3068735599517822e-02</internalNodes>
          <leafValues>
            -2.5228890776634216e-01 5.9876102209091187e-01</leafValues></_>
        <_>
          <internalNodes>
            0 -1 118 2.0228815264999866e-03</internalNodes>
          <leafValues>
            -2.8447881340980530e-01 4.4620242714881897e-01</leafValues></_>
        <_>
          <internalNodes>
            0 -1 173 1.1258380487561226e-02</internalNodes>
          <leafValues>
            -3.1945252418518066e-01 4.0582969784736633e-01</leafValues></_>
        <_>
          <internalNodes>
            0 -1 38 -2.7880255947820842e-04</internalNodes>
          <leafValues>
            -7.5179535150527954e-01 1.5532262623310089e-01</leafValues></_></weakClassifiers></_>
    <!-- stage 5 -->
    <_>
      <maxWeakCount>10</maxWeakCount>
      <stageThreshold>-7.9294228553771973e-01</stageThreshold>
      <weakClassifiers>
        <_>
          <internalNodes>
            0 -1 124 3.2051214948296547e-03</internalNodes>
          <leafValues>
            -4.2643764615058899e-01 5.9276020526885986e-01</leafValues></_>
        <_>
          <internalNodes>
            0 -1 119 -9.6597522497177124e-03</internalNodes>
          <leafValues>
            3.3620002865791321e-01 -3.9686062932014465e-01</leafValues></_>
        <_>
          <internalNodes>
            0 -1 145 -8.6841522715985775e-05</internalNodes>
          <leafValues>
            1.8301944434642792e-01 -4.9306204915046692e-01</leafValues></_>
        <_>
          <internalNodes>
            0 -1 83 3.4867879003286362e-02</internalNodes>
          <leafValues>
            1.7897336184978485e-01 -9.8326188325881958e-01</leafValues></_>
        <_>
          <internalNodes>
            0 -1 4 1.0702938016038388e-04</internalNodes>
          <leafValues>
            -4.9717801809310913e-01 2.0613509416580200e-01</leafValues></_>
        <_>
          <internalNodes>
            0 -1 77 5.5433483794331551e-04</internalNodes>
          <leafValues>
            1.8249820172786713e-01 -5.5646991729736328e-01</leafValues></_>
        <_>
          <internalNodes>
            0 -1 85 -7.2857178747653961e-04</internalNodes>
          <leafValues>
            5.4799836874008179e-01 -1.9026751816272736e-01</leafValues></_>
        <_>
          <internalNodes>
            0 -1 91 4.3511349940672517e-04</internalNodes>
          <leafValues>
            -1.8582184612751007e-01 6.2142753601074219e-01</leafValues></_>
        <_>
          <internalNodes>
            0 -1 141 -5.6433619465678930e-04</internalNodes>
          <leafValues>
            5.1016068458557129e-01 -1.8360641598701477e-01</leafValues></_>
        <_>
          <internalNodes>
            0 -1 113 -5.3125519305467606e-02</internalNodes>
          <leafValues>
            6.8042463064193726e-01 -1.5102830529212952e-01</leafValues></_></weakClassifiers></_>
    <!-- stage 6 -->
    <_>
      <maxWeakCount>13</maxWeakCount>
      <stageThreshold>-1.2669222354888916e+00</stageThreshold>
      <weakClassifiers>
        <_>
          <internalNodes>
            0 -1 154 -1.9481765339151025e-03</internalNodes>
          <leafValues>
            4.8245614767074585e-01 -4.1291290521621704e-01</leafValues></_>
        <_>
          <internalNodes>
            0 -1 99 -2.4170099641196430e-04</internalNodes>
          <leafValues>
            -8.2397091388702393e-01 1.3010807335376740e-01</leafValues></_>
        <_>
          <internalNodes>
            0 -1 217 9.6686417236924171e-05</internalNodes>
          <leafValues>
            1.2888695299625397e-01 -6.7353492975234985e-01</leafValues></_>
        <_>
          <internalNodes>
            0 -1 185 -5.1166769117116928e-04</internalNodes>
          <leafValues>
            6.1430746316909790e-01 -1.5458984673023224e-01</leafValues></_>
        <_>
          <internalNodes>
            0 -1 171 -5.1579839782789350e-04</internalNodes>
          <leafValues>
            5.2942121028900146e-01 -2.0715422928333282e-01</leafValues></_>
        <_>
          <internalNodes>
            0 -1 216 1.1373788584023714e-03</internalNodes>
          <leafValues>
            1.6003634035587311e-01 -8.2054698467254639e-01</leafValues></_>
        <_>
          <internalNodes>
            0 -1 187 1.5899887075647712e-03</internalNodes>
          <leafValues>
            -3.2442981004714966e-01 3.2647293806076050e-01</leafValues></_>
        <_>
          <internalNodes>
            0 -1 203 -6.1547486111521721e-03</internalNodes>
          <leafValues>
            7.0222705602645874e-01 -1.8560783565044403e-01</leafValues></_>
        <_>
          <internalNodes>
            0 -1 112 -2.7854437939822674e-04</internalNodes>
          <leafValues>
            6.5335017442703247e-01 -1.6380749642848969e-01</leafValues></_>
        <_>
          <internalNodes>
            0 -1 34 2.5059009203687310e-04</internalNodes>
          <leafValues>
            1.6981296241283417e-01 -7.0370429754257202e-01</leafValues></_>
        <_>
          <internalNodes>
            0 -1 166 -9.1801909729838371e-04</internalNodes>
          <leafValues>
            4.2830687761306763e-01 -2.5706410408020020e-01</leafValues></_>
        <_>
          <internalNodes>
            0 -1 88 5.5361416889354587e-04</internalNodes>
          <leafValues>
            -2.0087173581123352e-01 5.0473564863204956e-01</leafValues></_>
        <_>
          <internalNodes>
            0 -1 230 1.2505946215242147e-03</internalNodes>
          <leafValues>
            1.4213971793651581e-01 -7.6648622751235962e-01</leafValues></_></weakClassifiers></_>
    <!-- stage 7 -->
    <_>
      <maxWeakCount>15</maxWeakCount>
      <stageThreshold>-1.4994527101516724e+00</stageThreshold>
      <weakClassifiers>
        <_>
          <internalNodes>
            0 -1 208 1.6467607347294688e-03</internalNodes>
          <leafValues>
            -4.8592188954353333e-01 2.0697167515754700e-01</leafValues></_>
        <_>
          <internalNodes>
            0 -1 11 -4.4427925604395568e-04</internalNodes>
          <leafValues>
            -6.6980355978012085e-01 1.3978315889835358e-01</leafValues></_>
        <_>
          <internalNodes>
            0 -1 21 5.3383614867925644e-03</internalNodes>
          <leafValues>
            -1.8882292509078979e-01 6.2171792984008789e-01</leafValues></_>
        <_>
          <internalNodes>
            0 -1 29 -5.2882544696331024e-04</internalNodes>
          <leafValues>
            3.7915548682212830e-01 -3.7522169947624207e-01</leafValues></_>
        <_>
          <internalNodes>
            0 -1 222 -9.5237173809437081e-06</internalNodes>
          <leafValues>
            2.7958655357360840e-01 -3.5321807861328125e-01</leafValues></_>
        <_>
          <internalNodes>
            0 -1 110 -7.7549651265144348e-02</internalNodes>
          <leafValues>
            -6.3086003065109253e-01 1.6498404741287231e-01</leafValues></_>
        <_>
          <internalNodes>
            0 -1 231 -2.2111053112894297e-05</internalNodes>
          <leafValues>
            2.7467599511146545e-01 -3.8097244501113892e-01</leafValues></_>
        <_>
          <internalNodes>
            0 -1 98 2.0922250114381313e-03</internalNodes>
          <leafValues>
            -2.8303840756416321e-01 4.0242874622344971e-01</leafValues></_>
        <_>
          <internalNodes>
            0 -1 18 1.2824103236198425e-02</internalNodes>
          <leafValues>
            -2.0569269359111786e-01 5.6083112955093384e-01</leafValues></_>
        <_>
          <internalNodes>
            0 -1 210 9.7296207968611270e-05</internalNodes>
          <leafValues>
            -2.9481217265129089e-01 3.7611579895019531e-01</leafValues></_>
        <_>
          <internalNodes>
            0 -1 220 -3.6686006933450699e-04</internalNodes>
          <leafValues>
            -6.7257177829742432e-01 1.7343531548976898e-01</leafValues></_>
        <_>
          <internalNodes>
            0 -1 121 2.4775988422334194e-03</internalNodes>
          <leafValues>
            1.6414394974708557e-01 -6.1509180068969727e-01</leafValues></_>
        <_>
          <internalNodes>
            0 -1 163 7.0236320607364178e-04</internalNodes>
          <leafValues>
            -1.7211377620697021e-01 6.1026138067245483e-01</leafValues></_>
        <_>
          <internalNodes>
            0 -1 224 1.3076959294266999e-04</internalNodes>
          <leafValues>
            1.5312075614929199e-01 -6.8616700172424316e-01</leafValues></_>
        <_>
          <internalNodes>
            0 -1 92 -1.9952605362050235e-04</internalNodes>
          <leafValues>
            4.1614803671836853e-01 -2.4255776405334473e-01</leafValues></_></weakClassifiers></_>
    <!-- stage 8 -->
    <_>
      <maxWeakCount>13</maxWeakCount>
      <stageThreshold>-1.2964564561843872e+00</stageThreshold>
      <weakClassifiers>
        <_>
          <internalNodes>
            0 -1 81 1.2390566989779472e-03</internalNodes>
          <leafValues>
            -6.1880558729171753e-01 6.0802068561315536e-02</leafValues></_>
        <_>
          <internalNodes>
            0 -1 6 -9.8044355399906635e-04</internalNodes>
          <leafValues>
            -7.6501619815826416e-01 1.1388305574655533e-01</leafValues></_>
        <_>
          <internalNodes>
            0 -1 8 1.5652503352612257e-03</internalNodes>
          <leafValues>
            1.3904790580272675e-01 -8.1463807821273804e-01</leafValues></_>
        <_>
          <internalNodes>
            0 -1 151 4.4439127668738365e-04</internalNodes>
          <leafValues>
            -2.2588987648487091e-01 6.0876327753067017e-01</leafValues></_>
        <_>
          <internalNodes>
            0 -1 71 5.6018156465142965e-04</internalNodes>
          <leafValues>
            1.6962932050228119e-01 -6.5319699048995972e-01</leafValues></_>
        <_>
          <internalNodes>
            0 -1 219 6.3746597152203321e-04</internalNodes>
          <leafValues>
            1.2993936240673065e-01 -7.7714973688125610e-01</leafValues></_>
        <_>
          <internalNodes>
            0 -1 153 -3.4431228414177895e-04</internalNodes>
          <leafValues>
            5.2848613262176514e-01 -2.0067821443080902e-01</leafValues></_>
        <_>
          <internalNodes>
            0 -1 73 7.4744736775755882e-04</internalNodes>
          <leafValues>
            -1.6394251585006714e-01 5.7559609413146973e-01</leafValues></_>
        <_>
          <internalNodes>
            0 -1 0 1.5843587461858988e-03</internalNodes>
          <leafValues>
            1.1793904751539230e-01 -9.4472956657409668e-01</leafValues></_>
        <_>
          <internalNodes>
            0 -1 149 2.6521538384258747e-03</internalNodes>
          <leafValues>
            -2.0314309000968933e-01 5.8543205261230469e-01</leafValues></_>
        <_>
          <internalNodes>
            0 -1 45 4.6437111450359225e-04</internalNodes>
          <leafValues>
            1.6190795600414276e-01 -7.6606458425521851e-01</leafValues></_>
        <_>
          <internalNodes>
            0 -1 191 5.0976598868146539e-04</internalNodes>
          <leafValues>
            -3.2308086752891541e-01 3.1613850593566895e-01</leafValues></_>
        <_>
          <internalNodes>
            0 -1 206 -7.3811700567603111e-03</internalNodes>
          <leafValues>
            4.8563632369041443e-01 -2.3979401588439941e-01</leafValues></_></weakClassifiers></_>
    <!-- stage 9 -->
    <_>
      <maxWeakCount>16</maxWeakCount>
      <stageThreshold>-1.5916411876678467e+00</stageThreshold>
      <weakClassifiers>
        <_>
          <internalNodes>
            0 -1 128 3.1308252364397049e-02</internalNodes>
          <leafValues>
            -4.2879137396812439e-01 4.4827586412429810e-01</leafValues></_>
        <_>
          <internalNodes>
            0 -1 23 -5.7443706318736076e-03</internalNodes>
          <leafValues>
            4.1350194811820984e-01 -2.9867368936538696e-01</leafValues></_>
        <_>
          <internalNodes>
            0 -1 40 1.0608072625473142e-04</internalNodes>
          <leafValues>
            -3.6409482359886169e-01 2.8797155618667603e-01</leafValues></_>
        <_>
          <internalNodes>
            0 -1 3 9.8009430803358555e-04</internalNodes>
          <leafValues>
            1.4078569412231445e-01 -6.6552275419235229e-01</leafValues></_>
        <_>
          <internalNodes>
            0 -1 225 -1.6352426609955728e-04</internalNodes>
          <leafValues>
            2.5860661268234253e-01 -4.1873216629028320e-01</leafValues></_>
        <_>
          <internalNodes>
            0 -1 137 2.8619957156479359e-03</internalNodes>
          <leafValues>
            -2.0521920919418335e-01 5.2644056081771851e-01</leafValues></_>
        <_>
          <internalNodes>
            0 -1 55 -5.6054024025797844e-04</internalNodes>
          <leafValues>
            -6.5643972158432007e-01 1.7528328299522400e-01</leafValues></_>
        <_>
          <internalNodes>
            0 -1 100 3.3024101867340505e-04</internalNodes>
          <leafValues>
            -2.2002984583377838e-01 5.6327515840530396e-01</leafValues></_>
        <_>
          <internalNodes>
            0 -1 17 5.6035597808659077e-03</internalNodes>
          <leafValues>
            -1.6156215965747833e-01 5.9643262624740601e-01</leafValues></_>
        <_>
          <internalNodes>
            0 -1 93 1.2022687494754791e-01</internalNodes>
          <leafValues>
            -1.8557061254978180e-01 6.0984146595001221e-01</leafValues></_>
        <_>
          <internalNodes>
            0 -1 147 -5.0154060591012239e-04</internalNodes>
          <leafValues>
            4.7476077079772949e-01 -1.9467253983020782e-01</leafValues></_>
        <_>
          <internalNodes>
            0 -1 68 -5.6468639522790909e-02</internalNodes>
          <leafValues>
            3.6075526475906372e-01 -2.4728278815746307e-01</leafValues></_>
        <_>
          <internalNodes>
            0 -1 51 4.3581624049693346e-04</internalNodes>
          <leafValues>
            -3.1695675849914551e-01 3.6452612280845642e-01</leafValues></_>
        <_>
          <internalNodes>
            0 -1 28 1.6848929226398468e-04</internalNodes>
          <leafValues>
            1.3598048686981201e-01 -8.3209091424942017e-01</leafValues></_>
        <_>
          <internalNodes>
            0 -1 148 -3.0600500758737326e-04</internalNodes>
          <leafValues>
            4.2035353183746338e-01 -2.2946853935718536e-01</leafValues></_>
        <_>
          <internalNodes>
            0 -1 164 -4.9544044304639101e-04</internalNodes>
          <leafValues>
            6.7306727170944214e-01 -1.3687810301780701e-01</leafValues></_></weakClassifiers></_>
    <!-- stage 10 -->
    <_>
      <maxWeakCount>13</maxWeakCount>
      <stageThreshold>-1.1757618188858032e+00</stageThreshold>
      <weakClassifiers>
        <_>
          <internalNodes>
            0 -1 156 1.7656093696132302e-03</internalNodes>
          <leafValues>
            -4.0149253606796265e-01 4.4545453786849976e-01</leafValues></_>
        <_>
          <internalNodes>
            0 -1 64 -3.6365148844197392e-04</internalNodes>
          <leafValues>
            2.3330670595169067e-01 -4.2570233345031738e-01</leafValues></_>
        <_>
          <internalNodes>
            0 -1 126 4.9465131014585495e-03</internalNodes>
          <leafValues>
            -1.9903343915939331e-01 5.5761033296585083e-01</leafValues></_>
        <_>
          <internalNodes>
            0 -1 209 7.2300754254683852e-04</internalNodes>
          <leafValues>
            -2.8055858612060547e-01 4.2600074410438538e-01</leafValues></_>
        <_>
          <internalNodes>
            0 -1 5 -9.9610153120011091e-04</internalNodes>
          <leafValues>
            -6.1013793945312500e-01 1.7858681082725525e-01</leafValues></_>
        <_>
          <internalNodes>
            0 -1 19 5.2472914103418589e-04</internalNodes>
          <leafValues>
            1.6104921698570251e-01 -7.0376038551330566e-01</leafValues></_>
        <_>
          <internalNodes>
            0 -1 143 4.2076711542904377e-04</internalNodes>
          <leafValues>
            -2.0131149888038635e-01 5.9250414371490479e-01</leafValues></_>
        <_>
          <internalNodes>
            0 -1 196 -1.2244971003383398e-03</internalNodes>
          <leafValues>
            -5.2607685327529907e-01 2.0015047490596771e-01</leafValues></_>
        <_>
          <internalNodes>
            0 -1 30 -3.4599317586980760e-04</internalNodes>
          <leafValues>
            -5.7463228702545166e-01 1.4902088046073914e-01</leafValues></_>
        <_>
          <internalNodes>
            0 -1 139 -4.1404494550079107e-04</internalNodes>
          <leafValues>
            4.5357632637023926e-01 -1.9003246724605560e-01</leafValues></_>
        <_>
          <internalNodes>
            0 -1 41 1.4906702563166618e-02</internalNodes>
          <leafValues>
            -2.1934421360492706e-01 4.1300356388092041e-01</leafValues></_>
        <_>
          <internalNodes>
            0 -1 235 -2.0475221390370280e-05</internalNodes>
          <leafValues>
            2.9383945465087891e-01 -3.0868953466415405e-01</leafValues></_>
        <_>
          <internalNodes>
            0 -1 74 8.1700854934751987e-04</internalNodes>
          <leafValues>
            -1.6330060362815857e-01 5.6739598512649536e-01</leafValues></_></weakClassifiers></_>
    <!-- stage 11 -->
    <_>
      <maxWeakCount>13</maxWeakCount>
      <stageThreshold>-1.0121680498123169e+00</stageThreshold>
      <weakClassifiers>
        <_>
          <internalNodes>
            0 -1 157 -7.0810876786708832e-03</internalNodes>
          <leafValues>
            2.4691358208656311e-02 -6.1333334445953369e-01</leafValues></_>
        <_>
          <internalNodes>
            0 -1 120 -3.6360275000333786e-02</internalNodes>
          <leafValues>
            -7.1533775329589844e-01 9.9660523235797882e-02</leafValues></_>
        <_>
          <internalNodes>
            0 -1 199 2.4126968346536160e-03</internalNodes>
          <leafValues>
            -2.6810139417648315e-01 3.4016007184982300e-01</leafValues></_>
        <_>
          <internalNodes>
            0 -1 13 4.4256384717300534e-04</internalNodes>
          <leafValues>
            1.1719827353954315e-01 -7.2654920816421509e-01</leafValues></_>
        <_>
          <internalNodes>
            0 -1 105 7.2959321551024914e-04</internalNodes>
          <leafValues>
            -3.1790345907211304e-01 2.6501187682151794e-01</leafValues></_>
        <_>
          <internalNodes>
            0 -1 27 9.9502250552177429e-02</internalNodes>
          <leafValues>
            -1.8270246684551239e-01 6.9103205204010010e-01</leafValues></_>
        <_>
          <internalNodes>
            0 -1 181 6.4881327562034130e-03</internalNodes>
          <leafValues>
            -3.3122017979621887e-01 3.0029833316802979e-01</leafValues></_>
        <_>
          <internalNodes>
            0 -1 60 -9.3022152781486511e-02</internalNodes>
          <leafValues>
            4.4830608367919922e-01 -2.2892759740352631e-01</leafValues></_>
        <_>
          <internalNodes>
            0 -1 89 2.2779490798711777e-02</internalNodes>
          <leafValues>
            -1.9379244744777679e-01 5.3202986717224121e-01</leafValues></_>
        <_>
          <internalNodes>
            0 -1 204 -5.8871612418442965e-04</internalNodes>
          <leafValues>
            -8.4713917970657349e-01 1.3922411203384399e-01</leafValues></_>
        <_>
          <internalNodes>
            0 -1 130 1.1854477925226092e-03</internalNodes>
          <leafValues>
            -1.7684102058410645e-01 5.6766551733016968e-01</leafValues></_>
        <_>
          <internalNodes>
            0 -1 142 1.2847946491092443e-03</internalNodes>
          <leafValues>
            -1.2406863272190094e-01 6.8700575828552246e-01</leafValues></_>
        <_>
          <internalNodes>
            0 -1 104 -2.8591946465894580e-04</internalNodes>
          <leafValues>
            6.5190303325653076e-01 -1.2253724038600922e-01</leafValues></_></weakClassifiers></_>
    <!-- stage 12 -->
    <_>
      <maxWeakCount>17</maxWeakCount>
      <stageThreshold>-1.4651672840118408e+00</stageThreshold>
      <weakClassifiers>
        <_>
          <internalNodes>
            0 -1 168 -1.3342278078198433e-02</internalNodes>
          <leafValues>
            1.0303030163049698e-01 -5.6444442272186279e-01</leafValues></_>
        <_>
          <internalNodes>
            0 -1 102 2.5593306869268417e-02</internalNodes>
          <leafValues>
            -2.1346148848533630e-01 5.2301639318466187e-01</leafValues></_>
        <_>
          <internalNodes>
            0 -1 101 6.6631135996431112e-04</internalNodes>
          <leafValues>
            -1.4543673396110535e-01 5.4764032363891602e-01</leafValues></_>
        <_>
          <internalNodes>
            0 -1 37 -1.6123513923957944e-03</internalNodes>
          <leafValues>
            3.2053428888320923e-01 -2.5806465744972229e-01</leafValues></_>
        <_>
          <internalNodes>
            0 -1 1 1.8997739971382543e-05</internalNodes>
          <leafValues>
            -3.0965107679367065e-01 2.7190622687339783e-01</leafValues></_>
        <_>
          <internalNodes>
            0 -1 62 4.2604422196745872e-03</internalNodes>
          <leafValues>
            -1.6933280229568481e-01 4.7850996255874634e-01</leafValues></_>
        <_>
          <internalNodes>
            0 -1 50 1.6970504075288773e-03</internalNodes>
          <leafValues>
            -2.5098371505737305e-01 3.7448349595069885e-01</leafValues></_>
        <_>
          <internalNodes>
            0 -1 234 -7.6106807682663202e-04</internalNodes>
          <leafValues>
            -7.2676301002502441e-01 1.4313405752182007e-01</leafValues></_>
        <_>
          <internalNodes>
            0 -1 236 -1.5319104932132177e-05</internalNodes>
          <leafValues>
            2.9678902029991150e-01 -2.9028576612472534e-01</leafValues></_>
        <_>
          <internalNodes>
            0 -1 106 -2.4749523028731346e-02</internalNodes>
          <leafValues>
            -6.7374747991561890e-01 1.2776486575603485e-01</leafValues></_>
        <_>
          <internalNodes>
            0 -1 169 6.5393629483878613e-04</internalNodes>
          <leafValues>
            -1.2760718166828156e-01 7.2048848867416382e-01</leafValues></_>
        <_>
          <internalNodes>
            0 -1 122 -5.4248509695753455e-04</internalNodes>
          <leafValues>
            4.9399846792221069e-01 -1.7649552226066589e-01</leafValues></_>
        <_>
          <internalNodes>
            0 -1 174 1.0311500227544457e-04</internalNodes>
          <leafValues>
            -2.2237984836101532e-01 3.7967219948768616e-01</leafValues></_>
        <_>
          <internalNodes>
            0 -1 32 7.1691034827381372e-04</internalNodes>
          <leafValues>
            1.1394402384757996e-01 -8.3762389421463013e-01</leafValues></_>
        <_>
          <internalNodes>
            0 -1 183 -1.6780709847807884e-03</internalNodes>
          <leafValues>
            4.9477380514144897e-01 -2.1275448799133301e-01</leafValues></_>
        <_>
          <internalNodes>
            0 -1 114 -9.2890311498194933e-04</internalNodes>
          <leafValues>
            -8.1084215641021729e-01 1.2198305130004883e-01</leafValues></_>
        <_>
          <internalNodes>
            0 -1 63 -9.9202897399663925e-04</internalNodes>
          <leafValues>
            2.3251308500766754e-01 -3.8646656274795532e-01</leafValues></_></weakClassifiers></_>
    <!-- stage 13 -->
    <_>
      <maxWeakCount>13</maxWeakCount>
      <stageThreshold>-1.2944461107254028e+00</stageThreshold>
      <weakClassifiers>
        <_>
          <internalNodes>
            0 -1 42 -6.0461490647867322e-04</internalNodes>
          <leafValues>
            7.5528703629970551e-02 -5.4565703868865967e-01</leafValues></_>
        <_>
          <internalNodes>
            0 -1 10 -1.3197509571909904e-02</internalNodes>
          <leafValues>
            4.7486224770545959e-01 -2.5162002444267273e-01</leafValues></_>
        <_>
          <internalNodes>
            0 -1 180 8.6393970996141434e-03</internalNodes>
          <leafValues>
            -3.0159294605255127e-01 3.8832834362983704e-01</leafValues></_>
        <_>
          <internalNodes>
            0 -1 161 7.2061864193528891e-04</internalNodes>
          <leafValues>
            1.4221207797527313e-01 -7.5824975967407227e-01</leafValues></_>
        <_>
          <internalNodes>
            0 -1 232 -1.8395486986264586e-03</internalNodes>
          <leafValues>
            -6.8088454008102417e-01 1.7319180071353912e-01</leafValues></_>
        <_>
          <internalNodes>
            0 -1 179 3.3464291482232511e-04</internalNodes>
          <leafValues>
            1.0018742084503174e-01 -6.3898533582687378e-01</leafValues></_>
        <_>
          <internalNodes>
            0 -1 170 -2.1827943623065948e-02</internalNodes>
          <leafValues>
            -7.2718971967697144e-01 1.4648710191249847e-01</leafValues></_>
        <_>
          <internalNodes>
            0 -1 150 6.0505256988108158e-03</internalNodes>
          <leafValues>
            9.0851970016956329e-02 -7.6681584119796753e-01</leafValues></_>
        <_>
          <internalNodes>
            0 -1 214 -8.4908952703699470e-04</internalNodes>
          <leafValues>
            2.9141706228256226e-01 -3.2223877310752869e-01</leafValues></_>
        <_>
          <internalNodes>
            0 -1 211 1.1878585442900658e-02</internalNodes>
          <leafValues>
            -1.0857917368412018e-01 7.1060490608215332e-01</leafValues></_>
        <_>
          <internalNodes>
            0 -1 176 -1.2036596890538931e-03</internalNodes>
          <leafValues>
            4.4183412194252014e-01 -1.8062490224838257e-01</leafValues></_>
        <_>
          <internalNodes>
            0 -1 54 -1.8000712152570486e-03</internalNodes>
          <leafValues>
            -7.8734034299850464e-01 1.0308645665645599e-01</leafValues></_>
        <_>
          <internalNodes>
            0 -1 175 1.3858370948582888e-04</internalNodes>
          <leafValues>
            -2.1463310718536377e-01 4.1541701555252075e-01</leafValues></_></weakClassifiers></_>
    <!-- stage 14 -->
    <_>
      <maxWeakCount>13</maxWeakCount>
      <stageThreshold>-1.2883365154266357e+00</stageThreshold>
      <weakClassifiers>
        <_>
          <internalNodes>
            0 -1 67 -2.9584026196971536e-04</internalNodes>
          <leafValues>
            -8.3378016948699951e-01 -1.0867733508348465e-01</leafValues></_>
        <_>
          <internalNodes>
            0 -1 129 6.1687012203037739e-04</internalNodes>
          <leafValues>
            1.0980086028575897e-01 -7.4990510940551758e-01</leafValues></_>
        <_>
          <internalNodes>
            0 -1 111 7.2707375511527061e-03</internalNodes>
          <leafValues>
            1.6276355087757111e-01 -6.6613227128982544e-01</leafValues></_>
        <_>
          <internalNodes>
            0 -1 233 3.5940739326179028e-04</internalNodes>
          <leafValues>
            1.4689913392066956e-01 -7.1172994375228882e-01</leafValues></_>
        <_>
          <internalNodes>
            0 -1 33 -1.3640042394399643e-02</internalNodes>
          <leafValues>
            3.7248125672340393e-01 -3.1828337907791138e-01</leafValues></_>
        <_>
          <internalNodes>
            0 -1 192 2.2827927023172379e-04</internalNodes>
          <leafValues>
            1.5561465919017792e-01 -6.7956465482711792e-01</leafValues></_>
        <_>
          <internalNodes>
            0 -1 94 -4.2568720527924597e-04</internalNodes>
          <leafValues>
            3.8235440850257874e-01 -2.5034338235855103e-01</leafValues></_>
        <_>
          <internalNodes>
            0 -1 184 -1.8329365411773324e-03</internalNodes>
          <leafValues>
            5.8184558153152466e-01 -1.6340422630310059e-01</leafValues></_>
        <_>
          <internalNodes>
            0 -1 15 1.3854509219527245e-02</internalNodes>
          <leafValues>
            1.4766958355903625e-01 -6.7245650291442871e-01</leafValues></_>
        <_>
          <internalNodes>
            0 -1 70 9.5675443299114704e-04</internalNodes>
          <leafValues>
            -1.8120579421520233e-01 5.2980393171310425e-01</leafValues></_>
        <_>
          <internalNodes>
            0 -1 125 1.8535618437454104e-04</internalNodes>
          <leafValues>
            -2.8202635049819946e-01 3.1064516305923462e-01</leafValues></_>
        <_>
          <internalNodes>
            0 -1 58 -1.2395455269142985e-04</internalNodes>
          <leafValues>
            -6.9697153568267822e-01 1.4895617961883545e-01</leafValues></_>
        <_>
          <internalNodes>
            0 -1 172 -1.2557454407215118e-02</internalNodes>
          <leafValues>
            2.8173476457595825e-01 -3.2784166932106018e-01</leafValues></_></weakClassifiers></_>
    <!-- stage 15 -->
    <_>
      <maxWeakCount>15</maxWeakCount>
      <stageThreshold>-1.1861811876296997e+00</stageThreshold>
      <weakClassifiers>
        <_>
          <internalNodes>
            0 -1 226 -1.7219420988112688e-04</internalNodes>
          <leafValues>
            -4.7821465879678726e-02 -6.3812601566314697e-01</leafValues></_>
        <_>
          <internalNodes>
            0 -1 138 -1.6633684281259775e-03</internalNodes>
          <leafValues>
            1.4914505183696747e-01 -5.2380764484405518e-01</leafValues></_>
        <_>
          <internalNodes>
            0 -1 228 -3.4211552701890469e-03</internalNodes>
          <leafValues>
            -5.9642821550369263e-01 1.7855581641197205e-01</leafValues></_>
        <_>
          <internalNodes>
            0 -1 22 6.0406181728467345e-04</internalNodes>
          <leafValues>
            -2.7353304624557495e-01 3.5197430849075317e-01</leafValues></_>
        <_>
          <internalNodes>
            0 -1 59 -3.8150281179696321e-03</internalNodes>
          <leafValues>
            4.5478940010070801e-01 -1.6201183199882507e-01</leafValues></_>
        <_>
          <internalNodes>
            0 -1 212 -4.0828141209203750e-05</internalNodes>
          <leafValues>
            2.6555633544921875e-01 -2.8325098752975464e-01</leafValues></_>
        <_>
          <internalNodes>
            0 -1 177 3.8149184547364712e-04</internalNodes>
          <leafValues>
            -1.3923709094524384e-01 5.8184015750885010e-01</leafValues></_>
        <_>
          <internalNodes>
            0 -1 167 7.8027392737567425e-04</internalNodes>
          <leafValues>
            -1.6731400787830353e-01 4.7408989071846008e-01</leafValues></_>
        <_>
          <internalNodes>
            0 -1 96 3.4406560007482767e-04</internalNodes>
          <leafValues>
            -1.7071445286273956e-01 4.5299935340881348e-01</leafValues></_>
        <_>
          <internalNodes>
            0 -1 158 6.7454727832227945e-04</internalNodes>
          <leafValues>
            1.4925910532474518e-01 -5.5714827775955200e-01</leafValues></_>
        <_>
          <internalNodes>
            0 -1 190 6.2981271184980869e-05</internalNodes>
          <leafValues>
            -2.0874319970607758e-01 4.2671409249305725e-01</leafValues></_>
        <_>
          <internalNodes>
            0 -1 43 4.5214442070573568e-04</internalNodes>
          <leafValues>
            1.2741452455520630e-01 -7.7216243743896484e-01</leafValues></_>
        <_>
          <internalNodes>
            0 -1 198 1.2311642058193684e-04</internalNodes>
          <leafValues>
            -3.3954417705535889e-01 2.6533374190330505e-01</leafValues></_>
        <_>
          <internalNodes>
            0 -1 193 -1.6873296350240707e-02</internalNodes>
          <leafValues>
            7.1532404422760010e-01 -1.4058120548725128e-01</leafValues></_>
        <_>
          <internalNodes>
            0 -1 108 -2.5153078604489565e-04</internalNodes>
          <leafValues>
            5.2997195720672607e-01 -1.4835770428180695e-01</leafValues></_></weakClassifiers></_>
    <!-- stage 16 -->
    <_>
      <maxWeakCount>16</maxWeakCount>
      <stageThreshold>-1.1543549299240112e+00</stageThreshold>
      <weakClassifiers>
        <_>
          <internalNodes>
            0 -1 82 1.0806425416376442e-04</internalNodes>
          <leafValues>
            -5.8510637283325195e-01 6.0704588163559760e-17</leafValues></_>
        <_>
          <internalNodes>
            0 -1 132 1.3043825747445226e-03</internalNodes>
          <leafValues>
            -1.4246912300586700e-01 7.4714058637619019e-01</leafValues></_>
        <_>
          <internalNodes>
            0 -1 227 1.0741683654487133e-03</internalNodes>
          <leafValues>
            1.0094401240348816e-01 -7.0202589035034180e-01</leafValues></_>
        <_>
          <internalNodes>
            0 -1 52 -1.1115234810858965e-03</internalNodes>
          <leafValues>
            -5.3202271461486816e-01 1.8152433633804321e-01</leafValues></_>
        <_>
          <internalNodes>
            0 -1 197 8.1839028280228376e-04</internalNodes>
          <leafValues>
            -1.3974729180335999e-01 6.3213253021240234e-01</leafValues></_>
        <_>
          <internalNodes>
            0 -1 134 -1.6792964743217453e-05</internalNodes>
          <leafValues>
            3.9727646112442017e-01 -2.2034192085266113e-01</leafValues></_>
        <_>
          <internalNodes>
            0 -1 178 -3.6173069383949041e-04</internalNodes>
          <leafValues>
            -7.1408748626708984e-01 1.2369328737258911e-01</leafValues></_>
        <_>
          <internalNodes>
            0 -1 215 9.2262914404273033e-04</internalNodes>
          <leafValues>
            -2.0126593112945557e-01 4.5612758398056030e-01</leafValues></_>
        <_>
          <internalNodes>
            0 -1 86 4.4035214930772781e-02</internalNodes>
          <leafValues>
            -1.5802496671676636e-01 5.4885536432266235e-01</leafValues></_>
        <_>
          <internalNodes>
            0 -1 152 -9.8591204732656479e-04</internalNodes>
          <leafValues>
            6.3821083307266235e-01 -1.5063789486885071e-01</leafValues></_>
        <_>
          <internalNodes>
            0 -1 182 3.6512392398435622e-05</internalNodes>
          <leafValues>
            -2.6219198107719421e-01 3.3131292462348938e-01</leafValues></_>
        <_>
          <internalNodes>
            0 -1 90 2.5088401162065566e-04</internalNodes>
          <leafValues>
            1.2510818243026733e-01 -7.9041904211044312e-01</leafValues></_>
        <_>
          <internalNodes>
            0 -1 144 2.9477649368345737e-03</internalNodes>
          <leafValues>
            -1.4637142419815063e-01 6.5183955430984497e-01</leafValues></_>
        <_>
          <internalNodes>
            0 -1 131 -1.1499212123453617e-03</internalNodes>
          <leafValues>
            4.7381547093391418e-01 -2.3166692256927490e-01</leafValues></_>
        <_>
          <internalNodes>
            0 -1 44 -6.0686834331136197e-06</internalNodes>
          <leafValues>
            3.7011557817459106e-01 -2.6849734783172607e-01</leafValues></_>
        <_>
          <internalNodes>
            0 -1 95 5.3546787239611149e-04</internalNodes>
          <leafValues>
            -1.8286043405532837e-01 5.9717971086502075e-01</leafValues></_></weakClassifiers></_>
    <!-- stage 17 -->
    <_>
      <maxWeakCount>16</maxWeakCount>
      <stageThreshold>-1.2866815328598022e+00</stageThreshold>
      <weakClassifiers>
        <_>
          <internalNodes>
            0 -1 103 -4.8992014490067959e-04</internalNodes>
          <leafValues>
            4.8258706927299500e-01 -3.9514347910881042e-01</leafValues></_>
        <_>
          <internalNodes>
            0 -1 80 -6.3488681917078793e-05</internalNodes>
          <leafValues>
            -7.3310130834579468e-01 1.1969230324029922e-01</leafValues></_>
        <_>
          <internalNodes>
            0 -1 205 2.4116039276123047e-03</internalNodes>
          <leafValues>
            -2.6975077390670776e-01 3.7329670786857605e-01</leafValues></_>
        <_>
          <internalNodes>
            0 -1 200 4.4886693358421326e-03</internalNodes>
          <leafValues>
            1.5322203934192657e-01 -8.4248572587966919e-01</leafValues></_>
        <_>
          <internalNodes>
            0 -1 186 -4.5350822620093822e-03</internalNodes>
          <leafValues>
            5.0268793106079102e-01 -2.2364674508571625e-01</leafValues></_>
        <_>
          <internalNodes>
            0 -1 109 -3.0926876934245229e-04</internalNodes>
          <leafValues>
            6.2454354763031006e-01 -1.5447573363780975e-01</leafValues></_>
        <_>
          <internalNodes>
            0 -1 140 -6.1692681629210711e-04</internalNodes>
          <leafValues>
            5.9685641527175903e-01 -1.8150427937507629e-01</leafValues></_>
        <_>
          <internalNodes>
            0 -1 75 1.1283055937383324e-04</internalNodes>
          <leafValues>
            2.3013189435005188e-01 -4.7857424616813660e-01</leafValues></_>
        <_>
          <internalNodes>
            0 -1 72 1.0971671342849731e-01</internalNodes>
          <leafValues>
            -1.7941658198833466e-01 6.0758340358734131e-01</leafValues></_>
        <_>
          <internalNodes>
            0 -1 25 1.4946714509278536e-04</internalNodes>
          <leafValues>
            2.0741663873195648e-01 -5.5415070056915283e-01</leafValues></_>
        <_>
          <internalNodes>
            0 -1 165 -1.6298571135848761e-03</internalNodes>
          <leafValues>
            6.0398578643798828e-01 -2.1003232896327972e-01</leafValues></_>
        <_>
          <internalNodes>
            0 -1 35 7.9899746924638748e-04</internalNodes>
          <leafValues>
            -1.8072751164436340e-01 5.3539395332336426e-01</leafValues></_>
        <_>
          <internalNodes>
            0 -1 146 -4.9068353837355971e-04</internalNodes>
          <leafValues>
            6.5576511621475220e-01 -1.8063418567180634e-01</leafValues></_>
        <_>
          <internalNodes>
            0 -1 229 2.4893728550523520e-04</internalNodes>
          <leafValues>
            1.9155390560626984e-01 -6.5541988611221313e-01</leafValues></_>
        <_>
          <internalNodes>
            0 -1 20 -4.1655323002487421e-05</internalNodes>
          <leafValues>
            2.8969758749008179e-01 -3.5927748680114746e-01</leafValues></_>
        <_>
          <internalNodes>
            0 -1 65 1.2889265781268477e-04</internalNodes>
          <leafValues>
            1.4591078460216522e-01 -7.7807438373565674e-01</leafValues></_></weakClassifiers></_>
    <!-- stage 18 -->
    <_>
      <maxWeakCount>13</maxWeakCount>
      <stageThreshold>-1.2799949645996094e+00</stageThreshold>
      <weakClassifiers>
        <_>
          <internalNodes>
            0 -1 155 -1.6780925216153264e-03</internalNodes>
          <leafValues>
            6.0000002384185791e-01 -4.4638782739639282e-01</leafValues></_>
        <_>
          <internalNodes>
            0 -1 78 1.9430040847510099e-03</internalNodes>
          <leafValues>
            -1.5804834663867950e-01 8.9654868841171265e-01</leafValues></_>
        <_>
          <internalNodes>
            0 -1 56 9.5534069259883836e-06</internalNodes>
          <leafValues>
            -3.7460076808929443e-01 3.3168077468872070e-01</leafValues></_>
        <_>
          <internalNodes>
            0 -1 46 1.1907673906534910e-03</internalNodes>
          <leafValues>
            2.1251468360424042e-01 -6.2151062488555908e-01</leafValues></_>
        <_>
          <internalNodes>
            0 -1 84 -7.9169613309204578e-04</internalNodes>
          <leafValues>
            6.7657393217086792e-01 -2.3992043733596802e-01</leafValues></_>
        <_>
          <internalNodes>
            0 -1 53 1.4449567242991179e-04</internalNodes>
          <leafValues>
            -2.8352007269859314e-01 4.8839095234870911e-01</leafValues></_>
        <_>
          <internalNodes>
            0 -1 47 4.6742105041630566e-05</internalNodes>
          <leafValues>
            -3.9344009757041931e-01 3.2598161697387695e-01</leafValues></_>
        <_>
          <internalNodes>
            0 -1 194 7.8002130612730980e-04</internalNodes>
          <leafValues>
            -3.9043489098548889e-01 4.0998780727386475e-01</leafValues></_>
        <_>
          <internalNodes>
            0 -1 213 -9.1395736671984196e-04</internalNodes>
          <leafValues>
            6.6790968179702759e-01 -2.1338205039501190e-01</leafValues></_>
        <_>
          <internalNodes>
            0 -1 162 2.1886843023821712e-04</internalNodes>
          <leafValues>
            -1.9711567461490631e-01 6.9166141748428345e-01</leafValues></_>
        <_>
          <internalNodes>
            0 -1 201 -2.0312236301833764e-05</internalNodes>
          <leafValues>
            4.6280324459075928e-01 -2.9734039306640625e-01</leafValues></_>
        <_>
          <internalNodes>
            0 -1 107 8.5513340309262276e-04</internalNodes>
          <leafValues>
            -1.8342137336730957e-01 7.8200054168701172e-01</leafValues></_>
        <_>
          <internalNodes>
            0 -1 69 8.8044982403516769e-03</internalNodes>
          <leafValues>
            2.1867714822292328e-01 -7.6863294839859009e-01</leafValues></_></weakClassifiers></_></stages>
  <features>
    <_>
      <rects>
        <_>
          0 0 1 50 -1.</_>
        <_>
          0 25 1 25 2.</_></rects>
      <tilted>0</tilted></_>
    <_>
      <rects>
        <_>
          0 0 6 5 -1.</_>
        <_>
          3 0 3 5 2.</_></rects>
      <tilted>0</tilted></_>
    <_>
      <rects>
        <_>
          0 0 8 5 -1.</_>
        <_>
          4 0 4 5 2.</_></rects>
      <tilted>0</tilted></_>
    <_>
      <rects>
        <_>
          0 0 27 1 -1.</_>
        <_>
          9 0 9 1 3.</_></rects>
      <tilted>0</tilted></_>
    <_>
      <rects>
        <_>
          0 0 34 2 -1.</_>
        <_>
          17 0 17 2 2.</_></rects>
      <tilted>0</tilted></_>
    <_>
      <rects>
        <_>
          0 0 49 2 -1.</_>
        <_>
          0 1 49 1 2.</_></rects>
      <tilted>0</tilted></_>
    <_>
      <rects>
        <_>
          0 2 1 24 -1.</_>
        <_>
          0 10 1 8 3.</_></rects>
      <tilted>0</tilted></_>
    <_>
      <rects>
        <_>
          0 2 1 20 -1.</_>
        <_>
          0 12 1 10 2.</_></rects>
      <tilted>0</tilted></_>
    <_>
      <rects>
        <_>
          0 4 1 21 -1.</_>
        <_>
          0 11 1 7 3.</_></rects>
      <tilted>0</tilted></_>
    <_>
      <rects>
        <_>
          0 5 1 18 -1.</_>
        <_>
          0 14 1 9 2.</_></rects>
      <tilted>0</tilted></_>
    <_>
      <rects>
        <_>
          0 8 8 42 -1.</_>
        <_>
          0 8 4 21 2.</_>
        <_>
          4 29 4 21 2.</_></rects>
      <tilted>0</tilted></_>
    <_>
      <rects>
        <_>
          0 9 1 12 -1.</_>
        <_>
          0 15 1 6 2.</_></rects>
      <tilted>0</tilted></_>
    <_>
      <rects>
        <_>
          0 9 6 20 -1.</_>
        <_>
          3 9 3 20 2.</_></rects>
      <tilted>0</tilted></_>
    <_>
      <rects>
        <_>
          0 10 1 18 -1.</_>
        <_>
          0 19 1 9 2.</_></rects>
      <tilted>0</tilted></_>
    <_>
      <rects>
        <_>
          0 10 1 34 -1.</_>
        <_>
          0 27 1 17 2.</_></rects>
      <tilted>0</tilted></_>
    <_>
      <rects>
        <_>
          0 10 50 8 -1.</_>
        <_>
          0 14 50 4 2.</_></rects>
      <tilted>0</tilted></_>
    <_>
      <rects>
        <_>
          0 11 8 38 -1.</_>
        <_>
          0 11 4 19 2.</_>
        <_>
          4 30 4 19 2.</_></rects>
      <tilted>0</tilted></_>
    <_>
      <rects>
        <_>
          0 12 6 10 -1.</_>
        <_>
          3 12 3 10 2.</_></rects>
      <tilted>0</tilted></_>
    <_>
      <rects>
        <_>
          0 13 10 15 -1.</_>
        <_>
          5 13 5 15 2.</_></rects>
      <tilted>0</tilted></_>
    <_>
      <rects>
        <_>
          0 14 1 36 -1.</_>
        <_>
          0 32 1 18 2.</_></rects>
      <tilted>0</tilted></_>
    <_>
      <rects>
        <_>
          0 15 1 14 -1.</_>
        <_>
          0 22 1 7 2.</_></rects>
      <tilted>0</tilted></_>
    <_>
      <rects>
        <_>
          0 15 8 6 -1.</_>
        <_>
          4 15 4 6 2.</_></rects>
      <tilted>0</tilted></_>
    <_>
      <rects>
        <_>
          0 15 6 8 -1.</_>
        <_>
          0 19 6 4 2.</_></rects>
      <tilted>0</tilted></_>
    <_>
      <rects>
        <_>
          0 17 8 6 -1.</_>
        <_>
          4 17 4 6 2.</_></rects>
      <tilted>0</tilted></_>
    <_>
      <rects>
        <_>
          0 21 8 6 -1.</_>
        <_>
          4 21 4 6 2.</_></rects>
      <tilted>0</tilted></_>
    <_>
      <rects>
        <_>
          0 23 2 26 -1.</_>
        <_>
          1 23 1 26 2.</_></rects>
      <tilted>0</tilted></_>
    <_>
      <rects>
        <_>
          0 25 26 16 -1.</_>
        <_>
          13 25 13 16 2.</_></rects>
      <tilted>0</tilted></_>
    <_>
      <rects>
        <_>
          0 25 38 18 -1.</_>
        <_>
          19 25 19 18 2.</_></rects>
      <tilted>0</tilted></_>
    <_>
      <rects>
        <_>
          0 26 2 4 -1.</_>
        <_>
          1 26 1 4 2.</_></rects>
      <tilted>0</tilted></_>
    <_>
      <rects>
        <_>
          0 28 10 2 -1.</_>
        <_>
          5 28 5 2 2.</_></rects>
      <tilted>0</tilted></_>
    <_>
      <rects>
        <_>
          0 30 1 15 -1.</_>
        <_>
          0 35 1 5 3.</_></rects>
      <tilted>0</tilted></_>
    <_>
      <rects>
        <_>
          0 33 2 9 -1.</_>
        <_>
          1 33 1 9 2.</_></rects>
      <tilted>0</tilted></_>
    <_>
      <rects>
        <_>
          0 39 10 3 -1.</_>
        <_>
          0 40 10 1 3.</_></rects>
      <tilted>0</tilted></_>
    <_>
      <rects>
        <_>
          0 40 32 10 -1.</_>
        <_>
          16 40 16 10 2.</_></rects>
      <tilted>0</tilted></_>
    <_>
      <rects>
        <_>
          0 41 1 8 -1.</_>
        <_>
          0 45 1 4 2.</_></rects>
      <tilted>0</tilted></_>
    <_>
      <rects>
        <_>
          0 43 27 1 -1.</_>
        <_>
          9 43 9 1 3.</_></rects>
      <tilted>0</tilted></_>
    <_>
      <rects>
        <_>
          0 44 4 5 -1.</_>
        <_>
          2 44 2 5 2.</_></rects>
      <tilted>0</tilted></_>
    <_>
      <rects>
        <_>
          0 44 28 1 -1.</_>
        <_>
          14 44 14 1 2.</_></rects>
      <tilted>0</tilted></_>
    <_>
      <rects>
        <_>
          0 45 4 3 -1.</_>
        <_>
          2 45 2 3 2.</_></rects>
      <tilted>0</tilted></_>
    <_>
      <rects>
        <_>
          0 49 18 1 -1.</_>
        <_>
          9 49 9 1 2.</_></rects>
      <tilted>0</tilted></_>
    <_>
      <rects>
        <_>
          1 0 42 1 -1.</_>
        <_>
          22 0 21 1 2.</_></rects>
      <tilted>0</tilted></_>
    <_>
      <rects>
        <_>
          1 17 27 14 -1.</_>
        <_>
          1 24 27 7 2.</_></rects>
      <tilted>0</tilted></_>
    <_>
      <rects>
        <_>
          1 25 8 1 -1.</_>
        <_>
          5 25 4 1 2.</_></rects>
      <tilted>0</tilted></_>
    <_>
      <rects>
        <_>
          1 41 5 3 -1.</_>
        <_>
          1 42 5 1 3.</_></rects>
      <tilted>0</tilted></_>
    <_>
      <rects>
        <_>
          1 48 4 1 -1.</_>
        <_>
          3 48 2 1 2.</_></rects>
      <tilted>0</tilted></_>
    <_>
      <rects>
        <_>
          2 0 6 3 -1.</_>
        <_>
          4 0 2 3 3.</_></rects>
      <tilted>0</tilted></_>
    <_>
      <rects>
        <_>
          2 0 28 1 -1.</_>
        <_>
          16 0 14 1 2.</_></rects>
      <tilted>0</tilted></_>
    <_>
      <rects>
        <_>
          2 0 40 1 -1.</_>
        <_>
          22 0 20 1 2.</_></rects>
      <tilted>0</tilted></_>
    <_>
      <rects>
        <_>
          2 6 4 30 -1.</_>
        <_>
          2 6 2 15 2.</_>
        <_>
          4 21 2 15 2.</_></rects>
      <tilted>0</tilted></_>
    <_>
      <rects>
        <_>
          2 6 4 32 -1.</_>
        <_>
          2 6 2 16 2.</_>
        <_>
          4 22 2 16 2.</_></rects>
      <tilted>0</tilted></_>
    <_>
      <rects>
        <_>
          2 16 4 16 -1.</_>
        <_>
          2 24 4 8 2.</_></rects>
      <tilted>0</tilted></_>
    <_>
      <rects>
        <_>
          2 21 8 8 -1.</_>
        <_>
          2 25 8 4 2.</_></rects>
      <tilted>0</tilted></_>
    <_>
      <rects>
        <_>
          2 40 7 9 -1.</_>
        <_>
          2 43 7 3 3.</_></rects>
      <tilted>0</tilted></_>
    <_>
      <rects>
        <_>
          2 45 15 4 -1.</_>
        <_>
          7 45 5 4 3.</_></rects>
      <tilted>0</tilted></_>
    <_>
      <rects>
        <_>
          2 48 15 2 -1.</_>
        <_>
          7 48 5 2 3.</_></rects>
      <tilted>0</tilted></_>
    <_>
      <rects>
        <_>
          3 0 18 1 -1.</_>
        <_>
          9 0 6 1 3.</_></rects>
      <tilted>0</tilted></_>
    <_>
      <rects>
        <_>
          3 0 18 1 -1.</_>
        <_>
          12 0 9 1 2.</_></rects>
      <tilted>0</tilted></_>
    <_>
      <rects>
        <_>
          3 2 28 4 -1.</_>
        <_>
          3 2 14 2 2.</_>
        <_>
          17 4 14 2 2.</_></rects>
      <tilted>0</tilted></_>
    <_>
      <rects>
        <_>
          3 4 2 3 -1.</_>
        <_>
          4 4 1 3 2.</_></rects>
      <tilted>0</tilted></_>
    <_>
      <rects>
        <_>
          3 7 4 38 -1.</_>
        <_>
          3 7 2 19 2.</_>
        <_>
          5 26 2 19 2.</_></rects>
      <tilted>0</tilted></_>
    <_>
      <rects>
        <_>
          3 14 20 36 -1.</_>
        <_>
          3 32 20 18 2.</_></rects>
      <tilted>0</tilted></_>
    <_>
      <rects>
        <_>
          4 22 6 23 -1.</_>
        <_>
          7 22 3 23 2.</_></rects>
      <tilted>0</tilted></_>
    <_>
      <rects>
        <_>
          4 38 24 3 -1.</_>
        <_>
          16 38 12 3 2.</_></rects>
      <tilted>0</tilted></_>
    <_>
      <rects>
        <_>
          5 11 30 12 -1.</_>
        <_>
          5 15 30 4 3.</_></rects>
      <tilted>0</tilted></_>
    <_>
      <rects>
        <_>
          5 35 10 14 -1.</_>
        <_>
          10 35 5 14 2.</_></rects>
      <tilted>0</tilted></_>
    <_>
      <rects>
        <_>
          5 38 2 3 -1.</_>
        <_>
          6 38 1 3 2.</_></rects>
      <tilted>0</tilted></_>
    <_>
      <rects>
        <_>
          6 0 26 6 -1.</_>
        <_>
          6 3 26 3 2.</_></rects>
      <tilted>0</tilted></_>
    <_>
      <rects>
        <_>
          6 1 8 2 -1.</_>
        <_>
          10 1 4 2 2.</_></rects>
      <tilted>0</tilted></_>
    <_>
      <rects>
        <_>
          6 14 18 36 -1.</_>
        <_>
          6 32 18 18 2.</_></rects>
      <tilted>0</tilted></_>
    <_>
      <rects>
        <_>
          6 18 9 32 -1.</_>
        <_>
          9 18 3 32 3.</_></rects>
      <tilted>0</tilted></_>
    <_>
      <rects>
        <_>
          6 26 14 2 -1.</_>
        <_>
          6 26 7 1 2.</_>
        <_>
          13 27 7 1 2.</_></rects>
      <tilted>0</tilted></_>
    <_>
      <rects>
        <_>
          6 38 4 11 -1.</_>
        <_>
          8 38 2 11 2.</_></rects>
      <tilted>0</tilted></_>
    <_>
      <rects>
        <_>
          7 0 18 45 -1.</_>
        <_>
          7 15 18 15 3.</_></rects>
      <tilted>0</tilted></_>
    <_>
      <rects>
        <_>
          7 5 4 6 -1.</_>
        <_>
          7 5 2 3 2.</_>
        <_>
          9 8 2 3 2.</_></rects>
      <tilted>0</tilted></_>
    <_>
      <rects>
        <_>
          7 19 4 4 -1.</_>
        <_>
          7 19 2 2 2.</_>
        <_>
          9 21 2 2 2.</_></rects>
      <tilted>0</tilted></_>
    <_>
      <rects>
        <_>
          7 33 4 2 -1.</_>
        <_>
          9 33 2 2 2.</_></rects>
      <tilted>0</tilted></_>
    <_>
      <rects>
        <_>
          7 42 30 8 -1.</_>
        <_>
          7 46 30 4 2.</_></rects>
      <tilted>0</tilted></_>
    <_>
      <rects>
        <_>
          8 0 18 1 -1.</_>
        <_>
          17 0 9 1 2.</_></rects>
      <tilted>0</tilted></_>
    <_>
      <rects>
        <_>
          8 6 8 4 -1.</_>
        <_>
          8 6 4 2 2.</_>
        <_>
          12 8 4 2 2.</_></rects>
      <tilted>0</tilted></_>
    <_>
      <rects>
        <_>
          8 9 8 4 -1.</_>
        <_>
          8 11 8 2 2.</_></rects>
      <tilted>0</tilted></_>
    <_>
      <rects>
        <_>
          8 39 1 2 -1.</_>
        <_>
          8 40 1 1 2.</_></rects>
      <tilted>0</tilted></_>
    <_>
      <rects>
        <_>
          8 46 31 4 -1.</_>
        <_>
          8 48 31 2 2.</_></rects>
      <tilted>0</tilted></_>
    <_>
      <rects>
        <_>
          8 48 35 2 -1.</_>
        <_>
          8 49 35 1 2.</_></rects>
      <tilted>0</tilted></_>
    <_>
      <rects>
        <_>
          9 0 30 9 -1.</_>
        <_>
          24 0 15 9 2.</_></rects>
      <tilted>0</tilted></_>
    <_>
      <rects>
        <_>
          9 6 10 2 -1.</_>
        <_>
          9 6 5 1 2.</_>
        <_>
          14 7 5 1 2.</_></rects>
      <tilted>0</tilted></_>
    <_>
      <rects>
        <_>
          9 8 10 2 -1.</_>
        <_>
          9 8 5 1 2.</_>
        <_>
          14 9 5 1 2.</_></rects>
      <tilted>0</tilted></_>
    <_>
      <rects>
        <_>
          9 9 17 22 -1.</_>
        <_>
          9 20 17 11 2.</_></rects>
      <tilted>0</tilted></_>
    <_>
      <rects>
        <_>
          9 20 23 30 -1.</_>
        <_>
          9 35 23 15 2.</_></rects>
      <tilted>0</tilted></_>
    <_>
      <rects>
        <_>
          9 22 6 2 -1.</_>
        <_>
          9 23 6 1 2.</_></rects>
      <tilted>0</tilted></_>
    <_>
      <rects>
        <_>
          9 27 11 18 -1.</_>
        <_>
          9 36 11 9 2.</_></rects>
      <tilted>0</tilted></_>
    <_>
      <rects>
        <_>
          10 0 6 2 -1.</_>
        <_>
          12 0 2 2 3.</_></rects>
      <tilted>0</tilted></_>
    <_>
      <rects>
        <_>
          10 8 8 2 -1.</_>
        <_>
          10 8 4 1 2.</_>
        <_>
          14 9 4 1 2.</_></rects>
      <tilted>0</tilted></_>
    <_>
      <rects>
        <_>
          10 14 1 6 -1.</_>
        <_>
          10 16 1 2 3.</_></rects>
      <tilted>0</tilted></_>
    <_>
      <rects>
        <_>
          10 26 37 24 -1.</_>
        <_>
          10 38 37 12 2.</_></rects>
      <tilted>0</tilted></_>
    <_>
      <rects>
        <_>
          10 46 36 2 -1.</_>
        <_>
          10 46 18 1 2.</_>
        <_>
          28 47 18 1 2.</_></rects>
      <tilted>0</tilted></_>
    <_>
      <rects>
        <_>
          11 10 6 2 -1.</_>
        <_>
          11 10 3 1 2.</_>
        <_>
          14 11 3 1 2.</_></rects>
      <tilted>0</tilted></_>
    <_>
      <rects>
        <_>
          11 13 3 3 -1.</_>
        <_>
          11 14 3 1 3.</_></rects>
      <tilted>0</tilted></_>
    <_>
      <rects>
        <_>
          11 23 26 26 -1.</_>
        <_>
          11 36 26 13 2.</_></rects>
      <tilted>0</tilted></_>
    <_>
      <rects>
        <_>
          11 41 13 6 -1.</_>
        <_>
          11 44 13 3 2.</_></rects>
      <tilted>0</tilted></_>
    <_>
      <rects>
        <_>
          12 0 8 1 -1.</_>
        <_>
          16 0 4 1 2.</_></rects>
      <tilted>0</tilted></_>
    <_>
      <rects>
        <_>
          12 8 1 3 -1.</_>
        <_>
          12 9 1 1 3.</_></rects>
      <tilted>0</tilted></_>
    <_>
      <rects>
        <_>
          12 14 3 3 -1.</_>
        <_>
          12 15 3 1 3.</_></rects>
      <tilted>0</tilted></_>
    <_>
      <rects>
        <_>
          12 15 16 12 -1.</_>
        <_>
          12 21 16 6 2.</_></rects>
      <tilted>0</tilted></_>
    <_>
      <rects>
        <_>
          12 16 2 4 -1.</_>
        <_>
          12 16 1 2 2.</_>
        <_>
          13 18 1 2 2.</_></rects>
      <tilted>0</tilted></_>
    <_>
      <rects>
        <_>
          12 22 2 2 -1.</_>
        <_>
          12 22 1 1 2.</_>
        <_>
          13 23 1 1 2.</_></rects>
      <tilted>0</tilted></_>
    <_>
      <rects>
        <_>
          12 45 27 4 -1.</_>
        <_>
          12 47 27 2 2.</_></rects>
      <tilted>0</tilted></_>
    <_>
      <rects>
        <_>
          13 0 30 13 -1.</_>
        <_>
          28 0 15 13 2.</_></rects>
      <tilted>0</tilted></_>
    <_>
      <rects>
        <_>
          13 5 4 4 -1.</_>
        <_>
          13 5 2 2 2.</_>
        <_>
          15 7 2 2 2.</_></rects>
      <tilted>0</tilted></_>
    <_>
      <rects>
        <_>
          13 13 1 3 -1.</_>
        <_>
          13 14 1 1 3.</_></rects>
      <tilted>0</tilted></_>
    <_>
      <rects>
        <_>
          13 16 1 3 -1.</_>
        <_>
          13 17 1 1 3.</_></rects>
      <tilted>0</tilted></_>
    <_>
      <rects>
        <_>
          14 2 15 38 -1.</_>
        <_>
          14 21 15 19 2.</_></rects>
      <tilted>0</tilted></_>
    <_>
      <rects>
        <_>
          14 6 20 12 -1.</_>
        <_>
          14 10 20 4 3.</_></rects>
      <tilted>0</tilted></_>
    <_>
      <rects>
        <_>
          14 12 1 3 -1.</_>
        <_>
          14 13 1 1 3.</_></rects>
      <tilted>0</tilted></_>
    <_>
      <rects>
        <_>
          14 36 23 14 -1.</_>
        <_>
          14 43 23 7 2.</_></rects>
      <tilted>0</tilted></_>
    <_>
      <rects>
        <_>
          15 0 21 1 -1.</_>
        <_>
          22 0 7 1 3.</_></rects>
      <tilted>0</tilted></_>
    <_>
      <rects>
        <_>
          15 0 17 4 -1.</_>
        <_>
          15 2 17 2 2.</_></rects>
      <tilted>0</tilted></_>
    <_>
      <rects>
        <_>
          15 5 32 24 -1.</_>
        <_>
          15 5 16 12 2.</_>
        <_>
          31 17 16 12 2.</_></rects>
      <tilted>0</tilted></_>
    <_>
      <rects>
        <_>
          16 3 10 4 -1.</_>
        <_>
          16 3 5 2 2.</_>
        <_>
          21 5 5 2 2.</_></rects>
      <tilted>0</tilted></_>
    <_>
      <rects>
        <_>
          17 0 16 4 -1.</_>
        <_>
          17 2 16 2 2.</_></rects>
      <tilted>0</tilted></_>
    <_>
      <rects>
        <_>
          17 2 16 12 -1.</_>
        <_>
          17 6 16 4 3.</_></rects>
      <tilted>0</tilted></_>
    <_>
      <rects>
        <_>
          17 4 16 14 -1.</_>
        <_>
          17 11 16 7 2.</_></rects>
      <tilted>0</tilted></_>
    <_>
      <rects>
        <_>
          17 7 13 8 -1.</_>
        <_>
          17 11 13 4 2.</_></rects>
      <tilted>0</tilted></_>
    <_>
      <rects>
        <_>
          17 9 10 2 -1.</_>
        <_>
          17 9 5 1 2.</_>
        <_>
          22 10 5 1 2.</_></rects>
      <tilted>0</tilted></_>
    <_>
      <rects>
        <_>
          17 12 11 14 -1.</_>
        <_>
          17 19 11 7 2.</_></rects>
      <tilted>0</tilted></_>
    <_>
      <rects>
        <_>
          17 24 10 4 -1.</_>
        <_>
          17 24 5 2 2.</_>
        <_>
          22 26 5 2 2.</_></rects>
      <tilted>0</tilted></_>
    <_>
      <rects>
        <_>
          18 22 6 3 -1.</_>
        <_>
          20 22 2 3 3.</_></rects>
      <tilted>0</tilted></_>
    <_>
      <rects>
        <_>
          19 0 12 4 -1.</_>
        <_>
          19 2 12 2 2.</_></rects>
      <tilted>0</tilted></_>
    <_>
      <rects>
        <_>
          19 1 8 12 -1.</_>
        <_>
          19 7 8 6 2.</_></rects>
      <tilted>0</tilted></_>
    <_>
      <rects>
        <_>
          19 13 12 14 -1.</_>
        <_>
          19 20 12 7 2.</_></rects>
      <tilted>0</tilted></_>
    <_>
      <rects>
        <_>
          20 0 18 1 -1.</_>
        <_>
          26 0 6 1 3.</_></rects>
      <tilted>0</tilted></_>
    <_>
      <rects>
        <_>
          20 2 7 2 -1.</_>
        <_>
          20 3 7 1 2.</_></rects>
      <tilted>0</tilted></_>
    <_>
      <rects>
        <_>
          20 5 12 2 -1.</_>
        <_>
          26 5 6 2 2.</_></rects>
      <tilted>0</tilted></_>
    <_>
      <rects>
        <_>
          20 18 8 2 -1.</_>
        <_>
          20 18 4 1 2.</_>
        <_>
          24 19 4 1 2.</_></rects>
      <tilted>0</tilted></_>
    <_>
      <rects>
        <_>
          21 0 7 6 -1.</_>
        <_>
          21 2 7 2 3.</_></rects>
      <tilted>0</tilted></_>
    <_>
      <rects>
        <_>
          21 1 3 1 -1.</_>
        <_>
          22 1 1 1 3.</_></rects>
      <tilted>0</tilted></_>
    <_>
      <rects>
        <_>
          21 1 8 8 -1.</_>
        <_>
          21 5 8 4 2.</_></rects>
      <tilted>0</tilted></_>
    <_>
      <rects>
        <_>
          21 1 11 12 -1.</_>
        <_>
          21 7 11 6 2.</_></rects>
      <tilted>0</tilted></_>
    <_>
      <rects>
        <_>
          21 3 14 4 -1.</_>
        <_>
          21 3 7 2 2.</_>
        <_>
          28 5 7 2 2.</_></rects>
      <tilted>0</tilted></_>
    <_>
      <rects>
        <_>
          21 3 11 15 -1.</_>
        <_>
          21 8 11 5 3.</_></rects>
      <tilted>0</tilted></_>
    <_>
      <rects>
        <_>
          21 15 8 2 -1.</_>
        <_>
          21 15 4 1 2.</_>
        <_>
          25 16 4 1 2.</_></rects>
      <tilted>0</tilted></_>
    <_>
      <rects>
        <_>
          21 15 10 2 -1.</_>
        <_>
          21 15 5 1 2.</_>
        <_>
          26 16 5 1 2.</_></rects>
      <tilted>0</tilted></_>
    <_>
      <rects>
        <_>
          22 1 2 6 -1.</_>
        <_>
          22 3 2 2 3.</_></rects>
      <tilted>0</tilted></_>
    <_>
      <rects>
        <_>
          22 1 3 3 -1.</_>
        <_>
          22 2 3 1 3.</_></rects>
      <tilted>0</tilted></_>
    <_>
      <rects>
        <_>
          22 3 1 3 -1.</_>
        <_>
          22 4 1 1 3.</_></rects>
      <tilted>0</tilted></_>
    <_>
      <rects>
        <_>
          22 5 18 1 -1.</_>
        <_>
          28 5 6 1 3.</_></rects>
      <tilted>0</tilted></_>
    <_>
      <rects>
        <_>
          22 6 28 10 -1.</_>
        <_>
          22 11 28 5 2.</_></rects>
      <tilted>0</tilted></_>
    <_>
      <rects>
        <_>
          22 14 8 2 -1.</_>
        <_>
          22 14 4 1 2.</_>
        <_>
          26 15 4 1 2.</_></rects>
      <tilted>0</tilted></_>
    <_>
      <rects>
        <_>
          23 10 6 3 -1.</_>
        <_>
          23 11 6 1 3.</_></rects>
      <tilted>0</tilted></_>
    <_>
      <rects>
        <_>
          23 13 8 2 -1.</_>
        <_>
          23 13 4 1 2.</_>
        <_>
          27 14 4 1 2.</_></rects>
      <tilted>0</tilted></_>
    <_>
      <rects>
        <_>
          23 17 2 9 -1.</_>
        <_>
          23 20 2 3 3.</_></rects>
      <tilted>0</tilted></_>
    <_>
      <rects>
        <_>
          23 28 11 10 -1.</_>
        <_>
          23 33 11 5 2.</_></rects>
      <tilted>0</tilted></_>
    <_>
      <rects>
        <_>
          24 2 1 3 -1.</_>
        <_>
          24 3 1 1 3.</_></rects>
      <tilted>0</tilted></_>
    <_>
      <rects>
        <_>
          24 8 3 3 -1.</_>
        <_>
          24 9 3 1 3.</_></rects>
      <tilted>0</tilted></_>
    <_>
      <rects>
        <_>
          24 16 6 2 -1.</_>
        <_>
          24 16 3 1 2.</_>
        <_>
          27 17 3 1 2.</_></rects>
      <tilted>0</tilted></_>
    <_>
      <rects>
        <_>
          24 24 6 4 -1.</_>
        <_>
          24 24 3 2 2.</_>
        <_>
          27 26 3 2 2.</_></rects>
      <tilted>0</tilted></_>
    <_>
      <rects>
        <_>
          25 18 8 4 -1.</_>
        <_>
          25 18 4 2 2.</_>
        <_>
          29 20 4 2 2.</_></rects>
      <tilted>0</tilted></_>
    <_>
      <rects>
        <_>
          25 22 6 4 -1.</_>
        <_>
          25 22 3 2 2.</_>
        <_>
          28 24 3 2 2.</_></rects>
      <tilted>0</tilted></_>
    <_>
      <rects>
        <_>
          26 1 5 12 -1.</_>
        <_>
          26 7 5 6 2.</_></rects>
      <tilted>0</tilted></_>
    <_>
      <rects>
        <_>
          26 1 24 1 -1.</_>
        <_>
          38 1 12 1 2.</_></rects>
      <tilted>0</tilted></_>
    <_>
      <rects>
        <_>
          26 6 24 12 -1.</_>
        <_>
          38 6 12 12 2.</_></rects>
      <tilted>0</tilted></_>
    <_>
      <rects>
        <_>
          27 4 14 26 -1.</_>
        <_>
          27 4 7 13 2.</_>
        <_>
          34 17 7 13 2.</_></rects>
      <tilted>0</tilted></_>
    <_>
      <rects>
        <_>
          28 0 18 1 -1.</_>
        <_>
          34 0 6 1 3.</_></rects>
      <tilted>0</tilted></_>
    <_>
      <rects>
        <_>
          28 36 3 2 -1.</_>
        <_>
          29 36 1 2 3.</_></rects>
      <tilted>0</tilted></_>
    <_>
      <rects>
        <_>
          29 29 4 3 -1.</_>
        <_>
          29 30 4 1 3.</_></rects>
      <tilted>0</tilted></_>
    <_>
      <rects>
        <_>
          30 4 1 3 -1.</_>
        <_>
          30 5 1 1 3.</_></rects>
      <tilted>0</tilted></_>
    <_>
      <rects>
        <_>
          30 4 2 6 -1.</_>
        <_>
          30 6 2 2 3.</_></rects>
      <tilted>0</tilted></_>
    <_>
      <rects>
        <_>
          30 8 8 4 -1.</_>
        <_>
          30 8 4 2 2.</_>
        <_>
          34 10 4 2 2.</_></rects>
      <tilted>0</tilted></_>
    <_>
      <rects>
        <_>
          30 24 7 3 -1.</_>
        <_>
          30 25 7 1 3.</_></rects>
      <tilted>0</tilted></_>
    <_>
      <rects>
        <_>
          31 1 7 16 -1.</_>
        <_>
          31 9 7 8 2.</_></rects>
      <tilted>0</tilted></_>
    <_>
      <rects>
        <_>
          31 4 1 4 -1.</_>
        <_>
          31 6 1 2 2.</_></rects>
      <tilted>0</tilted></_>
    <_>
      <rects>
        <_>
          32 0 16 31 -1.</_>
        <_>
          40 0 8 31 2.</_></rects>
      <tilted>0</tilted></_>
    <_>
      <rects>
        <_>
          32 8 8 2 -1.</_>
        <_>
          32 8 4 1 2.</_>
        <_>
          36 9 4 1 2.</_></rects>
      <tilted>0</tilted></_>
    <_>
      <rects>
        <_>
          32 22 18 17 -1.</_>
        <_>
          38 22 6 17 3.</_></rects>
      <tilted>0</tilted></_>
    <_>
      <rects>
        <_>
          32 33 16 13 -1.</_>
        <_>
          40 33 8 13 2.</_></rects>
      <tilted>0</tilted></_>
    <_>
      <rects>
        <_>
          32 36 6 2 -1.</_>
        <_>
          32 37 6 1 2.</_></rects>
      <tilted>0</tilted></_>
    <_>
      <rects>
        <_>
          33 33 4 2 -1.</_>
        <_>
          33 33 2 1 2.</_>
        <_>
          35 34 2 1 2.</_></rects>
      <tilted>0</tilted></_>
    <_>
      <rects>
        <_>
          34 9 15 1 -1.</_>
        <_>
          39 9 5 1 3.</_></rects>
      <tilted>0</tilted></_>
    <_>
      <rects>
        <_>
          35 7 1 3 -1.</_>
        <_>
          35 8 1 1 3.</_></rects>
      <tilted>0</tilted></_>
    <_>
      <rects>
        <_>
          36 0 6 3 -1.</_>
        <_>
          38 0 2 3 3.</_></rects>
      <tilted>0</tilted></_>
    <_>
      <rects>
        <_>
          36 0 14 1 -1.</_>
        <_>
          43 0 7 1 2.</_></rects>
      <tilted>0</tilted></_>
    <_>
      <rects>
        <_>
          36 2 14 22 -1.</_>
        <_>
          36 2 7 11 2.</_>
        <_>
          43 13 7 11 2.</_></rects>
      <tilted>0</tilted></_>
    <_>
      <rects>
        <_>
          36 28 10 20 -1.</_>
        <_>
          41 28 5 20 2.</_></rects>
      <tilted>0</tilted></_>
    <_>
      <rects>
        <_>
          36 34 4 2 -1.</_>
        <_>
          36 35 4 1 2.</_></rects>
      <tilted>0</tilted></_>
    <_>
      <rects>
        <_>
          37 4 2 9 -1.</_>
        <_>
          37 7 2 3 3.</_></rects>
      <tilted>0</tilted></_>
    <_>
      <rects>
        <_>
          37 8 6 6 -1.</_>
        <_>
          37 8 3 3 2.</_>
        <_>
          40 11 3 3 2.</_></rects>
      <tilted>0</tilted></_>
    <_>
      <rects>
        <_>
          38 7 4 4 -1.</_>
        <_>
          38 7 2 2 2.</_>
        <_>
          40 9 2 2 2.</_></rects>
      <tilted>0</tilted></_>
    <_>
      <rects>
        <_>
          38 12 12 5 -1.</_>
        <_>
          42 12 4 5 3.</_></rects>
      <tilted>0</tilted></_>
    <_>
      <rects>
        <_>
          38 20 12 2 -1.</_>
        <_>
          44 20 6 2 2.</_></rects>
      <tilted>0</tilted></_>
    <_>
      <rects>
        <_>
          38 24 12 8 -1.</_>
        <_>
          44 24 6 8 2.</_></rects>
      <tilted>0</tilted></_>
    <_>
      <rects>
        <_>
          38 25 12 5 -1.</_>
        <_>
          44 25 6 5 2.</_></rects>
      <tilted>0</tilted></_>
    <_>
      <rects>
        <_>
          38 29 2 2 -1.</_>
        <_>
          38 29 1 1 2.</_>
        <_>
          39 30 1 1 2.</_></rects>
      <tilted>0</tilted></_>
    <_>
      <rects>
        <_>
          39 33 2 14 -1.</_>
        <_>
          39 40 2 7 2.</_></rects>
      <tilted>0</tilted></_>
    <_>
      <rects>
        <_>
          40 3 6 1 -1.</_>
        <_>
          43 3 3 1 2.</_></rects>
      <tilted>0</tilted></_>
    <_>
      <rects>
        <_>
          40 20 10 14 -1.</_>
        <_>
          45 20 5 14 2.</_></rects>
      <tilted>0</tilted></_>
    <_>
      <rects>
        <_>
          40 26 10 1 -1.</_>
        <_>
          45 26 5 1 2.</_></rects>
      <tilted>0</tilted></_>
    <_>
      <rects>
        <_>
          40 26 10 7 -1.</_>
        <_>
          45 26 5 7 2.</_></rects>
      <tilted>0</tilted></_>
    <_>
      <rects>
        <_>
          40 40 7 8 -1.</_>
        <_>
          40 44 7 4 2.</_></rects>
      <tilted>0</tilted></_>
    <_>
      <rects>
        <_>
          41 12 2 8 -1.</_>
        <_>
          41 12 1 4 2.</_>
        <_>
          42 16 1 4 2.</_></rects>
      <tilted>0</tilted></_>
    <_>
      <rects>
        <_>
          41 40 4 7 -1.</_>
        <_>
          43 40 2 7 2.</_></rects>
      <tilted>0</tilted></_>
    <_>
      <rects>
        <_>
          42 13 6 20 -1.</_>
        <_>
          42 13 3 10 2.</_>
        <_>
          45 23 3 10 2.</_></rects>
      <tilted>0</tilted></_>
    <_>
      <rects>
        <_>
          42 35 8 9 -1.</_>
        <_>
          42 38 8 3 3.</_></rects>
      <tilted>0</tilted></_>
    <_>
      <rects>
        <_>
          42 42 6 8 -1.</_>
        <_>
          42 42 3 4 2.</_>
        <_>
          45 46 3 4 2.</_></rects>
      <tilted>0</tilted></_>
    <_>
      <rects>
        <_>
          43 0 6 1 -1.</_>
        <_>
          46 0 3 1 2.</_></rects>
      <tilted>0</tilted></_>
    <_>
      <rects>
        <_>
          43 14 6 9 -1.</_>
        <_>
          46 14 3 9 2.</_></rects>
      <tilted>0</tilted></_>
    <_>
      <rects>
        <_>
          44 0 6 3 -1.</_>
        <_>
          46 0 2 3 3.</_></rects>
      <tilted>0</tilted></_>
    <_>
      <rects>
        <_>
          44 10 4 28 -1.</_>
        <_>
          44 10 2 14 2.</_>
        <_>
          46 24 2 14 2.</_></rects>
      <tilted>0</tilted></_>
    <_>
      <rects>
        <_>
          44 11 6 20 -1.</_>
        <_>
          47 11 3 20 2.</_></rects>
      <tilted>0</tilted></_>
    <_>
      <rects>
        <_>
          44 13 6 12 -1.</_>
        <_>
          47 13 3 12 2.</_></rects>
      <tilted>0</tilted></_>
    <_>
      <rects>
        <_>
          44 14 4 14 -1.</_>
        <_>
          44 14 2 7 2.</_>
        <_>
          46 21 2 7 2.</_></rects>
      <tilted>0</tilted></_>
    <_>
      <rects>
        <_>
          44 22 6 2 -1.</_>
        <_>
          47 22 3 2 2.</_></rects>
      <tilted>0</tilted></_>
    <_>
      <rects>
        <_>
          44 22 4 6 -1.</_>
        <_>
          44 25 4 3 2.</_></rects>
      <tilted>0</tilted></_>
    <_>
      <rects>
        <_>
          45 3 3 33 -1.</_>
        <_>
          45 14 3 11 3.</_></rects>
      <tilted>0</tilted></_>
    <_>
      <rects>
        <_>
          45 44 5 6 -1.</_>
        <_>
          45 47 5 3 2.</_></rects>
      <tilted>0</tilted></_>
    <_>
      <rects>
        <_>
          46 2 4 22 -1.</_>
        <_>
          46 2 2 11 2.</_>
        <_>
          48 13 2 11 2.</_></rects>
      <tilted>0</tilted></_>
    <_>
      <rects>
        <_>
          46 5 4 27 -1.</_>
        <_>
          46 14 4 9 3.</_></rects>
      <tilted>0</tilted></_>
    <_>
      <rects>
        <_>
          46 9 2 20 -1.</_>
        <_>
          46 9 1 10 2.</_>
        <_>
          47 19 1 10 2.</_></rects>
      <tilted>0</tilted></_>
    <_>
      <rects>
        <_>
          46 41 4 8 -1.</_>
        <_>
          48 41 2 8 2.</_></rects>
      <tilted>0</tilted></_>
    <_>
      <rects>
        <_>
          48 0 1 4 -1.</_>
        <_>
          48 2 1 2 2.</_></rects>
      <tilted>0</tilted></_>
    <_>
      <rects>
        <_>
          48 0 1 6 -1.</_>
        <_>
          48 3 1 3 2.</_></rects>
      <tilted>0</tilted></_>
    <_>
      <rects>
        <_>
          48 26 2 20 -1.</_>
        <_>
          49 26 1 20 2.</_></rects>
      <tilted>0</tilted></_>
    <_>
      <rects>
        <_>
          48 28 2 10 -1.</_>
        <_>
          49 28 1 10 2.</_></rects>
      <tilted>0</tilted></_>
    <_>
      <rects>
        <_>
          48 29 2 14 -1.</_>
        <_>
          48 36 2 7 2.</_></rects>
      <tilted>0</tilted></_>
    <_>
      <rects>
        <_>
          48 33 1 6 -1.</_>
        <_>
          48 36 1 3 2.</_></rects>
      <tilted>0</tilted></_>
    <_>
      <rects>
        <_>
          49 0 1 50 -1.</_>
        <_>
          49 25 1 25 2.</_></rects>
      <tilted>0</tilted></_>
    <_>
      <rects>
        <_>
          49 2 1 6 -1.</_>
        <_>
          49 4 1 2 3.</_></rects>
      <tilted>0</tilted></_>
    <_>
      <rects>
        <_>
          49 6 1 38 -1.</_>
        <_>
          49 25 1 19 2.</_></rects>
      <tilted>0</tilted></_>
    <_>
      <rects>
        <_>
          49 10 1 40 -1.</_>
        <_>
          49 30 1 20 2.</_></rects>
      <tilted>0</tilted></_>
    <_>
      <rects>
        <_>
          49 12 1 21 -1.</_>
        <_>
          49 19 1 7 3.</_></rects>
      <tilted>0</tilted></_>
    <_>
      <rects>
        <_>
          49 12 1 38 -1.</_>
        <_>
          49 31 1 19 2.</_></rects>
      <tilted>0</tilted></_>
    <_>
      <rects>
        <_>
          49 14 1 16 -1.</_>
        <_>
          49 22 1 8 2.</_></rects>
      <tilted>0</tilted></_>
    <_>
      <rects>
        <_>
          49 15 1 21 -1.</_>
        <_>
          49 22 1 7 3.</_></rects>
      <tilted>0</tilted></_>
    <_>
      <rects>
        <_>
          49 17 1 20 -1.</_>
        <_>
          49 27 1 10 2.</_></rects>
      <tilted>0</tilted></_>
    <_>
      <rects>
        <_>
          49 17 1 26 -1.</_>
        <_>
          49 30 1 13 2.</_></rects>
      <tilted>0</tilted></_>
    <_>
      <rects>
        <_>
          49 24 1 14 -1.</_>
        <_>
          49 31 1 7 2.</_></rects>
      <tilted>0</tilted></_>
    <_>
      <rects>
        <_>
          49 30 1 14 -1.</_>
        <_>
          49 37 1 7 2.</_></rects>
      <tilted>0</tilted></_>
    <_>
      <rects>
        <_>
          49 34 1 8 -1.</_>
        <_>
          49 38 1 4 2.</_></rects>
      <tilted>0</tilted></_>
    <_>
      <rects>
        <_>
          49 37 1 8 -1.</_>
        <_>
          49 41 1 4 2.</_></rects>
      <tilted>0</tilted></_></features></cascade>
</opencv_storage>
